tree
version=v3
num_class=1
num_tree_per_iteration=1
label_index=0
max_feature_idx=43
objective=regression
feature_names=0 1 2 3 4 5 6 7 8 9 10 11 12 13 14 15 16 17 18 19 20 21 22 23 24 25 26 27 28 29 30 31 32 33 34 35 36 37 38 39 40 41 42 43
feature_infos=[0:1] [0:1] [0:1] [0:1] [0:1] [0:1] [0:1] [0:1] [0:1] [0:1] [0:1] [0:1] [0:1] [0:1] [0:1] [0:1] [0:1] [0:1] [0:1] [1:6] [100:830] [101:812] [0:2] [0:4] [0:4] [42000:87000] [42001:87001] [5500:5910] [0:5] [0:10] [0:29] [0:1] [0:93] [6:24] [0:55133700] [0:30] [-1:1.0000000000000002] [-1:1] [-433898.79999999999:509289616.69] [1:37] [-3.6727272727272733:101] [0:1] [0:1] [0:6]
tree_sizes=3038 3174 3176 3167 3170 3174 3192 3180 3186 3193 3189 3186 3183 3189 3191 3200 3181 3186 3190 3181 3190 3205 3224 3191 3188 3221 3204 3181 3182 3211 3195 3206 3192 3211 3224 3218 3188 3194 3227 3208 3199 3212 3207 3227 3218 3198 3229 3225 3204 3233 3239 3221 3214 3212 3233 3220 3226 3225 3188 3231 3220 3196 3213 3230 3206 3219 3220 3195 3211 3196 3240 3206 3228 3217 3227 3240 3214 3182 3272 3274 3203 3208 3247 3229 3187 3197 3217 3199 3220 3233 3247 3221 3224 3202 3201 3220 3238 3248 3220 3236

Tree=0
num_leaves=31
num_cat=0
split_feature=41 41 41 39 41 41 35 41 41 18 39 43 18 41 33 18 43 43 32 35 33 18 43 41 34 43 43 39 43 34
split_gain=39912.5 5575.84 4309.5 713.942 681.451 639.845 675.841 507.97 471.409 323.281 294.651 221.92 162.001 156.159 138.314 123.62 118.835 116.555 119.574 115.153 110.715 107.944 101.274 98.7551 81.7659 81.096 75.1989 67.7433 64.222 63.6497
threshold=0.33974358974358976 0.60357142857142865 0.15894736842105264 4.5000000000000009 0.50675675675675691 0.75500000000000012 2.5000000000000004 0.25462962962962971 0.072751322751322761 0.99342105263157909 10.500000000000002 5.5000000000000009 0.99342105263157909 0.87750000000000006 10.500000000000002 0.99342105263157909 5.5000000000000009 1.5000000000000002 7.5000000000000009 5.5000000000000009 10.500000000000002 0.99342105263157909 4.5000000000000009 0.41042780748663105 26632.000000000004 1.5000000000000002 5.5000000000000009 2.5000000000000004 5.5000000000000009 16634.000000000004
decision_type=2 2 2 2 2 2 2 2 2 2 2 2 2 2 2 2 2 2 2 2 2 2 2 2 2 2 2 2 2 2
left_child=2 4 3 20 9 19 29 15 10 11 14 23 22 -8 -5 16 25 -10 -19 28 -1 26 -9 -2 -25 -4 -6 -22 -3 -7
right_child=1 5 7 8 21 6 13 12 17 -11 -12 -13 -14 -15 -16 -17 -18 18 -20 -21 27 -23 -24 24 -26 -27 -28 -29 -30 -31
leaf_value=0.21162709649433484 0.22085372555786398 0.22816062167670156 0.2123600919774975 0.20802685542056623 0.22833597134597147 0.22156327926499042 0.23861407639760229 0.2171623814094216 0.20888783751350357 0.2181685977446424 0.20696788868109367 0.22810372466317208 0.21373030118447478 0.24354231188919256 0.21052102823684302 0.21100542041492143 0.21945674168471802 0.21571566777842632 0.21045940864508242 0.23380008238693939 0.21850768419952643 0.2240260028295909 0.22072820318938846 0.21947012253526282 0.22421717630682569 0.2144032161025754 0.23321675438435799 0.21401098934398349 0.23448071284225724 0.23009081354070787
leaf_weight=27607 55131 17847 74420 119508 37559 4186 36142 95916 142095 39922 452711 20180 28800 28949 103918 42955 9334 11483 187360 54550 14307 11840 25129 10423 69942 139812 9991 20203 5188 4585
leaf_count=27607 55131 17847 74420 119508 37559 4186 36142 95916 142095 39922 452711 20180 28800 28949 103918 42955 9334 11483 187360 54550 14307 11840 25129 10423 69942 139812 9991 20203 5188 4585
internal_value=0.214226 0.22812 0.21045 0.208783 0.223607 0.235719 0.23905 0.214772 0.208466 0.222183 0.207701 0.223212 0.217101 0.240806 0.209187 0.213462 0.213934 0.209981 0.210763 0.232548 0.213987 0.228298 0.217903 0.222483 0.223602 0.213693 0.229362 0.215875 0.229584 0.226021
internal_weight=0 406435 1.49556e+06 1.07919e+06 254988 151447 73862 416366 1.01708e+06 195598 676137 155676 149845 65091 223426 266521 223566 340938 198843 77585 62117 59390 121045 135496 80365 214232 47550 34510 23035 8771
internal_count=1901993 406435 1495558 1079192 254988 151447 73862 416366 1017075 195598 676137 155676 149845 65091 223426 266521 223566 340938 198843 77585 62117 59390 121045 135496 80365 214232 47550 34510 23035 8771
is_linear=0
shrinkage=1


Tree=1
num_leaves=31
num_cat=0
split_feature=41 41 41 39 41 41 41 35 41 18 39 43 18 41 18 18 43 32 33 18 43 33 43 43 3 39 41 43 35 43
split_gain=36021.1 5032.2 3899.63 664.63 615.01 586.83 577.46 609.947 338.249 291.761 233.587 200.283 146.206 140.934 106.941 106.823 100.312 159.866 97.4519 97.4195 96.6061 96.4025 93.3402 91.3999 90.1354 85.5629 71.2681 67.867 66.4323 64.8912
threshold=0.33974358974358976 0.60357142857142865 0.16904761904761909 7.5000000000000009 0.50675675675675691 0.072751322751322761 0.75500000000000012 2.5000000000000004 0.25462962962962971 0.99342105263157909 2.5000000000000004 5.5000000000000009 0.99342105263157909 0.87750000000000006 0.89444444444444449 0.99342105263157909 1.0000000180025095e-35 7.5000000000000009 10.500000000000002 0.99342105263157909 5.5000000000000009 10.500000000000002 5.5000000000000009 4.5000000000000009 0.077935222672064791 14.500000000000002 0.12250000000000001 5.5000000000000009 4.5000000000000009 3.5000000000000004
decision_type=2 2 2 2 2 2 2 2 2 2 2 2 2 2 2 2 2 2 2 2 2 2 2 2 2 2 2 2 2 2
left_child=2 4 3 10 9 18 15 -8 14 11 29 24 23 -9 22 20 -7 -18 -5 27 28 -12 -4 -10 -2 -20 -19 -6 -3 -1
right_child=1 6 8 5 19 16 7 13 12 -11 21 -13 -14 -15 -16 -17 17 26 25 -21 -22 -23 -24 -25 -26 -27 -28 -29 -30 -31
leaf_value=0.00093313516098912576 0.0070196673760788047 0.013211838682815117 -0.00010778898496754532 -0.0071525582884437947 0.013404149544525016 -0.0060649869393811905 0.011204935443291248 0.023168349615678298 0.0027892390292238375 0.0037451441821766658 -0.0043647785511775365 0.013183516062522905 -0.00047123718944688635 0.027850173692175496 -0.0028431048844873249 0.013661498883380422 0.00090188504046061007 -0.0045753872398890524 -0.0049968041436696062 0.0093096789520712118 0.021563371492130501 -0.0020100719474379185 0.0054512135189356686 0.0061767695520343439 0.0098610588024008652 -0.0067943348137552428 -0.0029432372001532946 0.0180408937337341 0.018060428670323776 0.0076106516177858324
leaf_weight=20149 96173 8747 171020 319777 37559 48829 8771 36142 95916 39922 78690 20180 28800 28949 36174 15293 18343 165922 138445 11840 16815 97105 7900 25129 39323 126869 112050 9991 36730 4440
leaf_count=20149 96173 8747 171020 319777 37559 48829 8771 36142 95916 39922 78690 20180 28800 28949 36174 15293 18343 165922 138445 11840 16815 97105 7900 25129 39323 126869 112050 9991 36730 4440
internal_value=0 0.0131993 -0.00358705 -0.0050376 0.00891158 -0.00560025 0.0204184 0.0235827 0.000906894 0.00755849 -0.00242564 0.0085364 0.00273067 0.0252506 -0.000363636 0.0174059 -0.00396516 -0.00361913 -0.00656479 0.0133679 0.0183252 -0.00306409 0.000137662 0.00349249 0.00784428 -0.00585636 -0.00391747 0.0143784 0.0171279 0.00213888
internal_weight=0 406435 1.49556e+06 1.13062e+06 254988 930235 151447 73862 364939 195598 200384 155676 149845 65091 215094 77585 345144 296315 585091 59390 62292 175795 178920 121045 135496 265314 277972 47550 45477 24589
internal_count=1901993 406435 1495558 1130619 254988 930235 151447 73862 364939 195598 200384 155676 149845 65091 215094 77585 345144 296315 585091 59390 62292 175795 178920 121045 135496 265314 277972 47550 45477 24589
is_linear=0
shrinkage=0.05


Tree=2
num_leaves=31
num_cat=0
split_feature=41 41 41 39 41 41 35 41 41 18 43 39 18 41 43 39 35 43 32 33 18 18 32 32 42 33 43 43 32 43
split_gain=32509 4541.56 3528.1 618.646 555.046 521.158 550.477 460.562 357.885 263.315 187.248 179.141 157.398 127.193 123.041 122.24 98.7504 95.5521 121.696 88.6475 87.9211 79.5553 76.6325 96.7352 127.987 115.894 75.3643 68.6027 67.8091 66.8583
threshold=0.33974358974358976 0.60357142857142865 0.15192307692307697 5.5000000000000009 0.50675675675675691 0.75500000000000012 2.5000000000000004 0.23669467787114851 0.072751322751322761 0.99342105263157909 4.5000000000000009 10.500000000000002 0.99342105263157909 0.87750000000000006 5.5000000000000009 2.5000000000000004 5.5000000000000009 1.0000000180025095e-35 7.5000000000000009 10.500000000000002 0.99342105263157909 0.89444444444444449 8.5000000000000018 41.500000000000007 1.0000000180025095e-35 13.500000000000002 1.0000000180025095e-35 1.5000000000000002 7.5000000000000009 1.0000000180025095e-35
decision_type=2 2 2 2 2 2 2 2 2 2 2 2 2 2 2 2 2 2 2 2 2 2 2 2 2 2 2 2 2 2
left_child=2 4 3 15 9 16 -7 21 11 10 22 19 14 -8 26 -1 -3 -10 -19 -5 -6 27 29 24 -24 -26 -9 -4 -28 -2
right_child=1 5 7 8 20 6 13 12 17 -11 -12 -13 -14 -15 -16 -17 -18 18 -20 -21 -22 -23 23 -25 25 -27 28 -29 -30 -31
leaf_value=0.0020319404801282383 -0.0025827682811216681 0.013790534295033345 -0.0020798370286870412 -0.0057330028663425325 0.013659482395454663 0.010644688182111723 0.022009932900385776 -0.0013389177614032991 -0.0060632315607819622 0.0035578872499180598 0.010918064888849719 -0.0065618802284676233 -0.00083210546818715211 0.026457665841864975 0.0075793664556796777 -0.0021227445806250721 0.017694776476576829 0.00049902519475317209 -0.0038785194317817809 -0.0036084253778936809 0.0088441955998565091 -0.0033128962745716702 0.0062489047121766219 0.00768586128460556 0.0041612234139607853 -0.007310663100534652 0.0070294332627541985 -0.00010312015570938067 0.0023895632595944353 0.011642073686973496
leaf_weight=24589 887 23035 66928 106976 47550 8771 36142 12850 46267 39922 42968 452711 38655 28949 12017 63231 54550 16938 253340 90747 11840 37001 24861 65928 5189 3824 8353 127528 137427 12019
leaf_count=24589 887 23035 66928 106976 47550 8771 36142 12850 46267 39922 42968 452711 38655 28949 12017 63231 54550 16938 253340 90747 11840 37001 24861 65928 5189 3824 8353 127528 137427 12019
internal_value=0 0.0125393 -0.0034077 -0.00497754 0.008466 0.0193974 0.0224035 0.000349143 -0.00534246 0.00718057 0.00810958 -0.0060135 0.0020488 0.023988 0.00270139 -0.000959461 0.0165356 -0.0039636 -0.00360418 -0.00475791 0.0126995 -0.00118783 0.00703889 0.00657005 0.00439838 -0.000706023 0.00233186 -0.000783468 0.00265542 0.0106644
internal_weight=0 406435 1.49556e+06 1.0548e+06 254988 151447 73862 440759 966979 195598 155676 650434 209302 65091 170647 87820 77585 316545 270278 197723 59390 231457 112708 99802 33874 9013 158630 194456 145780 12906
internal_count=1901993 406435 1495558 1054799 254988 151447 73862 440759 966979 195598 155676 650434 209302 65091 170647 87820 77585 316545 270278 197723 59390 231457 112708 99802 33874 9013 158630 194456 145780 12906
is_linear=0
shrinkage=0.05


Tree=3
num_leaves=31
num_cat=0
split_feature=41 41 41 39 41 35 41 41 41 34 18 41 39 43 18 41 18 43 32 33 43 33 18 43 43 34 39 43 33 18
split_gain=29339.4 4098.92 3191.42 548.757 505.147 486.965 474.913 295.004 281.015 241.399 237.641 202.975 189.062 169.439 119.648 88.5151 87.2175 84.8493 99.7939 84.6672 84.5146 83.1526 80.6935 78.8058 77.5375 72.6819 71.6508 61.0239 59.1355 58.7393
threshold=0.33974358974358976 0.60990338164251201 0.16904761904761909 7.5000000000000009 0.50675675675675691 8.5000000000000018 0.072751322751322761 0.78759398496240618 0.25462962962962971 27257.400000000005 0.99342105263157909 0.77097902097902105 2.5000000000000004 5.5000000000000009 0.99342105263157909 0.40370370370370373 0.89444444444444449 1.5000000000000002 7.5000000000000009 10.500000000000002 4.5000000000000009 10.500000000000002 0.99342105263157909 5.5000000000000009 4.5000000000000009 26632.000000000004 14.500000000000002 5.5000000000000009 7.0000000000000009 0.93844696969696983
decision_type=2 2 2 2 2 2 2 2 2 2 2 2 2 2 2 2 2 2 2 2 2 2 2 2 2 2 2 2 2 2
left_child=2 4 3 12 10 9 19 -7 16 -3 13 23 -1 15 24 -2 20 -8 28 -5 -4 -14 27 -11 -10 -17 -21 -6 -19 -13
right_child=1 5 8 6 22 7 17 -9 14 11 -12 29 21 -15 -16 25 -18 18 -20 26 -22 -23 -24 -25 -26 -27 -28 -29 -30 -31
leaf_value=0.0019303438105796604 0.0055104303250499967 0.0086484658732777411 -0.00034810186002226555 -0.0064763707624208222 0.012066963080029162 0.018439674486805207 -0.00451966421505274 0.02525113388955871 0.0025319023914065026 0.013701144575617774 0.0033799931539480986 0.0212628908635977 -0.0039585654061367647 0.011978436072234238 -0.00040607024563683403 0.0042191074701648157 -0.0025691051783772682 -0.0026689744742283265 -0.0032027433580476823 -0.004481606184392215 0.0026305818586714472 -0.0017716568123759648 0.0083875968189622545 0.018425656757787491 0.0056519847180741926 0.0086922594234234325 -0.0061265236815933226 0.016446044611237411 0.0045983775258946645 0.015927434401867013
leaf_weight=24589 54536 9854 150635 319777 37833 32510 143414 31105 95916 35114 39922 24092 78690 20180 28800 10423 36174 4780 190195 138445 28285 97105 11901 11790 25129 70537 126869 10074 6755 6564
leaf_count=24589 54536 9854 150635 319777 37833 32510 143414 31105 95916 35114 39922 24092 78690 20180 28800 10423 36174 4780 190195 138445 28285 97105 11901 11790 25129 70537 126869 10074 6755 6564
internal_value=0 0.0119123 -0.00323732 -0.00454955 0.00805113 0.0184421 -0.00506081 0.0217702 0.000828135 0.01602 0.00682154 0.0169566 -0.00217618 0.0077041 0.00249047 0.0070675 -0.000329926 -0.00358988 -0.00292887 -0.00592851 0.000122791 -0.00275057 0.0120724 0.0148887 0.00317963 0.00811637 -0.00526818 0.0129878 0.00158685 0.0201205
internal_weight=0 406435 1.49556e+06 1.13062e+06 255406 151029 930235 63615 364939 87414 195598 77560 200384 155676 149845 135496 215094 345144 201730 585091 178920 175795 59808 46904 121045 80960 265314 47907 11535 30656
internal_count=1901993 406435 1495558 1130619 255406 151029 930235 63615 364939 87414 195598 77560 200384 155676 149845 135496 215094 345144 201730 585091 178920 175795 59808 46904 121045 80960 265314 47907 11535 30656
is_linear=0
shrinkage=0.05


Tree=4
num_leaves=31
num_cat=0
split_feature=41 41 41 41 39 41 35 41 41 18 39 43 18 43 18 18 39 43 36 35 43 43 32 33 33 18 42 29 33 43
split_gain=26496.5 3566.21 3079.9 668.349 487.51 480.452 394.539 372.673 279.568 168.549 136.009 130.443 128.061 116.584 112.176 105.678 102.056 98.1714 91.5713 84.0398 74.1109 73.5054 79.0527 72.7462 65.3348 64.0157 62.5441 65.3274 136.8 58.5643
threshold=0.37797619047619052 0.17752100840336135 0.67204301075268835 0.50675675675675691 6.5000000000000009 0.088932806324110686 3.5000000000000004 0.28801843317972359 0.83666666666666667 0.90454545454545465 2.5000000000000004 5.5000000000000009 0.99342105263157909 5.5000000000000009 0.99342105263157909 0.86811594202898557 14.500000000000002 4.5000000000000009 0.068657159833630438 2.5000000000000004 4.5000000000000009 1.5000000000000002 7.5000000000000009 10.500000000000002 10.500000000000002 0.99342105263157909 1.0000000180025095e-35 2.5000000000000004 10.500000000000002 3.5000000000000004
decision_type=2 2 2 2 2 2 2 2 2 2 2 2 2 2 2 2 2 2 2 2 2 2 2 2 2 2 2 2 2 2
left_child=1 4 3 9 10 16 18 15 25 11 29 19 13 -5 20 17 23 -3 -4 -2 -9 -7 -23 -6 -12 -8 -21 28 -28 -1
right_child=2 7 6 12 5 21 8 14 -10 -11 24 -13 -14 -15 -16 -17 -18 -19 -20 26 -22 22 -24 -25 -26 -27 27 -29 -30 -31
leaf_value=0.00068836429796211062 0.0042329405033297478 8.1204604970821028e-05 0.0068280227791879134 0.012111451327909079 -0.0055561228012717826 -0.0040017768328441264 0.018985554914743897 0.003339730481981551 0.023773510754721897 0.0037767358811143835 -0.0035680794048958322 0.011959871955932793 0.0087012926945454136 0.016624676735982051 0.00042124642364529963 -0.0021049064496376536 -0.0061763581907583326 0.0029429099517687546 0.014801866803303807 0.0085668149288053563 0.0064660057165513473 0.0018209440722869018 -0.0026865893847317773 -0.0042230360831701282 -0.0011814714601808699 0.014739928497427902 0.0063691853548377021 0.0081684518640693319 -0.007104069986298942 0.0070320053395253046
leaf_weight=20149 19217 179966 5993 63276 218606 125745 46266 84438 36435 31521 52350 16858 20371 18490 26629 45037 275074 35957 9019 69520 24445 10293 176888 192412 63412 10987 6050 9413 2736 4440
leaf_count=20149 19217 179966 5993 63276 218606 125745 46266 84438 36435 31521 52350 16858 20371 18490 26629 45037 275074 35957 9019 69520 24445 10293 176888 192412 63412 10987 6050 9413 2736 4440
internal_value=0 -0.00288149 0.0120865 0.00910683 -0.00430275 -0.00469041 0.0191439 0.00120289 0.0203497 0.00704093 -0.00154339 0.00787207 0.0122483 0.013132 0.00333018 9.82281e-05 -0.00543093 0.000557756 0.0116186 0.00722765 0.0040416 -0.00306681 -0.00243872 -0.00493206 -0.00226075 0.0181708 0.00788371 0.00527427 0.00217355 0.00183383
internal_weight=0 1.53584e+06 366152 257452 1.13937e+06 999018 108700 396472 93688 155315 140351 123794 102137 81766 135512 260960 686092 215923 15012 106936 108883 312926 187181 411018 115762 57253 87719 18199 8786 24589
internal_count=1901993 1535841 366152 257452 1139369 999018 108700 396472 93688 155315 140351 123794 102137 81766 135512 260960 686092 215923 15012 106936 108883 312926 187181 411018 115762 57253 87719 18199 8786 24589
is_linear=0
shrinkage=0.05


Tree=5
num_leaves=31
num_cat=0
split_feature=41 41 41 39 35 41 41 41 41 34 18 41 43 39 18 43 33 43 18 43 32 2 2 33 18 39 43 32 18 43
split_gain=23918.7 3349.34 2617.58 468.072 412.878 403.442 347.236 259.906 244.341 202.235 193.934 166.652 145.741 139.282 131.053 108.231 105.333 80.8914 80.7841 79.2268 97.5479 70.3505 69.3318 65.9547 65.7427 65.6831 62.7562 59.938 73.1141 67.7907
threshold=0.33974358974358976 0.60990338164251201 0.15192307692307697 5.5000000000000009 8.5000000000000018 0.50675675675675691 0.22401433691756276 0.072751322751322761 0.82480818414322266 39921.000000000007 0.99342105263157909 0.85092592592592597 4.5000000000000009 10.500000000000002 0.99342105263157909 5.5000000000000009 10.500000000000002 2.5000000000000004 0.73030303030303034 1.0000000180025095e-35 7.5000000000000009 0.036666666666666674 0.12250000000000001 10.500000000000002 0.99342105263157909 1.5000000000000002 5.5000000000000009 7.5000000000000009 0.86811594202898557 1.0000000180025095e-35
decision_type=2 2 2 2 2 2 2 2 2 2 2 2 2 2 2 2 2 2 2 2 2 2 2 2 2 2 2 2 2 2
left_child=2 5 3 16 9 10 27 13 -6 17 12 18 21 23 15 22 -1 -3 26 -9 -21 -2 -8 -5 -7 -18 -11 29 -29 -4
right_child=1 4 6 7 8 24 14 19 -10 11 -12 -13 -14 -15 -16 -17 25 -19 -20 20 -22 -23 -24 -25 -26 -27 -28 28 -30 -31
leaf_value=-0.0026674471617921082 0.0052472526636184761 0.0054032545570589672 -0.0057965466253664518 -0.0048983982660061893 0.01722018935448516 0.01168539070835105 0.0014236793772534665 -0.0053294200185038752 0.023559715275052337 0.014082246329375422 0.0030575506284069272 0.019929319795978589 0.0094415555184620692 -0.0056479898327816431 -0.00083439185655846898 0.0066803703357366483 0.0053580857621671803 0.012538530263710044 0.01064081234797631 0.00058334941845679736 -0.0033358860234851632 0.0080406156342839718 0.0039733686170499013 -0.0030658217896365244 0.0075331523151780759 5.167115052947414e-05 0.018400533757273432 -0.00095725368442814776 -0.0036364720129947259 0.0039101374468063933
leaf_weight=40139 81560 7157 2180 106976 38502 47907 141160 46267 25113 30810 39922 16770 42968 452711 42875 12735 6802 8926 12177 16938 253340 31148 32871 90747 11901 40879 11574 168661 29992 10285
leaf_count=40139 81560 7157 2180 106976 38502 47907 141160 46267 25113 30810 39922 16770 42968 452711 42875 12735 6802 8926 12177 16938 253340 31148 32871 90747 11901 40879 11574 168661 29992 10285
internal_value=0 0.0107558 -0.002923 -0.00427518 0.0166583 0.0072654 0.000312956 -0.00459259 0.0197228 0.0144281 0.00616654 0.0155701 0.00696382 -0.00516445 0.00165857 0.00223086 -0.000780126 0.0093633 0.0142302 -0.00341755 -0.00309027 0.00601923 0.00190527 -0.00405732 0.0108592 0.000808665 0.0152615 -0.00115072 -0.00136175 0.00221254
internal_weight=0 406435 1.49556e+06 1.0548e+06 151029 255406 440759 966979 63615 87414 195598 71331 155676 650434 229641 186766 87820 16083 54561 316545 270278 112708 174031 197723 59808 47681 42384 211118 198653 12465
internal_count=1901993 406435 1495558 1054799 151029 255406 440759 966979 63615 87414 195598 71331 155676 650434 229641 186766 87820 16083 54561 316545 270278 112708 174031 197723 59808 47681 42384 211118 198653 12465
is_linear=0
shrinkage=0.05


Tree=6
num_leaves=31
num_cat=0
split_feature=41 41 41 41 39 41 34 41 41 39 18 18 43 18 36 43 43 35 2 43 39 43 32 18 42 41 35 2 5 3
split_gain=21622.7 2903.88 2525.9 530.804 406.081 370.199 329.385 307.798 198.421 147.447 137.114 118.545 110.431 105.517 104.447 101.312 82.9535 76.1841 73.6211 69.0643 68.1999 62.5324 61.5057 68.5638 59.559 57.176 55.8562 55.8058 53.0484 52.577
threshold=0.37797619047619052 0.17752100840336135 0.67204301075268835 0.50675675675675691 7.5000000000000009 0.088932806324110686 54007.500000000007 0.26491228070175438 0.83666666666666667 3.5000000000000004 0.90454545454545465 0.99342105263157909 5.5000000000000009 0.99342105263157909 0.068657159833630438 5.5000000000000009 4.5000000000000009 3.5000000000000004 0.060661764705882366 5.5000000000000009 14.500000000000002 3.5000000000000004 8.5000000000000018 0.86811594202898557 1.0000000180025095e-35 0.12250000000000001 5.5000000000000009 0.27718676122931446 0.19615384615384621 0.072751322751322761
decision_type=2 2 2 2 2 2 2 2 2 2 2 2 2 2 2 2 2 2 2 2 2 2 2 2 2 2 2 2 2 2
left_child=1 4 3 10 9 18 14 19 -8 21 12 16 17 15 -4 29 -9 -2 20 22 -6 -1 -3 28 -19 -7 -12 -11 -24 -5
right_child=2 7 6 13 5 25 8 11 -10 27 26 -13 -14 -15 -16 -17 -18 24 -20 -21 -22 -23 23 -25 -26 -27 -28 -29 -30 -31
leaf_value=-4.7063068564972378e-05 0.0044532450799734027 0.0026522616740371403 0.0053111642189158821 0.0096704178979792471 -0.0046404081451910809 -0.0035296821868813452 0.016608797579655402 0.0025702662642558267 0.021372693094905623 -0.0027054143758700258 0.0018758554823116059 -4.6909502569893409e-06 0.010889800949189456 0.0077999824490616702 0.013626108959013884 0.015077732081845881 0.0054330623154028356 0.0081270861091804879 -0.0022160448293158251 0.004042959898444159 -0.0056960947334722088 0.0051705273954571369 -0.00064379982399331024 -0.0028076706644062383 0.0047225612878363044 -0.002119819604439918 0.0062764630637034803 0.0024677145938969613 0.0018565454737580257 0.012601466506999127
leaf_weight=34111 31133 15104 5416 37369 364459 144423 54157 117293 36649 153972 20354 36094 16858 20371 12478 18490 32265 59413 23211 9072 263663 6905 130189 31112 16390 143229 11167 5396 25343 25907
leaf_count=34111 31133 15104 5416 37369 364459 144423 54157 117293 36649 153972 20354 36094 16858 20371 12478 18490 32265 59413 23211 9072 263663 6905 130189 31112 16390 143229 11167 5396 25343 25907
internal_value=0 -0.00260303 0.0109185 0.00822006 -0.00388553 -0.00432159 0.0173097 0.00108261 0.0185315 -0.00184219 0.00637898 0.00256718 0.00712862 0.0110197 0.0111094 0.0118219 0.00318787 0.00653569 -0.00498136 -0.000224741 -0.00508355 0.000831313 -0.000416647 -0.000664996 0.00739097 -0.00282768 0.00343487 -0.00253026 -0.000236384 0.0108705
internal_weight=0 1.53584e+06 366152 257452 1.13937e+06 938985 108700 396472 90806 200384 155315 185652 123794 102137 17894 81766 149558 106936 651333 210820 628122 41016 201748 186644 75803 287652 31521 159368 155532 63276
internal_count=1901993 1535841 366152 257452 1139369 938985 108700 396472 90806 200384 155315 185652 123794 102137 17894 81766 149558 106936 651333 210820 628122 41016 201748 186644 75803 287652 31521 159368 155532 63276
is_linear=0
shrinkage=0.05


Tree=7
num_leaves=31
num_cat=0
split_feature=41 41 41 41 39 41 35 41 41 39 18 43 43 18 43 41 32 18 36 33 35 3 32 42 43 18 33 5 43 35
split_gain=19514.5 2620.75 2279.62 479.051 366.488 334.77 302.874 283.477 204.725 133.071 123.746 99.7063 95.7024 83.0669 82.8185 74.1536 71.2363 83.1061 70.9245 69.0688 68.0064 63.693 63.2224 66.574 62.9489 60.7802 57.8511 57.7038 56.554 50.4102
threshold=0.37797619047619052 0.17752100840336135 0.67204301075268835 0.50675675675675691 7.5000000000000009 0.072751322751322761 3.5000000000000004 0.28801843317972359 0.85960591133004938 3.5000000000000004 0.90454545454545465 4.5000000000000009 5.5000000000000009 0.99342105263157909 5.5000000000000009 0.12250000000000001 8.5000000000000018 0.89444444444444449 0.074547475389012394 10.500000000000002 3.5000000000000004 0.072751322751322761 37.500000000000007 1.0000000180025095e-35 1.0000000180025095e-35 0.99342105263157909 10.500000000000002 0.20129310344827589 5.5000000000000009 5.5000000000000009
decision_type=2 2 2 2 2 2 2 2 2 2 2 2 2 2 2 2 2 2 2 2 2 2 2 2 2 2 2 2 2 2
left_child=1 4 3 10 9 19 18 14 25 26 11 20 21 28 16 -7 24 22 -4 -6 -2 -5 23 -18 -3 -8 -1 -24 -9 -12
right_child=2 7 6 12 5 15 8 13 -10 -11 29 -13 -14 -15 -16 -17 17 -19 -20 -21 -22 -23 27 -25 -26 -27 -28 -29 -30 -31
leaf_value=-0.001362253539705438 0.003715861671057421 -0.0051549093792671672 0.0056382605911871062 0.0085234128318890084 -0.0053345842688886464 -0.0034883837364024263 0.016632116343543956 0.0031398452493834935 0.02086324055802424 -0.0024037458691019489 0.0017820626964348411 0.0090271403565570021 0.013378445944884089 0.00038059264406913832 0.0040758054551012302 -0.0020138286479282875 -0.00050299775845230024 -0.0024663257566266581 0.01265464601444111 -0.004243347663802903 0.0067654613551734718 0.011409203367827081 0.00017228167602213038 -0.0048604334824434358 0.0038883736820358333 0.012694475505006846 0.0024282841238253291 0.0029332582436882026 0.0071418647820243406 0.0059626396008525089
leaf_weight=17730 25770 2178 5999 48391 319777 210665 51039 99193 30520 159368 20354 35116 22135 26629 12266 143229 43231 39343 9013 265314 62908 31611 113724 10995 16521 12129 23286 22702 9690 11167
leaf_count=17730 25770 2178 5999 48391 319777 210665 51039 99193 30520 159368 20354 35116 22135 26629 12266 143229 43231 39343 9013 265314 62908 31611 113724 10995 16521 12129 23286 22702 9690 11167
internal_value=0 -0.00247287 0.0103726 0.00780906 -0.00369126 -0.00410551 0.0164442 0.00102848 0.0175007 -0.00175008 0.00606003 0.00677219 0.0104687 0.0028838 6.50346e-05 -0.0028916 -0.000132783 -0.000374073 0.0098508 -0.00483975 0.00587924 0.00966367 5.76854e-05 -0.00138652 0.00283504 0.015876 0.000789747 0.000631723 0.003496 0.00326312
internal_weight=0 1.53584e+06 366152 257452 1.13937e+06 938985 108700 396472 93688 200384 155315 123794 102137 135512 260960 353894 248694 229995 15012 585091 88678 80002 190652 54226 18699 63168 41016 136426 108883 31521
internal_count=1901993 1535841 366152 257452 1139369 938985 108700 396472 93688 200384 155315 123794 102137 135512 260960 353894 248694 229995 15012 585091 88678 80002 190652 54226 18699 63168 41016 136426 108883 31521
is_linear=0
shrinkage=0.05


Tree=8
num_leaves=31
num_cat=0
split_feature=41 41 41 39 35 41 41 41 41 39 34 43 18 18 18 34 42 43 5 41 43 32 33 33 43 32 43 29 33 43
split_gain=17620.8 2476.69 1928.51 356.963 328.813 329.414 308.631 268.176 181.545 151.426 144.617 109.865 97.5101 92.4201 89.5033 88.3904 85.5195 83.1466 73.4268 64.3873 63.5722 102.744 59.4395 57.7337 56.9232 72.5345 55.6584 54.5954 137.937 54.2145
threshold=0.33974358974358976 0.60990338164251201 0.14550264550264549 8.5000000000000018 5.5000000000000009 0.78019323671497598 0.45584415584415588 0.22401433691756276 0.060661764705882366 3.5000000000000004 26632.000000000004 5.5000000000000009 0.99342105263157909 0.85410334346504568 0.99342105263157909 24935.400000000005 1.0000000180025095e-35 4.5000000000000009 0.065591397849462385 0.90238095238095251 1.0000000180025095e-35 7.5000000000000009 10.500000000000002 10.500000000000002 1.0000000180025095e-35 8.5000000000000018 4.5000000000000009 2.5000000000000004 10.500000000000002 3.5000000000000004
decision_type=2 2 2 2 2 2 2 2 2 2 2 2 2 2 2 2 2 2 2 2 2 2 2 2 2 2 2 2 2 2
left_child=2 6 3 9 11 -6 13 -4 23 29 -8 15 17 26 16 -3 18 24 -12 -7 -10 -22 -11 -5 -9 -26 -2 28 -18 -1
right_child=1 4 7 8 5 19 10 12 20 22 14 -13 -14 -15 -16 -17 27 -19 -20 -21 21 -23 -24 -25 25 -27 -28 -29 -30 -31
leaf_value=-6.7612750935773283e-05 0.004493201785298084 0.0043272014397802558 -0.0010176327318599805 -0.0052626612459935902 0.013395779384082594 0.017499771701694766 0.0030896221022647897 -0.0016097148016542364 -0.0049231930642199438 -0.0034832976715745028 0.0087272808078537583 0.015211601956244609 -0.00071442235136518677 0.0018834632524578313 0.0057495199314033223 0.01060526044901385 0.0069925996231995861 0.0040771671404703034 0.011943052660884971 0.021334925334072267 0.00080772561497409717 -0.0031981034202787219 -0.0017890435839438834 -0.0041701873657420153 0.0054876967649692045 0.0013709903523107829 0.0071520336807726348 0.0088576943584291658 -0.0078761030044441609 0.0047905866897770847
leaf_weight=34111 75162 7113 216226 278950 61269 28098 13511 14128 47523 96412 45870 10151 42875 26678 22639 26472 5812 36309 28957 17926 17134 243374 111795 213487 11705 124624 26666 7979 2132 6905
leaf_count=34111 75162 7113 216226 278950 61269 28098 13511 14128 47523 96412 45870 10151 42875 26678 22639 26472 5812 36309 28957 17926 17134 243374 111795 213487 11705 124624 26666 7979 2132 6905
internal_value=0 0.00923175 -0.00250883 -0.00367901 0.0143074 0.015797 0.00623035 0.000246078 -0.0041935 -0.00202656 0.00797941 0.0106533 0.00143597 0.00450315 0.00856206 0.00927562 0.00926369 0.00192962 0.00997174 0.0189935 -0.00324143 -0.00293463 -0.00257358 -0.00478904 0.00141136 0.00172444 0.00518948 0.00593636 0.00300216 0.00075026
internal_weight=0 406435 1.49556e+06 1.04969e+06 151029 107293 255406 445867 800468 249223 126900 43736 229641 128506 113389 33585 90750 186766 74827 46024 308031 260508 208207 492437 150457 136329 101828 15923 7944 41016
internal_count=1901993 406435 1495558 1049691 151029 107293 255406 445867 800468 249223 126900 43736 229641 128506 113389 33585 90750 186766 74827 46024 308031 260508 208207 492437 150457 136329 101828 15923 7944 41016
is_linear=0
shrinkage=0.05


Tree=9
num_leaves=31
num_cat=0
split_feature=41 41 41 41 39 41 36 41 41 39 43 18 5 43 34 43 18 2 32 18 1 35 39 43 43 18 32 1 43 5
split_gain=15911.3 2137.31 1874.08 388.074 300.249 276.177 256.833 235.657 150.047 112.79 108.812 89.2798 86.2268 79.4717 77.2518 71.9699 67.9756 64.4453 61.7241 71.6017 60.4877 60.4169 59.5098 56.8658 54.9244 49.1451 48.6471 48.6232 47.8576 43.7803
threshold=0.37797619047619052 0.17752100840336135 0.67204301075268835 0.50675675675675691 7.5000000000000009 0.088932806324110686 0.20084033613445382 0.28801843317972359 0.80277777777777792 2.5000000000000004 5.5000000000000009 0.99342105263157909 0.12250000000000001 5.5000000000000009 100829.00000000001 5.5000000000000009 0.99342105263157909 0.060661764705882366 8.5000000000000018 0.89444444444444449 0.069047619047619066 4.5000000000000009 15.500000000000002 3.5000000000000004 1.0000000180025095e-35 0.53137254901960795 37.500000000000007 0.059411764705882365 5.5000000000000009 0.085144927536231887
decision_type=2 2 2 2 2 2 2 2 2 2 2 2 2 2 2 2 2 2 2 2 2 2 2 2 2 2 2 2 2 2
left_child=1 4 3 10 9 17 -4 15 29 -1 12 13 21 -5 -10 18 28 22 24 20 26 25 -6 -11 -3 -2 -20 -7 -9 -8
right_child=2 7 6 11 5 27 8 16 14 23 -12 -13 -14 -15 -16 -17 -18 -19 19 -21 -22 -23 -24 -25 -26 -27 -28 -29 -30 -31
leaf_value=0.0015956093656526616 0.0037490758851528925 -0.0048345571084510743 0.0066503698968827301 0.0093308640778303996 -0.0040121143065621426 -0.0026408762362134862 0.012143918396643597 0.002846810608829142 0.014645254412053943 -0.0023830736250173915 0.0089086897854387913 0.0064739756195805369 0.006951828739180487 0.013057138047681233 0.018838703455877698 0.0037894610777198441 0.00035620255358627688 -0.0016907761521282102 -0.0017520020551551102 -0.0023004581377179503 0.0020645845253100515 0.0054730656053056624 -0.0050287975884623914 0.00020658027323443859 0.0036126778967429159 -0.00013914661723990303 0.00019332148240809572 -0.00052313833617203935 0.006528295839995423 0.015121997877234268
leaf_weight=24589 40498 2178 8737 63276 404767 257357 24755 99193 16115 151138 20013 20371 38728 18490 34484 12266 26629 23211 44588 39343 30971 45909 223355 24657 16521 10167 115093 30295 9690 24609
leaf_count=24589 40498 2178 8737 63276 404767 257357 24755 99193 16115 151138 20013 20371 38728 18490 34484 12266 26629 23211 44588 39343 30971 45909 223355 24657 16521 10167 115093 30295 9690 24609
internal_value=0 -0.00223293 0.00936614 0.0070418 -0.00333322 -0.00370817 0.0148713 0.000929024 0.0155898 -0.0015762 0.00546759 0.00943564 0.0049586 0.0101735 0.0175032 5.05975e-05 0.00262064 -0.00427803 -0.000133809 -0.000358412 4.2349e-05 0.00415928 -0.00437364 -0.00201985 0.00262877 0.00296882 -0.000349875 -0.00241784 0.00317444 0.0136286
internal_weight=0 1.53584e+06 366152 257452 1.13937e+06 938985 108700 396472 99963 200384 155315 102137 135302 81766 50599 260960 135512 651333 248694 229995 190652 96574 628122 175795 18699 50665 159681 287652 108883 49364
internal_count=1901993 1535841 366152 257452 1139369 938985 108700 396472 99963 200384 155315 102137 135302 81766 50599 260960 135512 651333 248694 229995 190652 96574 628122 175795 18699 50665 159681 287652 108883 49364
is_linear=0
shrinkage=0.05


Tree=10
num_leaves=31
num_cat=0
split_feature=41 41 41 39 34 41 41 41 1 2 43 39 41 43 34 33 18 18 2 41 34 42 43 32 18 42 43 32 39 3
split_gain=14364.6 2024.13 1578.18 313.184 282.733 273.778 267.831 255.506 131.108 111.445 96.1982 91.7854 100.285 86.6003 85.7692 80.6863 73.7478 67.7604 66.49 62.9696 59.2413 55.1636 54.3501 59.0141 54.3624 54.297 50.241 54.9668 47.8668 46.396
threshold=0.33974358974358976 0.60357142857142865 0.13714733542319751 5.5000000000000009 68405.670000000013 0.75500000000000012 0.21980676328502421 0.44636015325670503 0.096006144393241177 0.04083333333333334 5.5000000000000009 10.500000000000002 0.054093567251461992 5.5000000000000009 25225.000000000004 10.500000000000002 0.78759398496240618 0.99342105263157909 0.12771739130434787 0.90238095238095251 24935.400000000005 1.0000000180025095e-35 1.5000000000000002 7.5000000000000009 0.85410334346504568 1.0000000180025095e-35 1.0000000180025095e-35 8.5000000000000018 1.5000000000000002 1.0000000180025095e-35
decision_type=2 2 2 2 2 2 2 2 2 2 2 2 2 2 2 2 2 2 2 2 2 2 2 2 2 2 2 2 2 2
left_child=2 7 3 15 10 21 22 16 14 11 20 -5 -13 17 -9 -1 -2 18 26 -7 -3 -6 -4 -24 -25 -10 -8 -28 -17 -29
right_child=1 4 6 9 5 19 13 8 25 -11 -12 12 -14 -15 -16 28 -18 -19 -20 -21 -22 -23 23 24 -26 -27 27 29 -30 -31
leaf_value=-0.0021952520127189712 0.0045536764736956387 0.0036808634594101596 -0.0021729745082547411 -0.0030501343986087072 0.012453413832975825 0.015355021502153088 -0.0019956852611768962 0.0018229205552226944 0.010110423045147983 -0.001171055436431704 0.013415370500046679 -0.0046598045041211893 -0.0033247646221852521 0.0047567161890724055 0.0065534722426068759 0.0047308148620707688 0.0014741473573924222 -0.0008072903851987723 0.0033109810343677371 0.018822393649462126 0.0089795869425182591 0.0084868476964323897 0.0038131640993472092 -0.00040799635791092343 -0.0031825597194641677 0.0057956078417993068 0.0046074659719919468 0.00045796175450651635 0.00020088598233469692 0.0028245508912076514
leaf_weight=40139 93887 7147 83674 283597 46917 36449 13528 10893 37007 42594 9581 363887 229307 15972 79603 6802 24518 44437 35564 20435 20139 10779 7263 122923 20615 9080 10885 107861 40879 25631
leaf_count=40139 93887 7147 83674 283597 46917 36449 13528 10893 37007 42594 9581 363887 229307 15972 79603 6802 24518 44437 35564 20435 20139 10779 7263 122923 20615 9080 10885 107861 40879 25631
internal_value=0 0.00833524 -0.0022652 -0.00339618 0.0129137 0.0141392 6.73945e-05 0.0056159 0.00708956 -0.00366867 0.00910515 -0.00379001 -0.00414373 0.0011927 0.00598406 -0.000543432 0.003916 0.000953423 0.00135783 0.0166006 0.0075917 0.0117124 -0.00115103 -0.000583985 -0.000806481 0.00926032 0.000917937 0.00119094 0.000847109 0.000912356
internal_weight=0 406435 1.49556e+06 1.0072e+06 151447 114580 488353 254988 136583 919385 36867 876791 593194 253878 90496 87820 118405 237906 193469 56884 27286 57696 234475 150801 143538 46087 157905 144377 47681 133492
internal_count=1901993 406435 1495558 1007205 151447 114580 488353 254988 136583 919385 36867 876791 593194 253878 90496 87820 118405 237906 193469 56884 27286 57696 234475 150801 143538 46087 157905 144377 47681 133492
is_linear=0
shrinkage=0.05


Tree=11
num_leaves=31
num_cat=0
split_feature=41 41 41 41 39 41 36 41 41 43 18 39 5 18 1 43 39 35 4 33 43 34 32 43 32 5 32 18 32 42
split_gain=12971.4 1743.04 1538.06 316.565 247.76 250.98 220.269 199.708 116.256 96.4599 80.3592 78.7031 75.9382 72.9326 69.5572 68.3821 62.5624 62.4281 60.8661 55.644 52.9074 52.6474 54.2386 49.7809 51.6724 49.6737 47.1732 48.1659 49.5821 51.2572
threshold=0.37797619047619052 0.17752100840336135 0.67204301075268835 0.50675675675675691 6.5000000000000009 0.097619047619047633 0.27595186781609199 0.26491228070175438 0.80277777777777792 5.5000000000000009 0.99342105263157909 1.5000000000000002 0.12250000000000001 0.99342105263157909 0.18834459459459463 5.5000000000000009 13.500000000000002 6.5000000000000009 0.042222222222222237 10.500000000000002 1.5000000000000002 45330.000000000007 8.5000000000000018 1.5000000000000002 7.5000000000000009 0.080322580645161304 7.5000000000000009 0.48285714285714293 10.500000000000002 1.0000000180025095e-35
decision_type=2 2 2 2 2 2 2 2 2 2 2 2 2 2 2 2 2 2 2 2 2 2 2 2 2 2 2 2 2 2
left_child=1 4 3 9 11 14 -4 20 -8 12 15 -1 21 18 16 -5 -6 -10 25 -13 -3 -2 -23 -7 -25 -9 -22 28 29 -28
right_child=2 7 6 10 5 23 8 13 17 -11 -12 19 -14 -15 -16 -17 -18 -19 -20 -21 26 22 -24 24 -26 -27 27 -29 -30 -31
leaf_value=0.0029268474557597895 0.0022044546887306673 -0.0013604616331269856 0.0068673652999388761 0.0084314847087726737 -0.0034343012142887732 -0.0028226860383321773 0.01245247359654221 0.001409379309337918 0.013124342903939443 0.0081691369313812035 0.0057032843858514197 -0.0025449113949025642 0.0063205361090011031 1.7880324664231898e-05 -0.0012847638472056871 0.011888010147183312 -0.0043820576987764126 0.017039712203651042 0.0043622320910178128 -0.000456513881226126 0.0044369195648756412 0.0089204459930390997 0.0040868431650619551 0.0023066762900785767 -0.0016434865622944697 0.0038982312871251607 -0.00027340052574308338 -0.001764139116059902 0.0010376428871378179 -0.0067077643510784022
leaf_weight=11467 36569 68095 11397 63276 384816 106208 47718 89140 14311 20013 20371 57967 38728 36094 27168 18490 318028 35274 34553 70917 6676 6510 53495 8749 154049 25865 11612 26875 93342 4220
leaf_count=11467 36569 68095 11397 63276 384816 106208 47718 89140 14311 20013 20371 57967 38728 36094 27168 18490 318028 35274 34553 70917 6676 6510 53495 8749 154049 25865 11612 26875 93342 4220
internal_value=0 -0.00201612 0.00845671 0.00635103 -0.00300975 -0.00328611 0.0134439 0.000839344 0.0142142 0.00492923 0.00851309 -0.00104262 0.00445 0.00203517 -0.00376719 0.00921312 -0.00386315 0.0159097 0.00252202 -0.00139579 -0.000213722 0.00369988 0.00461125 -0.00198058 -0.0014312 0.00196913 0.000333395 0.000132033 0.000598807 -0.00198847
internal_weight=0 1.53584e+06 366152 257452 1.13937e+06 999018 108700 396472 97303 155315 102137 140351 135302 185652 730012 81766 702844 49585 149558 128884 210820 96574 60005 269006 162798 115005 142725 136049 109174 15832
internal_count=1901993 1535841 366152 257452 1139369 999018 108700 396472 97303 155315 102137 140351 135302 185652 730012 81766 702844 49585 149558 128884 210820 96574 60005 269006 162798 115005 142725 136049 109174 15832
is_linear=0
shrinkage=0.05


Tree=12
num_leaves=31
num_cat=0
split_feature=41 41 41 41 39 35 41 41 41 39 36 43 18 41 0 43 43 18 33 33 18 18 5 32 43 4 2 40 2 42
split_gain=11722.7 1879.6 1144.61 300.022 277.975 204.324 190.079 149.59 115.291 97.3771 81.7762 77.0672 72.5241 71.1365 65.4341 61.7149 58.5973 57.2135 53.9661 52.8619 47.1119 46.6169 46.4252 50.3401 59.4014 46.2974 44.2641 43.2559 41.737 39.8218
threshold=0.40370370370370373 0.20942982456140349 0.67204301075268835 0.11324786324786326 4.5000000000000009 5.5000000000000009 0.50675675675675691 0.30217391304347829 0.90238095238095251 11.500000000000002 0.068657159833630438 5.5000000000000009 0.99342105263157909 0.054093567251461992 0.022500000000000003 5.5000000000000009 5.5000000000000009 0.90454545454545465 10.500000000000002 10.500000000000002 0.99342105263157909 0.99342105263157909 0.24199143032034284 7.5000000000000009 1.0000000180025095e-35 0.13563218390804602 0.04083333333333334 0.62069964713728765 0.095454545454545472 1.0000000180025095e-35
decision_type=2 2 2 2 2 2 2 2 2 2 2 2 2 2 2 2 2 2 2 2 2 2 2 2 2 2 2 2 2 2
left_child=1 3 6 4 18 10 11 20 21 19 -4 17 15 -11 -9 28 22 26 -1 -6 25 -7 23 24 -5 -3 -2 -12 -8 -16
right_child=2 7 5 16 9 8 12 14 -10 13 27 -13 -14 -15 29 -17 -18 -19 -20 -21 -22 -23 -24 -25 -26 -27 -28 -29 -30 -31
leaf_value=-0.0015643258427031623 0.004497075586832956 0.00049692261081523976 0.0039787992112624293 -0.0051363804663049116 -0.0033680214469903763 0.013713744201819106 0.0069693529308357226 0.0020633180728243223 0.01760429278993652 -0.0042723404982715875 0.0096778297908666419 0.0083411234260593031 0.0054181202150346205 -0.0030284777099372621 0.0053642343040423077 0.011293609376418521 0.0029132500845315172 0.0023600975985805499 0.0014015540437650349 -0.0021786157971775081 -0.0010978402557496689 0.01021280786164065 0.00028719525194784954 -0.0018588266938531644 0.0024734983494882979 0.0026722156469617588 0.0070643732123551184 0.016102354437142401 0.0095946446829364065 0.0011838028075624217
leaf_weight=27607 57178 128572 6023 3178 184742 50264 38196 115831 17926 324876 19739 16295 20371 177880 28227 18490 8009 21705 34510 188971 35770 11727 34708 228703 13281 30207 23769 3021 25080 7137
leaf_count=27607 57178 128572 6023 3178 184742 50264 38196 115831 17926 324876 19739 16295 20371 177880 28227 18490 8009 21705 34510 188971 35770 11727 34708 228703 13281 30207 23769 3021 25080 7137
internal_value=0 -0.00179779 0.00857078 -0.0027157 -0.0031488 0.0127717 0.0065053 0.00145831 0.0140727 -0.00337787 0.00915958 0.00514676 0.00808744 -0.00383225 0.00263806 0.00875246 -0.00130364 0.00463968 8.34117e-05 -0.00276659 0.000541458 0.0130515 -0.00142432 -0.00166662 0.00100414 0.000910762 0.00525093 0.0105306 0.00800991 0.00452056
internal_weight=0 1.57221e+06 329784 1.22646e+06 938586 108700 221084 345744 79917 876469 28783 118947 102137 502756 151195 81766 287879 102652 62117 373713 194549 61991 279870 245162 16459 158779 80947 22760 63276 35364
internal_count=1901993 1572209 329784 1226465 938586 108700 221084 345744 79917 876469 28783 118947 102137 502756 151195 81766 287879 102652 62117 373713 194549 61991 279870 245162 16459 158779 80947 22760 63276 35364
is_linear=0
shrinkage=0.05


Tree=13
num_leaves=31
num_cat=0
split_feature=41 41 41 41 39 36 41 41 35 3 39 3 5 41 18 33 36 0 43 18 34 32 18 1 43 34 43 18 1 42
split_gain=10579.8 1696.34 1033.01 270.77 253.073 186.891 171.546 135.005 98.4774 85.8981 74.3564 70.4396 67.9942 67.0873 62.6877 61.9807 54.989 53.874 53.6294 53.6235 50.4668 50.0896 53.6123 47.7087 47.6117 46.5316 42.9435 42.5185 44.666 40.5303
threshold=0.40370370370370373 0.20942982456140349 0.67204301075268835 0.11324786324786326 5.5000000000000009 0.37176079734219281 0.50675675675675691 0.30217391304347829 7.5000000000000009 0.084523809523809543 12.500000000000002 0.081666666666666679 0.072751322751322761 0.90692640692640702 0.99342105263157909 10.500000000000002 0.38956639566395662 0.035897435897435902 1.5000000000000002 0.99342105263157909 25652.000000000004 7.5000000000000009 0.66025641025641035 0.32663584637268855 2.5000000000000004 6870.0000000000009 5.5000000000000009 0.99342105263157909 0.069047619047619066 1.0000000180025095e-35
decision_type=2 2 2 2 2 2 2 2 2 2 2 2 2 2 2 2 2 2 2 2 2 2 2 2 2 2 2 2 2 2
left_child=1 3 6 4 15 20 11 27 19 10 23 16 -8 -10 17 -1 -2 -9 -5 24 -4 -20 26 -6 -7 -12 -23 28 -3 -14
right_child=2 7 5 18 9 8 12 14 13 -11 25 -13 29 -15 -16 -17 -18 -19 21 -21 -22 22 -24 -25 -26 -27 -28 -29 -30 -31
leaf_value=-0.001883667143215682 0.0024786259608504464 0.00046555193933579917 0.0030743187315187136 -0.0021350169177901186 -0.002986906744862669 0.0092633577337125021 0.0065922059393851845 0.0024173697220614362 0.013294648758966264 -0.00089954064626742943 -0.0043122077450584093 0.0067323865481418435 0.0099424936840480996 0.017251046555162824 0.00044538242461041332 0.00078281685839648191 0.0051184754000772742 0.0048818697734312024 0.0029238264418962384 0.0071984176249716876 0.0090775227687383744 -0.00074776731362170411 -0.0031173111243295477 9.9456067625474994e-05 0.013523814795396071 -0.0032253495895409271 0.0032158727439234071 -0.0010429483473192622 0.0026248492098458185 0.0059657902534459859
leaf_weight=40139 32396 129390 5132 105608 398795 10422 59555 92350 42576 37017 229568 36108 34725 14318 29663 47681 50443 29182 8972 7552 11015 142425 23696 12927 17685 172459 7178 35770 29389 7857
leaf_count=40139 32396 129390 5132 105608 398795 10422 59555 92350 42576 37017 229568 36108 34725 14318 29663 47681 50443 29182 8972 7552 11015 142425 23696 12927 17685 172459 7178 35770 29389 7857
internal_value=0 -0.0017079 0.00814224 -0.00257991 -0.00299136 0.0121332 0.00618004 0.00138539 0.0129991 -0.00325514 -0.00336229 0.00488942 0.00768306 0.0142903 0.00250616 -0.000435926 0.0040861 0.00300914 -0.00123846 0.010939 0.00716952 -0.000718998 -0.000907593 -0.00289 0.011944 -0.00384597 -0.000557591 0.000514386 0.000865224 0.00920873
internal_weight=0 1.57221e+06 329784 1.22646e+06 938586 108700 221084 345744 92553 850766 813749 118947 102137 56894 151195 87820 82839 121532 287879 35659 16147 182271 173299 411722 28107 402027 149603 194549 158779 42582
internal_count=1901993 1572209 329784 1226465 938586 108700 221084 345744 92553 850766 813749 118947 102137 56894 151195 87820 82839 121532 287879 35659 16147 182271 173299 411722 28107 402027 149603 194549 158779 42582
is_linear=0
shrinkage=0.05


Tree=14
num_leaves=31
num_cat=0
split_feature=41 41 41 35 39 41 41 3 43 3 2 34 39 2 41 41 36 32 43 40 32 17 18 43 43 18 32 5 18 32
split_gain=9557.33 1362.18 1057.33 258.144 209.051 158.765 150.297 138.565 128.334 115.719 94.6622 81.2746 78.2238 74.3055 68.1034 64.7503 58.0049 55.1064 55.3147 54.4122 54.2235 52.0356 49.3695 47.2423 44.3263 43.5834 42.6608 42.5968 40.9498 42.5177
threshold=0.33974358974358976 0.57417582417582425 0.14550264550264549 7.5000000000000009 4.5000000000000009 0.73431372549019613 0.25462962962962971 0.081666666666666679 5.5000000000000009 0.056623931623931638 0.13818181818181821 39921.000000000007 10.500000000000002 0.12250000000000001 0.45584415584415588 0.060661764705882366 0.26401991614255771 8.5000000000000018 4.5000000000000009 0.76974029317982107 8.5000000000000018 0.21702898550724639 0.94669811320754726 3.5000000000000004 5.5000000000000009 0.91287878787878796 8.5000000000000018 0.044949494949494961 0.90454545454545465 37.500000000000007
decision_type=2 2 2 2 2 2 2 2 2 2 2 2 2 2 2 2 2 2 2 2 2 2 2 2 2 2 2 2 2 2
left_child=2 7 4 8 23 -5 16 13 11 10 12 -3 -6 17 -9 -14 22 -2 -19 25 21 -18 27 -1 26 -13 -8 -4 29 -28
right_child=1 3 6 5 9 -7 24 14 -10 -11 -12 19 15 -15 -16 -17 20 18 -20 -21 -22 -23 -24 -25 -26 -27 28 -29 -30 -31
leaf_value=-0.00049602570936774833 0.0061944453080908747 0.0039137161305887787 -0.00098953251833555785 0.0097142561721837526 -0.0024970686983165772 0.014026369137971492 0.0042197881558449658 0.0046280374575068516 0.011592981208858648 -0.00053059924175255123 -0.00069727553780764241 0.008603467989515317 -0.0038567062624661275 0.0052156147493074385 0.0076816553491085007 -0.0027417402946694927 0.0012730636696161692 0.0017668942415746715 0.004366871969997712 0.017008656855081319 5.9061968751631163e-05 0.0086122046061018337 -0.0028405220670001895 0.0032928505103896606 0.004544780482758695 0.0050288362972564114 -0.00021506116421900727 0.0014781253669858391 -0.00083740287425793493 0.0020533311113340984
leaf_weight=52356 10906 15075 126339 38671 319917 47646 11062 37672 21424 49327 42072 37717 377467 44555 35433 198791 7049 76773 27888 1657 107539 3674 31123 9761 10953 11018 28605 20298 24876 74349
leaf_count=52356 10906 15075 126339 38671 319917 47646 11062 37672 21424 49327 42072 37717 377467 44555 35433 198791 7049 76773 27888 1657 107539 3674 31123 9761 10953 11018 28605 20298 24876 74349
internal_value=0 0.00679892 -0.00184768 0.0101578 -0.00271414 0.0120945 0.000192178 0.0043044 0.00823394 -0.0028911 -0.0030152 0.0071347 -0.00312402 0.00348092 0.00610808 -0.00347208 -0.000460954 0.00281213 0.00245969 0.00809827 0.00039714 0.00378766 -0.00103184 9.93543e-05 0.00148245 0.00779532 0.00124096 -0.000647951 0.000983181 0.00142308
internal_weight=0 406435 1.49556e+06 173208 1.04969e+06 86317 445867 233227 86891 987574 938247 65467 896175 160122 73105 576258 296022 115567 104661 50392 118262 10723 177760 62117 149845 48735 138892 146637 127830 102954
internal_count=1901993 406435 1495558 173208 1049691 86317 445867 233227 86891 987574 938247 65467 896175 160122 73105 576258 296022 115567 104661 50392 118262 10723 177760 62117 149845 48735 138892 146637 127830 102954
is_linear=0
shrinkage=0.05


Tree=15
num_leaves=31
num_cat=0
split_feature=41 41 41 39 41 36 1 41 36 41 39 42 33 1 3 18 34 43 32 32 42 43 43 32 18 5 32 34 32 43
split_gain=8642.82 1384.46 847.489 166.638 200.546 160.122 153.707 151.083 99.6426 85.2228 82.9217 68.2664 55.8465 54.5918 54.5762 53.1559 50.798 50.5481 49.6288 51.5279 50.8196 47.5155 46.5222 63.6479 61.6827 46.2848 45.5416 45.118 45.014 72.4964
threshold=0.40370370370370373 0.19139194139194141 0.67204301075268835 3.5000000000000004 0.10620300751879701 0.37176079734219281 0.096006144393241177 0.30217391304347829 0.4549512987012988 0.80277777777777792 11.500000000000002 1.0000000180025095e-35 10.500000000000002 0.12250000000000001 0.050773195876288667 0.46770833333333339 6870.0000000000009 5.5000000000000009 8.5000000000000018 37.500000000000007 1.0000000180025095e-35 1.5000000000000002 1.0000000180025095e-35 7.5000000000000009 0.66025641025641035 0.20129310344827589 7.5000000000000009 108705.00000000001 7.5000000000000009 1.0000000180025095e-35
decision_type=2 2 2 2 2 2 2 2 2 2 2 2 2 2 2 2 2 2 2 2 2 2 2 2 2 2 2 2 2 2
left_child=1 3 6 -1 10 -4 8 13 -2 -7 12 15 -5 21 -9 -8 -12 18 -10 20 -20 -3 -6 -24 25 -25 -23 -11 29 -18
right_child=2 7 5 4 22 9 11 14 17 27 16 -13 -14 -15 -16 -17 28 -19 19 -21 -22 26 23 24 -26 -27 -28 -29 -30 -31
leaf_value=0.00072325838761346396 0.0029286398527920317 -0.001206675941410924 0.0063796541992891705 -0.0029384848353083723 -0.0031224744776563967 0.010211614216432935 0.0093584498493285324 0.0017110749700230241 0.0085281714592718178 0.011194483711459272 -0.0037559976761838373 0.0043757390896471326 -0.0016965751689076826 0.0018941859790736967 0.0039259712334578298 0.0063523731522670103 -0.0056226302697820578 0.0082240336120825656 0.0037637836053583656 0.0053879425832888753 -0.0028429788489887286 0.0044847886420821435 0.0021414747631989888 -0.0012886497986077643 -0.00342425985529516 0.00098579621885519649 0.00022653748350031256 0.014399756050443602 -0.0029532768860544064 0.0015975660695462966
leaf_weight=41016 54116 65259 16147 183116 32706 44872 36408 114455 9263 17141 284324 14961 179020 41588 36740 24671 4738 15649 11414 50695 3907 6589 14141 174397 30112 25659 133429 30540 191861 13059
leaf_count=41016 54116 65259 16147 183116 32706 44872 36408 114455 9263 17141 284324 14961 179020 41588 36740 24671 4738 15649 11414 50695 3907 6589 14141 174397 30112 25659 133429 30540 191861 13059
internal_value=0 -0.00154366 0.00735925 -0.00240757 -0.0025209 0.0109741 0.00558196 0.00100459 0.00462739 0.0117756 -0.00289927 0.00740278 -0.00232455 0.000242261 0.00224929 0.00814424 -0.0033206 0.0056384 0.0051009 0.00462 0.002079 -9.24094e-05 -0.00135153 -0.00111445 -0.00131449 -0.000996931 0.000426923 0.0132475 -0.00273014 -0.000324628
internal_weight=0 1.57221e+06 329784 1.17415e+06 1.13313e+06 108700 221084 398060 145044 92553 856118 76040 362136 246865 151195 61079 493982 90928 75279 66016 15321 205277 277015 244309 230168 200056 140018 47681 209658 17797
internal_count=1901993 1572209 329784 1174149 1133133 108700 221084 398060 145044 92553 856118 76040 362136 246865 151195 61079 493982 90928 75279 66016 15321 205277 277015 244309 230168 200056 140018 47681 209658 17797
is_linear=0
shrinkage=0.05


Tree=16
num_leaves=31
num_cat=0
split_feature=41 41 41 41 39 34 5 4 41 36 36 0 42 32 43 1 43 33 39 32 42 5 43 32 42 3 18 32 42 33
split_gain=7800.14 1253.34 764.859 199.827 192.938 149.241 147.762 102.242 87.193 85.233 79.1136 75.5923 72.0044 68.7888 65.3627 62.4153 59.7258 52.3032 51.3898 49.687 55.6446 52.5945 49.6121 50.9597 49.5077 48.5839 43.7895 43.4923 59.3706 44.5942
threshold=0.40370370370370373 0.20942982456140349 0.67204301075268835 0.11324786324786326 5.5000000000000009 58659.80000000001 0.075498575498575513 0.10102040816326531 0.83666666666666667 0.38474190283400816 0.26401991614255771 0.057983193277310933 1.0000000180025095e-35 8.5000000000000018 2.5000000000000004 0.19409199048374309 2.5000000000000004 10.500000000000002 12.500000000000002 10.500000000000002 1.0000000180025095e-35 0.17712418300653598 5.5000000000000009 8.5000000000000018 1.0000000180025095e-35 0.056623931623931638 0.99342105263157909 37.500000000000007 1.0000000180025095e-35 13.500000000000002
decision_type=2 2 2 2 2 2 2 2 2 2 2 2 2 2 2 2 2 2 2 2 2 2 2 2 2 2 2 2 2 2
left_child=1 3 6 4 17 16 9 10 -7 -2 -3 15 26 14 -12 18 -4 -1 -6 20 -15 -21 23 -11 -9 -5 -8 28 -25 -30
right_child=2 7 5 25 11 8 12 24 -10 22 13 -13 -14 19 -16 -17 -18 -19 -20 21 -22 -23 -24 27 -26 -27 -28 -29 29 -31
leaf_value=-0.0016681511974981564 0.0024944878537606482 -0.00028485580565691296 0.0029252400339326626 -0.0013075699978021826 -0.0025872367280917554 0.0099947562964324103 0.0083705660483901559 0.0034705888660112438 0.013172012128815353 0.0080309719950500125 0.0036192783043665043 -0.00052192149598396555 0.0038698106612618621 0.00031584307292347396 0.014743615650475148 -0.00070540028077799451 0.0086590134137636658 0.00078133443129314915 -0.0033966769174610455 0.000873692513180409 -0.0068341224361306982 0.0032183337838443691 0.0076338445312962014 0.0037190156006837193 0.00013272101446441421 0.00066596379149902517 0.0050054967952044387 0.0048749884558991737 0.00089806079411972127 -0.0094587669161346945
leaf_weight=40139 43501 110540 7485 252296 399454 53423 52653 59695 36242 9779 12750 34926 14652 9089 1473 31234 11550 47681 385152 103563 3884 31101 16718 12837 13649 35583 11842 54671 2766 1665
leaf_count=40139 43501 110540 7485 252296 399454 53423 52653 59695 36242 9779 12750 34926 14652 9089 1473 31234 11550 47681 385152 103563 3884 31101 16718 12837 13649 35583 11842 54671 2766 1665
internal_value=0 -0.00146648 0.00699129 -0.00221603 -0.00256949 0.0104254 0.00530286 0.0011924 0.011279 0.00433761 0.000746247 -0.00279981 0.00703389 0.00145042 0.00477137 -0.00289732 0.00640436 -0.000338227 -0.00298458 0.00113049 -0.00182479 0.00141519 0.00515212 0.00464441 0.00284943 -0.00106363 0.0077527 0.00418405 0.00199654 -0.00299364
internal_weight=0 1.57221e+06 329784 1.22646e+06 938586 108700 221084 345744 89665 141937 272400 850766 79147 161860 14223 815840 19035 87820 784606 147637 12973 134664 98436 81718 73344 287879 64495 71939 17268 4431
internal_count=1901993 1572209 329784 1226465 938586 108700 221084 345744 89665 141937 272400 850766 79147 161860 14223 815840 19035 87820 784606 147637 12973 134664 98436 81718 73344 287879 64495 71939 17268 4431
is_linear=0
shrinkage=0.05


Tree=17
num_leaves=31
num_cat=0
split_feature=41 41 41 35 39 36 18 41 43 1 2 32 43 3 1 18 32 42 43 2 3 42 39 41 17 2 35 40 29 33
split_gain=7051.16 1029.21 783.02 205.195 166.593 139.902 122.248 113.963 106.449 95.509 87.5474 71.7744 74.1203 69.2393 68.6209 67.7457 63.8584 74.8527 57.771 57.5241 56.6217 55.8095 51.5883 51.1748 48.3258 45.7645 44.5914 43.5838 42.2524 103.282
threshold=0.33974358974358976 0.57417582417582425 0.13714733542319751 7.5000000000000009 4.5000000000000009 0.26209992193598758 0.99342105263157909 0.73431372549019613 5.5000000000000009 0.081666666666666679 0.13818181818181821 8.5000000000000018 1.0000000180025095e-35 1.0000000180025095e-35 0.072751322751322761 0.91287878787878796 10.500000000000002 1.0000000180025095e-35 5.5000000000000009 0.12771739130434787 0.025657894736842109 1.0000000180025095e-35 10.500000000000002 0.26491228070175438 0.1188235294117647 0.02041666666666667 5.5000000000000009 0.46880828901382371 2.5000000000000004 10.500000000000002
decision_type=2 2 2 2 2 2 2 2 2 2 2 2 2 2 2 2 2 2 2 2 2 2 2 2 2 2 2 2 2 2
left_child=2 6 4 8 -1 13 9 -5 15 19 14 12 -7 18 20 27 17 -13 25 -2 22 -11 -6 -18 -14 -4 -8 -3 29 -23
right_child=1 3 5 7 10 11 26 -9 -10 21 -12 16 24 -15 -16 -17 23 -19 -20 -21 -22 28 -24 -25 -26 -27 -28 -29 -30 -31
leaf_value=0.00012456289323381058 0.0028158797752199792 0.0062913112591811192 -0.0014632871253438375 0.0084695573538870871 -0.0022902891582122324 -0.0050167896492759757 0.0001653568919251536 0.012122931609678714 0.010103488559024361 0.006703932759344145 -0.00034782850693831587 8.2552368806438871e-05 0.0029469532221598049 0.0012633729669517088 -0.00058050410500229399 0.0031135135730047353 0.00029161648565779189 -0.0067904387632458643 0.0031477741407317655 0.0051738473096822422 -0.00079316109500895309 0.004428975479471165 -0.0031183040661584261 0.0019927058170559299 0.0084621105836337231 0.00065671792317712916 0.0032996520129167576 0.010337961737200566 0.0059332016792912187 -0.0095602478853096633
leaf_weight=62117 91390 42412 193482 38671 288887 2063 28660 47646 21424 46546 43129 12451 10559 38202 38219 15163 106582 5810 7971 36075 35606 4111 539247 75553 6367 29313 18786 7892 5716 1943
leaf_count=62117 91390 42412 193482 38671 288887 2063 28660 47646 21424 46546 43129 12451 10559 38202 38219 15163 106582 5810 7971 36075 35606 4111 539247 75553 6367 29313 18786 7892 5716 1943
internal_value=0 0.00583985 -0.00158705 0.00875951 -0.00238369 5.59878e-05 0.00367155 0.0104862 0.00704425 0.00425004 -0.00254855 0.000993035 0.00393099 -0.000708319 -0.00265378 0.00604311 0.000714642 -0.00210419 -0.00103472 0.00348323 -0.00274552 0.00592612 -0.00282946 0.00099726 0.00502157 -0.00118436 0.00140636 0.00692617 0.00285014 -6.07934e-05
internal_weight=0 406435 1.49556e+06 173208 1.0072e+06 488353 233227 86317 86891 185781 945088 219385 18989 268968 901959 65467 200396 18261 230766 127465 863740 58316 828134 182135 16926 222795 47446 50304 11770 6054
internal_count=1901993 406435 1495558 173208 1007205 488353 233227 86317 86891 185781 945088 219385 18989 268968 901959 65467 200396 18261 230766 127465 863740 58316 828134 182135 16926 222795 47446 50304 11770 6054
is_linear=0
shrinkage=0.05


Tree=18
num_leaves=31
num_cat=0
split_feature=41 41 41 0 4 36 1 39 36 0 36 5 36 42 2 39 32 43 42 3 43 32 42 39 29 33 39 5 34 41
split_gain=6379.89 1027.49 621.157 164.641 139.698 134.253 125.175 116.816 118.832 92.9684 79.2459 73.927 64 55.8987 55.882 52.0657 50.9579 60.0317 50.5689 46.9666 46.7973 46.1598 46.6825 43.0549 42.8023 125.786 40.3396 40.2322 39.3705 39.1554
threshold=0.41042780748663105 0.20942982456140349 0.67204301075268835 0.035897435897435902 0.072751322751322761 0.37176079734219281 0.029824561403508774 6.5000000000000009 0.18430384471817843 0.069047619047619066 0.6564078282828284 1.0000000180025095e-35 0.26209992193598758 1.0000000180025095e-35 1.0000000180025095e-35 1.5000000000000002 8.5000000000000018 2.5000000000000004 1.0000000180025095e-35 0.3246621621621622 5.5000000000000009 10.500000000000002 1.0000000180025095e-35 13.500000000000002 2.5000000000000004 13.500000000000002 8.5000000000000018 0.13188405797101452 295570.00000000006 0.90692640692640702
decision_type=2 2 2 2 2 2 2 2 2 2 2 2 2 2 2 2 2 2 2 2 2 2 2 2 2 2 2 2 2 2
left_child=1 3 4 6 10 28 7 15 14 12 27 20 -3 -6 19 -1 17 -14 -11 23 -7 22 -18 -9 25 -15 -5 -2 -4 -13
right_child=2 9 5 26 13 11 -8 8 -10 18 -12 29 16 24 -16 -17 21 -19 -20 -21 -22 -23 -24 -25 -26 -27 -28 -29 -30 -31
leaf_value=0.002331606598770416 0.0021481005050085259 -0.00026439025664414103 0.0039465514960520696 0.0032611146165660455 0.0071374497025005097 0.007605754431001803 2.8152589006548044e-05 -0.0025319890689112731 -0.00085767420702440251 0.0033715930215332738 0.0052716144395219613 0.010675211830287752 0.00304500795351524 0.0050021019457533733 -0.00075948051191481337 -0.0012345996084432709 0.00014727606619294241 0.013699559885566518 3.9445853012362865e-05 -0.00091254055566271928 0.011138033954256813 0.001290457276254476 -0.0063258268460855797 -0.0032934756873290887 0.0064744426056601856 -0.0095898378105594394 -0.00015127115356892764 0.0045496787596654396 0.010010684245731545 0.013933887954100239
leaf_weight=11056 57869 110787 12760 10098 63853 30752 62558 463804 101177 56356 58837 35909 12750 5493 36570 137792 9257 1475 14269 33068 13490 137721 3984 309492 7196 2020 60850 24961 3387 12402
leaf_count=11056 57869 110787 12760 10098 63853 30752 62558 463804 101177 56356 58837 35909 12750 5493 36570 137792 9257 1475 14269 33068 13490 137721 3984 309492 7196 2020 60850 24961 3387 12402
internal_value=0 -0.00132419 0.00633278 -0.00200351 0.00480628 0.00942551 -0.00214705 -0.00227156 -0.0024768 0.00107962 0.0038685 0.0101595 0.000665367 0.00649732 -0.00267115 -0.000969712 0.00128893 0.00414979 0.00269837 -0.00275785 0.0086828 0.00101936 -0.00180037 -0.00283675 0.00371848 0.00107881 0.000334412 0.00287182 0.00521857 0.0115118
internal_weight=0 1.57306e+06 328929 1.22646e+06 220229 108700 1.15552e+06 1.09296e+06 944111 346599 141667 92553 275974 78562 842934 148848 165187 14225 70625 806364 44242 150962 13241 773296 14709 7513 70948 82830 16147 48311
internal_count=1901993 1573064 328929 1226465 220229 108700 1155517 1092959 944111 346599 141667 92553 275974 78562 842934 148848 165187 14225 70625 806364 44242 150962 13241 773296 14709 7513 70948 82830 16147 48311
is_linear=0
shrinkage=0.05


Tree=19
num_leaves=31
num_cat=0
split_feature=41 41 41 2 39 43 18 36 34 3 41 4 32 43 5 41 3 43 2 42 39 32 42 4 17 35 43 29 33 5
split_gain=5761.89 826.077 657.38 178.339 139.687 119.879 109.402 107.691 96.5861 89.8859 88.6705 77.7458 71.4962 68.3872 64.3261 60.5348 57.7397 57.7183 55.246 50.6604 50.2149 47.9192 65.1546 41.8784 41.1257 41.0027 40.3231 39.5824 81.2663 37.9395
threshold=0.3550420168067227 0.57417582417582425 0.13714733542319751 0.10102040816326531 4.5000000000000009 5.5000000000000009 0.99342105263157909 0.26401991614255771 68405.670000000013 0.081666666666666679 0.78019323671497598 0.086309523809523822 8.5000000000000018 1.0000000180025095e-35 0.0930735930735931 0.82480818414322266 1.0000000180025095e-35 2.5000000000000004 0.20204081632653068 1.0000000180025095e-35 10.500000000000002 10.500000000000002 1.0000000180025095e-35 0.28285714285714292 0.1408730158730159 5.5000000000000009 3.5000000000000004 2.5000000000000004 13.500000000000002 0.21302521008403363
decision_type=2 2 2 2 2 2 2 2 2 2 2 2 2 2 2 2 2 2 2 2 2 2 2 2 2 2 2 2 2 2
left_child=2 6 4 8 26 7 9 16 17 18 -5 14 13 -9 20 -10 23 -3 -2 -11 -6 22 -14 -4 -15 -8 -1 28 -21 -23
right_child=1 3 5 10 11 -7 25 12 15 19 -12 -13 21 24 -16 -17 -18 -19 -20 27 -22 29 -24 -25 -26 -27 -28 -29 -30 -31
leaf_value=-0.00040779148092350681 0.0024761021009088707 0.0019994684204826993 -0.001349240760652811 0.0083159766219233072 -0.0019787712372820745 0.003531919885422851 8.5153988324006947e-06 -0.0049412188740320722 0.0067143836099080095 0.006239509379202212 0.011759498736419655 -0.00032815865383051929 6.6205182424662406e-05 0.0027523598045776677 -0.00057759368740382651 0.010247629102775933 0.0010613843787630898 0.0061181815980881921 0.0048400850797716147 0.0036455556180043005 -0.0027859430167341548 0.00034333671526604986 -0.0062684303253494654 0.00066301140967456968 0.0077707309618642046 0.0030787207064625066 0.003092643275403571 0.0055885150804867072 -0.0090616675422472114 0.002225966480861612
leaf_weight=52356 88838 14666 194437 46188 294287 23829 28660 2077 43957 46979 31406 47228 12687 10740 45493 16739 36554 20252 34240 3998 558080 138224 5969 29822 6586 17524 9761 5394 1836 33186
leaf_count=52356 88838 14666 194437 46188 294287 23829 28660 2077 43957 46979 31406 47228 12687 10740 45493 16739 36554 20252 34240 3998 558080 138224 5969 29822 6586 17524 9761 5394 1836 33186
internal_value=0 0.00532705 -0.0014217 0.00792877 -0.00215452 7.20838e-05 0.00334595 -0.000103225 0.00648345 0.00389941 0.00970973 -0.00230548 0.000741052 0.00363219 -0.00240949 0.0076888 -0.000781296 0.00438827 0.00313376 0.00551838 -0.00250726 0.000445908 -0.00196057 -0.00108165 0.00465995 0.00117347 0.000142263 0.00250108 -0.000353495 0.000707825
internal_weight=0 400677 1.50132e+06 173208 1.0072e+06 494111 227469 470282 95614 181285 77594 945088 209469 19403 897860 60696 260813 34918 123078 58207 852367 190066 18656 224259 17326 46184 62117 11228 5834 171410
internal_count=1901993 400677 1501316 173208 1007205 494111 227469 470282 95614 181285 77594 945088 209469 19403 897860 60696 260813 34918 123078 58207 852367 190066 18656 224259 17326 46184 62117 11228 5834 171410
is_linear=0
shrinkage=0.05


Tree=20
num_leaves=31
num_cat=0
split_feature=41 41 41 0 3 36 43 4 43 5 1 32 32 43 43 32 18 42 33 43 43 39 36 42 5 34 18 43 42 34
split_gain=5215.53 842.901 508.306 144.044 121.848 118.397 112.342 85.2863 67.7698 66.4422 64.5536 64.504 63.8251 61.1937 60.4071 55.9801 61.6617 56.3234 53.4096 52.3095 51.5296 51.3923 69.7756 47.5496 45.545 45.1498 41.4362 40.1343 40.1117 36.948
threshold=0.41042780748663105 0.20942982456140349 0.67204301075268835 0.035897435897435902 0.081666666666666679 0.49018097805159805 2.5000000000000004 0.10102040816326531 5.5000000000000009 0.072751322751322761 0.19409199048374309 8.5000000000000018 8.5000000000000018 5.5000000000000009 5.5000000000000009 37.500000000000007 0.90454545454545465 1.0000000180025095e-35 13.500000000000002 2.5000000000000004 1.0000000180025095e-35 8.5000000000000018 0.18430384471817843 1.0000000180025095e-35 1.0000000180025095e-35 295570.00000000006 0.48285714285714293 4.5000000000000009 1.0000000180025095e-35 39921.000000000007
decision_type=2 2 2 2 2 2 2 2 2 2 2 2 2 2 2 2 2 2 2 2 2 2 2 2 2 2 2 2 2 2
left_child=1 3 4 6 8 25 10 9 12 11 21 19 20 24 -8 17 29 -14 -19 -3 -2 -1 -23 26 -7 -4 -6 -13 -9 -17
right_child=2 7 5 -5 23 13 14 28 -10 -11 -12 27 15 -15 -16 16 -18 18 -20 -21 -22 22 -24 -25 -26 -27 -28 -29 -30 -31
leaf_value=-0.0016164564799458093 -0.0063027942359137048 0.0020785837350331404 0.0040681765338020318 0.00037424613314159308 0.0075690771217168402 0.0069913642177851371 -0.0012522363477462969 0.0030460358979451478 0.0060539142325814858 0.0020961198901466335 -0.00030244434705389259 -0.00043207232901427929 0.0019091221411829036 0.0112005043630907 0.0020079343405707099 0.002044454447968158 0.00071920745160443606 -2.8600605208404497e-06 -0.0095141076651037854 0.010602456439945604 0.0070373024460230575 -0.0027288141429406411 -0.00107766270298019 0.0033491767616301809 0.0098268019085134412 0.009453696750727783 0.0049581016438608495 0.0013817671461700176 5.1869427393833284e-05 0.0047611947356238525
leaf_weight=196697 768 15940 17315 70948 38056 28531 266711 60033 21617 56660 41512 160541 20086 29712 15008 17300 18432 4024 2331 2029 12607 563408 72181 14463 28122 5020 25296 37649 13747 45249
leaf_count=196697 768 15940 17315 70948 38056 28531 266711 60033 21617 56660 41512 160541 20086 29712 15008 17300 18432 4024 2331 2029 12607 563408 72181 14463 28122 5020 25296 37649 13747 45249
internal_value=0 -0.00119727 0.00572581 -0.00181255 0.00434492 0.00852353 -0.00194682 0.000979933 0.00347556 0.000572057 -0.00222675 0.000172567 0.00301416 0.0093627 -0.00107856 0.00260861 0.00326082 0.000611086 -0.00349156 0.00304107 0.00627131 -0.00232273 -0.0025413 0.00593598 0.00839885 0.00527862 0.00652653 -8.75078e-05 0.00248815 0.00400979
internal_weight=0 1.57306e+06 328929 1.22646e+06 220229 108700 1.15552e+06 346599 142414 272819 873798 216159 120797 86365 281719 107422 80981 26441 6355 17969 13375 832286 635589 77815 56653 22335 63352 198190 73780 62549
internal_count=1901993 1573064 328929 1226465 220229 108700 1155517 346599 142414 272819 873798 216159 120797 86365 281719 107422 80981 26441 6355 17969 13375 832286 635589 77815 56653 22335 63352 198190 73780 62549
is_linear=0
shrinkage=0.05


Tree=21
num_leaves=31
num_cat=0
split_feature=41 41 41 0 2 39 34 43 36 41 2 33 41 3 28 42 43 4 29 42 18 18 39 32 32 42 43 18 42 33
split_gain=4714.58 864.047 384.896 162.462 129.668 125.537 83.2115 75.9957 74.7578 73.4074 72.9859 71.9941 59.6474 56.7822 54.3945 53.4975 50.5528 46.9063 46.2155 74.9688 59.4749 45.3867 44.9444 43.6744 52.171 47.7982 42.6303 41.8061 39.3295 38.109
threshold=0.31698564593301443 0.57417582417582425 0.13714733542319751 0.072751322751322761 0.04083333333333334 3.5000000000000004 55420.000000000007 1.5000000000000002 0.39309523809523822 0.72902097902097907 0.13818181818181821 13.500000000000002 0.75500000000000012 0.025657894736842109 1.5000000000000002 1.0000000180025095e-35 2.5000000000000004 0.062745098039215713 2.5000000000000004 1.0000000180025095e-35 0.48285714285714293 0.44722222222222224 10.500000000000002 8.5000000000000018 10.500000000000002 1.0000000180025095e-35 1.0000000180025095e-35 0.71714285714285719 1.0000000180025095e-35 13.500000000000002
decision_type=2 2 2 2 2 2 2 2 2 2 2 2 2 2 2 2 2 2 2 2 2 2 2 2 2 2 2 2 2 2
left_child=2 4 5 6 8 -1 16 29 -2 28 13 14 -8 17 -9 21 -3 22 19 -13 -20 -6 -7 26 25 -25 -10 -26 -5 -4
right_child=1 3 7 9 15 10 12 11 23 -11 -12 18 -14 -15 -16 -17 -18 -19 20 -21 -22 -23 -24 24 27 -27 -28 -29 -30 -31
leaf_value=0.00076047028130621906 0.00095790395225355267 0.00090509045648427269 -0.00083621947338759217 0.0080780309464036134 0.0060020332866914695 -0.0018377405873264215 0.0055509981000054325 0.0015904456712564335 -0.0054593211844982704 0.010367587108781925 -6.5235866851143514e-05 -0.00088820415647919513 0.0085328591398080144 -0.00034047491905827014 -0.00022151813541842853 0.0017737752621656546 0.0053117880682646938 -0.00052664210449328817 0.00042250458559362224 -0.007531344849896475 -0.0028099527898856188 0.0032740200082902338 -0.0025964323779707581 0.0014602621382845283 0.0033982963699233054 -0.0061484146684427782 0.0066353818063825641 0.00077552578190290744 0.0039110623514701306 -0.0035625801507223527
leaf_weight=41016 88977 11310 127978 28825 42514 306804 42696 112713 782 40381 43619 14402 27620 41047 65481 15653 15329 38089 72387 6023 17712 23772 536630 6421 80065 3042 10662 18752 7047 14244
leaf_count=41016 88977 11310 127978 28825 42514 306804 42696 112713 782 40381 43619 14402 27620 41047 65481 15653 15329 38089 72387 6023 17712 23772 536630 6421 80065 3042 10662 18752 7047 14244
internal_value=0 0.00438329 -0.00141375 0.0071787 0.00271736 -0.0019488 0.00582068 -0.000163233 0.00205561 0.00890541 -0.00206381 0.000302785 0.00672227 -0.0021583 0.000924603 0.00440285 0.00344086 -0.00224295 -0.000699751 -0.00284716 -0.000212944 0.00502369 -0.00232045 0.00287142 0.00256095 -0.000985642 0.00580892 0.00290059 0.00725944 -0.00110927
internal_weight=0 463848 1.43814e+06 173208 290640 1.0072e+06 96955 430940 208701 76253 966189 288718 70316 922570 178194 81939 26639 881523 110524 20425 90099 66286 843434 119724 108280 9463 11444 98817 35872 142222
internal_count=1901993 463848 1438145 173208 290640 1007205 96955 430940 208701 76253 966189 288718 70316 922570 178194 81939 26639 881523 110524 20425 90099 66286 843434 119724 108280 9463 11444 98817 35872 142222
is_linear=0
shrinkage=0.05


Tree=22
num_leaves=31
num_cat=0
split_feature=41 41 41 4 43 3 1 0 43 36 43 36 32 34 39 32 4 18 32 42 2 39 36 42 5 42 18 41 32 28
split_gain=4272.25 690.293 411.227 115.489 110.259 106.278 98.7481 81.0151 71.8484 71.4725 66.9288 64.253 61.5658 115.731 60.3742 56.9499 52.3009 49.6867 64.691 66.9605 51.7121 47.4805 46.176 42.2657 40.3037 38.757 38.8663 37.0624 36.7527 36.7212
threshold=0.41042780748663105 0.19139194139194141 0.67204301075268835 0.072751322751322761 4.5000000000000009 0.050773195876288667 0.069047619047619066 0.035897435897435902 1.5000000000000002 0.26666666666666672 1.0000000180025095e-35 0.6564078282828284 2.5000000000000004 11555.000000000002 3.5000000000000004 7.5000000000000009 0.18019480519480524 0.99342105263157909 10.500000000000002 1.0000000180025095e-35 0.10102040816326531 2.5000000000000004 0.26941930618401211 1.0000000180025095e-35 0.26568627450980398 1.0000000180025095e-35 0.78759398496240618 0.83666666666666667 4.5000000000000009 1.0000000180025095e-35
decision_type=2 2 2 2 2 2 2 2 2 2 2 2 2 2 2 2 2 2 2 2 2 2 2 2 2 2 2 2 2 2
left_child=1 4 3 11 7 9 8 10 -3 -4 -1 -2 13 -12 -14 -10 22 18 19 -17 -20 -6 24 -5 -16 26 -8 -7 -9 -23
right_child=2 6 5 23 21 27 25 28 15 -11 12 -13 14 -15 16 17 -18 -19 20 -21 -22 29 -24 -25 -26 -27 -28 -29 -30 -31
leaf_value=-0.002760088631455564 0.0021900655502111862 -0.00081954545826722752 0.0019929961189056257 0.0060343558541388308 0.0057889235374726363 0.0081938268918044215 0.0034300229148437216 0.0048017839456615105 0.0043041679018941308 0.0069449374351518017 -0.0042388646978578689 0.0043509525752412816 0.00063062326258365531 0.009177234752670578 -0.0020230147048355906 0.00015128468118365498 -4.3299712967661194e-05 -0.00095947418591286061 0.00092210980571917243 -0.0058681850560357105 0.003250815812307262 -0.0013272086733256017 -0.00026019314226457955 0.0030614030544844077 -0.00030177594486409062 4.5220254283202327e-05 0.00014327737108798467 0.01088749540443691 -0.00031477453310174556 0.00070101603124568133
leaf_weight=198733 82830 95982 8606 63853 3366 30699 51813 3769 11113 47530 37721 58837 28182 1679 636654 17820 43527 39854 120279 6237 29733 42417 44058 14709 35929 15200 10884 21865 51021 47093
leaf_count=198733 82830 95982 8606 63853 3366 30699 51813 3769 11113 47530 37721 58837 28182 1679 636654 17820 43527 39854 120279 6237 29733 42417 44058 14709 35929 15200 10884 21865 51021 47093
internal_value=0 -0.00108361 0.00518222 0.00394018 -0.00169412 0.00769864 0.000713338 -0.00183612 0.000325822 0.00618577 -0.00193611 0.00308752 -0.00173828 -0.00366715 -0.00164188 0.000814342 -0.00172613 0.000633051 0.000997667 -0.00140932 0.00138367 -4.08905e-05 -0.00182834 0.00547774 -0.00193107 0.00231031 0.00285945 0.00931431 3.71931e-05 -0.000260119
internal_weight=0 1.57306e+06 328929 220229 1.17415e+06 108700 398915 1.08127e+06 321018 56136 1.02648e+06 141667 827750 39400 788350 225036 760168 213923 174069 24057 150012 92876 716641 78562 672583 77897 62697 52564 54790 89510
internal_count=1901993 1573064 328929 220229 1174149 108700 398915 1081273 321018 56136 1026483 141667 827750 39400 788350 225036 760168 213923 174069 24057 150012 92876 716641 78562 672583 77897 62697 52564 54790 89510
is_linear=0
shrinkage=0.05


Tree=23
num_leaves=31
num_cat=0
split_feature=41 41 41 2 5 39 34 4 1 41 42 5 36 32 33 43 43 4 41 32 43 18 3 34 34 18 32 18 43 39
split_gain=3863.7 723.136 300.065 141.929 118.125 106.545 72.3989 69.7382 67.1661 61.0745 58.5526 58.0769 54.7078 52.2532 51.585 47.348 47.1047 46.5494 43.3618 41.0453 46.3913 37.6684 36.8904 36.1866 35.2833 34.3705 32.9951 32.0414 31.4976 30.5877
threshold=0.30901856763925734 0.57417582417582425 0.13714733542319751 0.10102040816326531 0.075498575498575513 6.5000000000000009 68405.670000000013 1.0000000180025095e-35 0.069047619047619066 0.78759398496240618 1.0000000180025095e-35 0.065591397849462385 0.22599846390168968 8.5000000000000018 10.500000000000002 5.5000000000000009 5.5000000000000009 0.062745098039215713 0.82480818414322266 8.5000000000000018 2.5000000000000004 0.43050193050193059 0.28285714285714292 55810.340000000004 26632.000000000004 0.48285714285714293 12.500000000000002 0.42640692640692646 1.5000000000000002 15.500000000000002
decision_type=2 2 2 2 2 2 2 2 2 2 2 2 2 2 2 2 2 2 2 2 2 2 2 2 2 2 2 2 2 2
left_child=2 4 5 6 7 14 16 13 12 -5 25 17 28 23 -1 24 -3 22 -8 20 -14 -9 29 -2 -15 -6 -16 -10 -4 -7
right_child=1 3 8 9 10 11 18 21 27 -11 -12 -13 19 15 26 -17 -18 -19 -20 -21 -22 -23 -24 -25 -26 -27 -28 -29 -30 -31
leaf_value=-0.0014623183423765741 0.0015690353875075385 0.0023852078950356644 -0.0018961597683976464 0.0069588036064029274 0.0054375824554198926 -0.001986384023764106 0.0054285343215461045 0.0042073338789950883 0.0018704787771186241 0.0098307168380367821 0.0012863928901155487 -0.00026716867092866037 0.0013909136812855615 -0.00090171476842129585 0.0036675933944250736 0.0036661581698079482 0.0067332206195471686 -0.00040482180273349115 0.0084189036175714559 -4.2173291846563088e-05 0.0085879332712364941 0.001482537911156935 -0.00051916031143677379 0.006701273929245747 0.0010958394103680106 0.0031382221879546952 0.00019675504932349381 -0.00085726749428146004 -0.00054712117240457534 -0.0026648650095572783
leaf_weight=55583 6745 26803 67822 47090 45161 521470 43957 37707 51529 30504 16315 48503 12621 28651 7821 14406 8115 41066 16739 156506 2722 19113 33992 6998 96772 25389 55000 13609 119514 243770
leaf_count=55583 6745 26803 67822 47090 45161 521470 43957 37707 51529 30504 16315 48503 12621 28651 7821 14406 8115 41066 16739 156506 2722 19113 33992 6998 96772 25389 55000 13609 119514 243770
internal_value=0 0.003931 -0.00129191 0.00649903 0.00243465 -0.00176176 0.00520967 0.00179421 -0.000176615 0.00808782 0.00398585 -0.00194946 -0.000444504 0.00124049 -0.000352811 0.000951349 0.00339569 -0.00204657 0.00625323 0.000199772 0.00266774 0.00329077 -0.00213092 0.0041824 0.000639528 0.00461011 0.000628863 0.00130058 -0.00103552 -0.00220252
internal_weight=0 470465 1.43153e+06 173208 297257 1.0072e+06 95614 210392 424323 77594 86865 888801 359185 153572 118404 139829 34918 840298 60696 171849 15343 56820 799232 13743 125423 70550 62821 65138 187336 765240
internal_count=1901993 470465 1431528 173208 297257 1007205 95614 210392 424323 77594 86865 888801 359185 153572 118404 139829 34918 840298 60696 171849 15343 56820 799232 13743 125423 70550 62821 65138 187336 765240
is_linear=0
shrinkage=0.05


Tree=24
num_leaves=31
num_cat=0
split_feature=41 41 41 0 3 35 1 2 43 32 34 39 2 16 43 32 41 32 42 43 42 36 5 18 3 18 39 32 33 36
split_gain=3507.57 643.718 281.541 117.53 112.802 102.68 90.2135 82.2236 75.1841 69.2673 106.936 74.1223 56.759 53.1712 50.2054 50.1699 48.1553 45.9272 42.994 42.086 40.7169 40.096 38.4145 35.8006 35.6939 35.2761 34.5218 34.4735 96.6295 33.6036
threshold=0.43095238095238098 0.21980676328502421 0.71714285714285719 0.035897435897435902 0.17000000000000001 4.5000000000000009 0.029824561403508774 0.04083333333333334 1.5000000000000002 2.5000000000000004 11555.000000000002 3.5000000000000004 0.20204081632653068 0.13500000000000004 4.5000000000000009 8.5000000000000018 0.90238095238095251 4.5000000000000009 1.0000000180025095e-35 2.5000000000000004 1.0000000180025095e-35 0.38956639566395662 0.21980676328502416 0.44722222222222224 0.0930735930735931 0.90454545454545465 8.5000000000000018 36.500000000000007 13.500000000000002 0.26941930618401211
decision_type=2 2 2 2 2 2 2 2 2 2 2 2 2 2 2 2 2 2 2 2 2 2 2 2 2 2 2 2 2 2
left_child=1 3 4 6 12 19 8 13 17 10 -10 -11 21 14 24 -15 25 -1 -9 -4 23 -2 29 -6 -3 -7 -5 28 -22 -13
right_child=2 7 5 26 20 16 -8 18 9 11 -12 22 -14 15 -16 -17 -18 -19 -20 -21 27 -23 -24 -25 -26 -27 -28 -29 -30 -31
leaf_value=-7.3299971850862729e-05 0.0007962559287015376 -0.00062250466969024929 0.0015236608465223035 0.0031781068735398689 0.0070152909999462365 0.0079676654067976759 0.00021572008478550964 0.0029636532267149824 -0.0039217312300462159 0.0015915032294437496 0.008728451610625949 -0.001537045574333635 0.0045804834601934708 0.0054632564309503055 0.0017270434870566384 0.0012266364571984912 0.010237424966700055 -0.0022797803524007075 -5.537951788935667e-05 0.0061280623262163214 0.0039844004059238223 0.0030572875285025283 0.00027577240277050502 0.0045883425926028848 0.0012653094155786952 0.0046777494650628868 3.1950305900260015e-05 0.0055064458341226282 -0.0093471260433469344 -3.4705356502696024e-05
leaf_weight=24858 28524 133713 8920 10098 36520 42405 65036 61883 37721 22895 1748 479432 41518 7754 38964 70723 19647 460014 14569 11187 5360 62727 35671 26023 30808 10086 63853 7161 1821 40354
leaf_count=24858 28524 133713 8920 10098 36520 42405 65036 61883 37721 22895 1748 479432 41518 7754 38964 70723 19647 460014 14569 11187 5360 62727 35671 26023 30808 10086 63853 7161 1821 40354
internal_value=0 -0.000932668 0.00494323 -0.00147147 0.00393041 0.00724515 -0.00159389 0.000933958 -0.00170062 -0.00133487 -0.00336148 -0.00119656 0.00304785 0.000539614 0.000113213 0.00164524 0.00812586 -0.00216666 0.00238833 0.00408543 0.00545448 0.00235052 -0.00131148 0.00600548 -0.000268995 0.00733552 0.000461558 0.00305166 0.000603714 -0.00142041
internal_weight=0 1.60009e+06 301899 1.24168e+06 209654 92245 1.16773e+06 358414 1.10269e+06 617821 39469 578352 132769 281962 203485 78477 72138 484872 76452 20107 76885 91251 555457 62543 164521 52491 73951 14342 7181 519786
internal_count=1901993 1600094 301899 1241680 209654 92245 1167729 358414 1102693 617821 39469 578352 132769 281962 203485 78477 72138 484872 76452 20107 76885 91251 555457 62543 164521 52491 73951 14342 7181 519786
is_linear=0
shrinkage=0.05


Tree=25
num_leaves=31
num_cat=0
split_feature=41 41 41 2 1 36 3 0 39 4 35 36 43 39 1 32 32 18 32 42 43 42 5 42 18 39 42 18 1 4
split_gain=3165.58 580.955 254.091 112.707 105.157 92.8859 87.8393 79.8821 71.3992 62.3092 57.1637 53.561 53.5233 52.6346 50.0043 45.9933 44.9798 48.9226 57.9998 60.5357 41.9807 40.5223 39.3926 38.8179 37.5628 37.5333 37.4556 34.4578 34.1761 33.8522
threshold=0.43095238095238098 0.21980676328502421 0.71714285714285719 0.078461538461538485 0.096006144393241177 0.25667735042735046 1.0000000180025095e-35 0.069047619047619066 2.5000000000000004 0.062745098039215713 4.5000000000000009 0.26941930618401211 1.5000000000000002 9.5000000000000018 0.084523809523809543 8.5000000000000018 7.5000000000000009 0.86811594202898557 10.500000000000002 1.0000000180025095e-35 5.5000000000000009 1.0000000180025095e-35 0.19615384615384621 1.0000000180025095e-35 0.44722222222222224 7.5000000000000009 1.0000000180025095e-35 0.38585607940446659 0.24385363064608351 0.26598639455782319
decision_type=2 2 2 2 2 2 2 2 2 2 2 2 2 2 2 2 2 2 2 2 2 2 2 2 2 2 2 2 2 2
left_child=1 3 4 6 10 -4 8 12 -1 11 20 13 -3 28 -7 -13 -14 18 19 -18 -2 24 29 27 -6 -5 -12 -9 -10 -20
right_child=2 7 5 25 21 14 -8 23 9 -11 26 15 16 -15 -16 -17 17 -19 22 -21 -22 -23 -24 -25 -26 -27 -28 -29 -30 -31
leaf_value=0.001086099045340156 0.00098687845192435802 -0.00058376013612779828 0.0022775174889462686 0.0038463693079654202 0.0068435869423220143 0.0061934402503537461 0.00021937783268611601 0.0036630588392057998 -0.0014250174526123191 -0.00012065393738011768 0.0041790823523748504 0.0030503053123731791 0.0041882238777906687 -0.0021293774041353181 0.0086560220959198721 -0.00090302298699739252 0.00032707578071697411 -0.00085204912272426056 0.00067931775877539573 -0.0057401108407653502 0.0050946880488363482 0.0028792128550953998 0.0032657148333185061 7.8622364114933158e-05 0.0043221831941345204 0.00010829145496266118 0.0013477187040029045 0.0010307021593551182 0.0016898912868149327 0.0029413362187969568
leaf_weight=23724 43621 81086 9787 7455 35543 41069 68422 42879 295847 59949 69094 8485 10107 645702 41389 55348 15659 37564 85571 5575 7254 14810 26685 15277 25275 67672 14057 17508 9076 20503
leaf_count=23724 43621 81086 9787 7455 35543 41069 68422 42879 295847 59949 69094 8485 10107 645702 41389 55348 15659 37564 85571 5575 7254 14810 26685 15277 25275 67672 14057 17508 9076 20503
internal_value=0 -0.000886034 0.00469607 -0.0013979 0.00373389 0.00688289 -0.00151879 0.00088726 -0.00162709 -0.001687 0.00289272 -0.00177956 0.000501119 -0.00187371 0.00742951 -0.000377527 0.000937333 0.000765808 0.00116046 -0.00126587 0.00157259 0.0052246 0.00154853 0.00233024 0.00579573 0.000479228 0.00370043 0.00289986 -0.0013323 0.00111654
internal_weight=0 1.60009e+06 301899 1.24168e+06 209654 92245 1.16655e+06 358414 1.09813e+06 1.07441e+06 134026 1.01446e+06 282750 950625 82458 63833 201664 191557 153993 21234 50875 75628 132759 75664 60818 75127 83151 60387 304923 106074
internal_count=1901993 1600094 301899 1241680 209654 92245 1166553 358414 1098131 1074407 134026 1014458 282750 950625 82458 63833 201664 191557 153993 21234 50875 75628 132759 75664 60818 75127 83151 60387 304923 106074
is_linear=0
shrinkage=0.05


Tree=26
num_leaves=31
num_cat=0
split_feature=41 41 41 4 0 39 43 3 36 34 41 33 42 4 41 32 43 39 32 32 18 43 42 43 32 18 33 5 43 33
split_gain=2871.31 527.966 230.193 124.803 101.44 87.8203 62.9654 60.5442 56.9541 55.4007 52.8141 52.0186 46.9672 45.5678 45.5044 42.5034 55.5658 39.7533 38.8231 47.3522 51.0814 47.1503 46.0824 38.7091 77.5818 37.251 36.5447 35.7645 33.666 33.2905
threshold=0.31698564593301443 0.57417582417582425 0.13714733542319751 0.028294573643410852 0.075498575498575513 8.5000000000000018 5.5000000000000009 1.0000000180025095e-35 0.29935064935064942 43431.010000000002 0.85960591133004938 10.500000000000002 1.0000000180025095e-35 0.13563218390804602 0.060661764705882366 8.5000000000000018 2.5000000000000004 1.5000000000000002 8.5000000000000018 10.500000000000002 0.99342105263157909 1.0000000180025095e-35 1.0000000180025095e-35 1.0000000180025095e-35 7.5000000000000009 0.48285714285714293 7.0000000000000009 0.16954022988505749 1.0000000180025095e-35 10.500000000000002
decision_type=2 2 2 2 2 2 2 2 2 2 2 2 2 2 2 2 2 2 2 2 2 2 2 2 2 2 2 2 2 2
left_child=2 4 5 6 8 11 9 13 -2 -3 -5 -1 25 15 29 16 28 -13 21 22 -21 -10 -20 -16 26 -6 -25 -17 -4 -7
right_child=1 3 7 10 12 14 -8 -9 18 -11 -12 17 -14 -15 23 27 -18 -19 19 20 -22 -23 -24 24 -26 -27 -28 -29 -30 -31
leaf_value=-0.0014494240434393549 0.00029193393717188006 0.0010141723987255732 -0.0043247860415289207 0.0063395758761245471 0.0051125850301311582 -0.0024192430715200657 0.0066217434034169095 0.001219642184773466 -0.0058996154960929137 0.0043756921126578098 0.0093622164683929854 0.0037877741727898036 0.0012222466329966585 0.00090752456461637692 -0.0026100757843490435 -0.0010538293035914487 0.0065594561525359448 -0.00014963427263316298 0.00087536927920528473 0.0026317926188314097 6.8997079047284428e-05 0.0054949109782965267 -0.0059593157781119843 -0.0019163918397415607 -0.0012599256440337788 0.0026002584202872627 0.0036294111358112593 0.00052842990021937492 0.0011302712184746895 -0.0015896667288074881
leaf_weight=105770 63786 15834 3351 60983 41850 278950 23194 69128 980 54257 18940 6802 16283 56617 45510 237461 4213 111377 7997 96715 24336 12338 3566 3902 228963 22789 12444 42036 18134 213487
leaf_count=105770 63786 15834 3351 60983 41850 278950 23194 69128 980 54257 18940 6802 16283 56617 45510 237461 4213 111377 7997 96715 24336 12338 3566 3902 228963 22789 12444 42036 18134 213487
internal_value=0 0.00342073 -0.0011033 0.00560587 0.00211849 -0.00151707 0.00436356 -0.000136211 0.00153825 0.0036163 0.00705588 -0.000643928 0.00362226 -0.000395261 -0.00176672 -0.000636941 0.00130901 7.69902e-05 0.002083 0.00182456 0.00211657 0.00465645 -0.00123243 -0.00127081 -0.00102234 0.00422684 0.00230556 -0.000815859 0.00027945 -0.0020596
internal_weight=0 463848 1.43814e+06 173208 290640 1.0072e+06 93285 430940 209718 70091 79923 223949 80922 361812 783256 305195 25698 118179 145932 132614 121051 13318 11563 290819 245309 64639 16346 279497 21485 492437
internal_count=1901993 463848 1438145 173208 290640 1007205 93285 430940 209718 70091 79923 223949 80922 361812 783256 305195 25698 118179 145932 132614 121051 13318 11563 290819 245309 64639 16346 279497 21485 492437
is_linear=0
shrinkage=0.05


Tree=27
num_leaves=31
num_cat=0
split_feature=41 41 41 0 5 35 1 43 2 32 34 39 18 16 18 43 41 32 32 42 43 32 32 18 43 42 5 18 39 33
split_gain=2595.21 474.432 210.245 105.986 97.143 80.9507 80.907 66.6448 65.5781 59.1575 93.9839 59.0109 46.3779 42.8412 43.4569 45.798 41.6829 40.0797 39.9572 39.2802 36.9571 36.1621 90.9232 40.4821 36.0574 34.4074 33.7195 32.2499 32.0387 31.8738
threshold=0.43095238095238098 0.22902097902097909 0.71714285714285719 0.035897435897435902 0.072751322751322761 4.5000000000000009 0.029824561403508774 1.5000000000000002 0.052777777777777785 2.5000000000000004 11555.000000000002 3.5000000000000004 0.90454545454545465 0.13500000000000004 0.69463869463869476 2.5000000000000004 0.91833333333333345 8.5000000000000018 4.5000000000000009 1.0000000180025095e-35 5.5000000000000009 8.5000000000000018 10.500000000000002 0.064583333333333354 2.5000000000000004 1.0000000180025095e-35 0.13809523809523813 0.89444444444444449 4.5000000000000009 13.500000000000002
decision_type=2 2 2 2 2 2 2 2 2 2 2 2 2 2 2 2 2 2 2 2 2 2 2 2 2 2 2 2 2 2
left_child=1 3 4 6 12 24 7 18 13 10 -9 -11 20 14 15 29 27 -15 -1 -6 -2 -21 23 -23 -4 -10 -13 -7 -5 -3
right_child=2 8 5 28 19 16 -8 9 25 11 -12 26 -14 17 -16 -17 -18 -19 -20 21 -22 22 -24 -25 -26 -27 -28 -29 -30 -31
leaf_value=3.6304664462987301e-05 0.0025977822364030827 0.0002866275110007567 0.0010644798826075455 0.0082023229477746658 0.0052961481426439397 0.0069795062720437381 0.000310300988396449 -0.003522269007467676 0.0027396542365037517 0.0014923855674061149 0.0083016350971256356 -0.0011991059043263358 0.00074002276250818193 0.005048373236759416 -0.0014043088168286229 0.0016368009931121065 0.009331336458755184 0.0011422375002646695 -0.0020035671441285176 0.0076792096087089593 0.0050946109967925203 -0.011372418875196374 0.0035998312245514121 0.0015056150678755505 0.0053263656480005243 -2.7172084790033467e-05 0.00035223616672276441 0.0039569149370162942 0.00040933612310179265 -0.0020024186817129762
leaf_weight=25311 84914 73963 8920 1342 64194 45820 68338 37721 58602 22895 1759 530590 28052 7287 37995 54895 15388 66468 465808 2667 17954 1743 9191 939 11187 13902 37503 10930 76571 19144
leaf_count=25311 84914 73963 8920 1342 64194 45820 68338 37721 58602 22895 1759 530590 28052 7287 37995 54895 15388 66468 465808 2667 17954 1743 9191 939 11187 13902 37503 10930 76571 19144
internal_value=0 -0.000802251 0.00425201 -0.001243 0.00337678 0.00624123 -0.00135998 -0.00146175 0.000879569 -0.00112157 -0.00299546 -0.000996392 0.00254213 0.000508449 0.000104093 0.000491329 0.00702321 0.00152816 -0.00189844 0.00476464 0.00303356 0.00241803 0.00123622 -0.00686367 0.00343568 0.00220914 -0.00109669 0.00639736 0.000543565 -0.00018403
internal_weight=0 1.60009e+06 301899 1.26784e+06 209654 92245 1.18992e+06 1.12159e+06 332256 630468 39480 590988 130920 259752 185997 148002 72138 73755 491119 78734 102868 14540 11873 2682 20107 72504 568093 56750 77913 93107
internal_count=1901993 1600094 301899 1267838 209654 92245 1189925 1121587 332256 630468 39480 590988 130920 259752 185997 148002 72138 73755 491119 78734 102868 14540 11873 2682 20107 72504 568093 56750 77913 93107
is_linear=0
shrinkage=0.05


Tree=28
num_leaves=31
num_cat=0
split_feature=41 41 41 3 39 4 36 43 41 5 1 32 2 36 33 32 17 34 43 43 42 18 3 34 39 42 29 33 32 18
split_gain=2351.88 462.862 171.433 129.848 82.6218 73.7497 63.4371 57.0485 51.1301 47.2667 46.7815 40.198 40.1018 39.0668 38.5348 38.3908 46.2638 37.5091 34.8285 32.5246 31.0856 30.6253 30.709 29.3548 29.3103 28.9627 38.5917 71.8965 28.4904 26.9034
threshold=0.30217391304347829 0.53452380952380951 0.12250000000000001 0.15549450549450552 6.5000000000000009 0.0930735930735931 0.77712418300653596 5.5000000000000009 0.80277777777777792 0.079473684210526321 0.12250000000000001 8.5000000000000018 0.13818181818181821 0.22869249394673122 10.500000000000002 8.5000000000000018 0.21702898550724639 150002.40000000002 5.5000000000000009 5.5000000000000009 1.0000000180025095e-35 0.94669811320754726 1.0000000180025095e-35 55810.340000000004 14.500000000000002 1.0000000180025095e-35 2.5000000000000004 13.500000000000002 12.500000000000002 0.48285714285714293
decision_type=2 2 2 2 2 2 2 2 2 2 2 2 2 2 2 2 2 2 2 2 2 2 2 2 2 2 2 2 2 2
left_child=2 5 4 6 14 9 17 10 20 11 13 23 24 21 -1 16 -15 -3 -8 -13 -5 22 -4 -2 -6 -7 27 -27 -16 -11
right_child=1 3 7 8 12 25 18 -9 -10 29 -12 19 -14 15 28 -17 -18 -19 -20 -21 -22 -23 -24 -25 -26 26 -28 -29 -30 -31
leaf_value=-0.001133575799648745 0.0011024735860242594 0.0017761108238083371 -0.0009626087533425485 0.0059914614418298887 -0.0014226623343596323 0.0034730829923215428 0.0041147190659967135 0.0024821423213164566 0.0080576678820858585 0.0032886040778566314 0.00090093148288791162 0.00021712949321767914 4.8919954922229293e-05 0.000396041881076235 0.0034975250169545277 -0.00022817380833651843 0.0060637585981355236 0.0046828427384566261 0.0068694088473781811 0.0028611250980810055 0.0031408708837931138 -0.0023070277838468708 0.0010579087593353511 0.0058682318005847745 -0.0020483661972830105 0.001998899297738567 0.0035419217067195414 -0.0085146711358625709 0.0002723033130439845 0.00087285253223662719
leaf_weight=55583 6743 42518 164773 51536 492910 62291 40670 18437 27110 34458 63720 121923 35868 10429 7821 151005 5499 15019 15984 12858 11743 37004 21228 6204 301737 4752 7381 2472 55000 17317
leaf_count=55583 6743 42518 164773 51536 492910 62291 40670 18437 27110 34458 63720 121923 35868 10429 7821 151005 5499 15019 15984 12858 11743 37004 21228 6204 301737 4752 7381 2472 55000 17317
internal_value=0 0.0030221 -0.00102291 0.00482499 -0.00141027 0.00168767 0.00370427 -0.000244302 0.00624083 0.00118061 -0.000355107 0.000724994 -0.00158643 -0.000560357 -0.000174629 1.80884e-05 0.00235277 0.00253486 0.00489191 0.000469365 0.00546246 -0.000993358 -0.00073201 0.00338615 -0.00166025 0.00300322 0.000999208 -0.00159877 0.000673832 0.00248062
internal_weight=0 480979 1.42101e+06 204580 948919 276399 114191 472095 90389 199503 453658 147728 830515 389938 118404 166933 15928 57537 56654 134781 63279 223005 186001 12947 794647 76896 14605 7224 62821 51775
internal_count=1901993 480979 1421014 204580 948919 276399 114191 472095 90389 199503 453658 147728 830515 389938 118404 166933 15928 57537 56654 134781 63279 223005 186001 12947 794647 76896 14605 7224 62821 51775
is_linear=0
shrinkage=0.05


Tree=29
num_leaves=31
num_cat=0
split_feature=41 36 2 2 36 43 33 29 42 41 3 43 32 41 18 32 28 39 0 39 17 39 4 17 24 4 43 42 18 41
split_gain=2125.17 413.456 179.916 122.66 94.6969 89.4445 79.5864 133.999 100.021 71.4997 59.4242 58.0158 71.5495 53.5572 52.0814 45.113 43.8378 42.3318 41.1507 38.066 37.077 36.7654 34.7441 34.5091 33.5896 32.8341 31.5633 31.5378 32.0023 29.371
threshold=0.44636015325670503 0.23354978354978356 0.10102040816326531 1.0000000180025095e-35 0.47087104072398195 4.5000000000000009 13.500000000000002 2.5000000000000004 1.0000000180025095e-35 0.71714285714285719 0.021527777777777781 1.0000000180025095e-35 7.5000000000000009 0.80277777777777792 0.73030303030303034 36.500000000000007 1.5000000000000002 9.5000000000000018 0.057983193277310933 8.5000000000000018 0.059411764705882365 13.500000000000002 0.46410256410256417 0.1408730158730159 2.5000000000000004 0.10102040816326531 2.5000000000000004 1.0000000180025095e-35 0.44722222222222224 0.29520697167755999
decision_type=2 2 2 2 2 2 2 2 2 2 2 2 2 2 2 2 2 2 2 2 2 2 2 2 2 2 2 2 2 2
left_child=1 3 4 5 24 10 11 8 -8 27 18 15 23 20 29 -3 25 -7 21 -5 26 22 -1 -13 -2 -14 -6 28 -4 -9
right_child=2 6 9 19 13 17 7 14 -10 -11 -12 12 16 -15 -16 -17 -18 -19 -20 -21 -22 -23 -24 -25 -26 -27 -28 -29 -30 -31
leaf_value=-0.001417865212123867 0.0052257183216423767 -0.0041198878555292907 0.0060222054920144735 0.0030891974403757668 0.0010186363590254861 0.0013596160820778481 -0.0012666853462768633 0.00041779328987843404 -0.0074497811675537373 0.0070760291042587676 0.00013539978811445846 0.0024833257422739643 0.0012458149226430607 0.0059987900870499683 -0.0021364081198525079 0.00037164705261199681 0.00020141485157083944 -0.00076212958819295469 1.6605318010011575e-05 0.00024417450634184795 0.0042862000982599874 -0.0019932615536882273 0.00047208152393438054 0.0063800184102719183 0.00088947314853929978 0.0030038836396459731 0.0035438720940135916 0.0023451002931006207 0.0036490996412116869 0.0026390445582622941
leaf_weight=607887 4886 8191 33595 14397 24438 42801 20524 36534 9600 43757 58968 14088 108362 21618 13215 17609 77565 52153 42948 64123 44492 329854 25331 9522 51952 35180 25067 13609 24616 25111
leaf_count=607887 4886 8191 33595 14397 24438 42801 20524 36534 9600 43757 58968 14088 108362 21618 13215 17609 77565 52153 42948 64123 44492 329854 25331 9522 51952 35180 25067 13609 24616 25111
internal_value=0 -0.000706049 0.00395631 -0.00114671 0.00293329 -0.00127617 0.000747314 -0.000421162 -0.00323713 0.00548277 -0.00140728 0.00120078 0.00143854 0.0037548 0.000711997 -0.00105433 0.00115916 0.000194258 -0.0014977 0.000765822 0.00323871 -0.00156523 -0.00134226 0.00405488 0.00126223 0.00167669 0.0022973 0.00451207 0.00501868 0.00132262
internal_weight=0 1.61396e+06 288030 1.23846e+06 172453 1.15994e+06 375501 104984 30124 115577 1.06499e+06 270517 244717 115615 74860 25800 221107 94954 1.00602e+06 78520 93997 963072 633218 23610 56838 143542 49505 71820 58211 61645
internal_count=1901993 1613963 288030 1238462 172453 1159942 375501 104984 30124 115577 1064988 270517 244717 115615 74860 25800 221107 94954 1006020 78520 93997 963072 633218 23610 56838 143542 49505 71820 58211 61645
is_linear=0
shrinkage=0.05


Tree=30
num_leaves=31
num_cat=0
split_feature=41 41 41 5 3 39 18 43 36 18 0 17 32 43 32 42 33 5 2 32 32 18 42 4 43 17 4 39 42 18
split_gain=1928.67 377.391 140.412 115.674 70.4702 69.4082 63.4742 57.7132 56.2633 48.5135 54.8782 49.4193 47.8461 45.5438 44.5859 47.5733 43.9155 42.075 41.1277 39.6703 52.4054 59.817 42.9428 36.3003 34.6962 33.894 33.3447 30.3352 28.8588 31.6872
threshold=0.30217391304347829 0.53452380952380951 0.13714733542319751 0.072751322751322761 0.081666666666666679 5.5000000000000009 0.96159420289855091 2.5000000000000004 0.73746867167919816 0.94669811320754726 0.069047619047619066 0.27888888888888896 4.5000000000000009 1.5000000000000002 41.500000000000007 1.0000000180025095e-35 13.500000000000002 0.065591397849462385 0.04083333333333334 8.5000000000000018 10.500000000000002 0.45584415584415583 1.0000000180025095e-35 0.28285714285714292 1.0000000180025095e-35 0.43875000000000003 0.19292803970223329 1.5000000000000002 1.0000000180025095e-35 0.48285714285714293
decision_type=2 2 2 2 2 2 2 2 2 2 2 2 2 2 2 2 2 2 2 2 2 2 2 2 2 2 2 2 2 2
left_child=2 4 5 6 13 27 7 12 -5 10 18 -11 -3 -2 15 -14 -17 26 24 -15 22 23 -21 -22 -4 -8 -7 -1 29 -6
right_child=1 3 9 8 28 17 25 -9 -10 11 -12 -13 14 19 -16 16 -18 -19 -20 20 21 -23 -24 -25 -26 -27 -28 -29 -30 -31
leaf_value=0.0024960043253962659 -0.00027060835297634394 0.0061853549480999186 -0.0021394635089340523 0.0042576618848533488 0.0041157490138284472 -0.0015232849525104741 -0.00036837305413149482 0.0051358958179260365 0.0067497006928210982 -0.0019019230006791243 0.0015738491641012885 0.0020901278428822612 0.0012345250849560602 0.0042394187454354608 0.0033436491141700976 -0.0015304319098398975 -0.013688176820720242 4.6264117993925668e-05 0.0012983391842238646 0.00018430338544091486 0.0017206725338255943 -9.2800825833474649e-05 -0.0056144019219435803 0.0041134723638312594 -0.00021660481443593223 0.003417215478960187 -7.5245928708393882e-05 -0.00026204447033125741 0.00081695513724539871 0.0017293837685511836
leaf_weight=11467 49843 7438 26169 39814 40549 828222 15557 46188 52536 58753 52714 8931 11131 11934 19026 2241 1111 49402 40623 10914 64731 37269 4513 20990 226619 9538 41761 76353 14481 21175
leaf_count=11467 49843 7438 26169 39814 40549 828222 15557 46188 52536 58753 52714 8931 11131 11934 19026 2241 1111 49402 40623 10914 64731 37269 4513 20990 226619 9538 41761 76353 14481 21175
internal_value=0 0.00273672 -0.000926315 0.00436467 0.00153178 -0.00124489 0.00328617 0.0039243 0.00567533 -0.000150903 8.84996e-05 -0.00137517 0.00255763 0.00103921 0.00175238 -0.000338035 -0.00556004 -0.00137317 -0.000178357 0.00147343 0.00123495 0.00157951 -0.00151204 0.00230658 -0.000415662 0.00107044 -0.00145378 9.80847e-05 0.00282579 0.00329708
internal_weight=0 480979 1.42101e+06 204580 276399 1.0072e+06 112230 87135 92350 413809 346125 67684 40947 200194 33509 14483 3352 919385 293411 150351 138417 122990 15427 85721 252788 25095 869983 87820 76205 61724
internal_count=1901993 480979 1421014 204580 276399 1007205 112230 87135 92350 413809 346125 67684 40947 200194 33509 14483 3352 919385 293411 150351 138417 122990 15427 85721 252788 25095 869983 87820 76205 61724
is_linear=0
shrinkage=0.05


Tree=31
num_leaves=31
num_cat=0
split_feature=41 36 41 43 0 1 2 33 29 42 1 34 28 43 32 15 39 42 43 3 32 32 40 18 5 18 31 32 39 32
