tree
version=v3
num_class=1
num_tree_per_iteration=1
label_index=0
max_feature_idx=43
objective=regression
feature_names=0 1 2 3 4 5 6 7 8 9 10 11 12 13 14 15 16 17 18 19 20 21 22 23 24 25 26 27 28 29 30 31 32 33 34 35 36 37 38 39 40 41 42 43
feature_infos=[0:1] [0:1] [0:1] [0:1] [0:1] [0:1] [0:1] [0:1] [0:1] [0:1] [0:1] [0:1] [0:1] [0:1] [0:1] [0:1] [0:1] [0:1] [0:1] [1:6] [100:830] [101:812] [0:2] [0:4] [0:4] [42000:87000] [42001:87001] [5500:5910] [0:5] [0:10] [0:29] [0:1] [0:93] [6:24] [0:56946700] [0:26] [-1:1.0000000000000002] [-1:1] [-407298.79999999999:509289616.69] [1:38] [-0.67932840652088022:149] [0:1] [0:1] [0:6]
tree_sizes=3072 3192 3203 3201 3195 3174 3195 3201 3216 3215 3198 3223 3194 3211 3234 3205 3213 3208 3223 3208 3219 3234 3208 3201 3219 3212 3232 3200 3224 3219 3220 3248 3182 3246 3220 3248 3219 3227 3225 3253 3212 3237 3250 3212 3226 3231 3241 3234 3243 3231 3236 3235 3243 3293 3262 3247 3245 3239 3232 3216 3260 3242 3253 3245 3242 3250 3230 3237 3229 3235 3263 3226 3271 3247 3273 3275 3242 3267 3245 3257 3236 3256 3267 3227 3288 3224 3216 3264 3230 3259 3246 3262 3258 3261 3243 3268 3264 3257 3267 3267

Tree=0
num_leaves=31
num_cat=0
split_feature=41 41 41 39 41 41 35 41 41 18 39 43 41 18 35 41 18 43 39 41 34 32 18 43 43 32 32 43 18 43
split_gain=53089.1 7425.86 5724.28 1178.17 921.277 812.416 911.421 668.813 579.422 424.972 382.676 264.968 210.523 199.018 167.057 153.387 151.774 141.491 139.144 135.852 137.358 131.664 126.878 118.703 115.729 110.323 107.433 104.353 94.2505 88.7022
threshold=0.33771929824561409 0.60303030303030314 0.16904761904761909 4.5000000000000009 0.50675675675675691 0.75431034482758641 2.5000000000000004 0.10620300751879701 0.25462962962962971 0.90454545454545465 10.500000000000002 5.5000000000000009 0.87750000000000006 0.96159420289855091 5.5000000000000009 0.067816091954023008 0.96159420289855091 5.5000000000000009 2.5000000000000004 0.40270270270270275 25625.000000000004 8.5000000000000018 0.86190476190476206 5.5000000000000009 1.5000000000000002 7.5000000000000009 10.500000000000002 1.5000000000000002 0.96159420289855091 5.5000000000000009
decision_type=2 2 2 2 2 2 2 2 2 2 2 2 2 2 2 2 2 2 2 2 2 2 2 2 2 2 2 2 2 2
left_child=2 4 3 18 9 14 -7 10 17 11 -5 19 -8 23 29 -12 -6 21 -1 -2 -21 -4 26 -10 -9 -26 -23 -28 -16 -3
right_child=1 5 8 7 16 6 12 24 13 -11 15 -13 -14 -15 28 -17 -18 -19 -20 20 -22 22 -24 -25 25 -27 27 -29 -30 -31
leaf_value=0.21707075574534088 0.22005304868830802 0.22723551162970429 0.2158960133340059 0.20869311228474646 0.2285750732575626 0.22479900430477259 0.23761919385724781 0.2086416549729174 0.2166795058703751 0.21739303577891103 0.20622657231763761 0.22691362998005343 0.24256472264971213 0.21309619665692117 0.23392649296929988 0.20779504081256386 0.22308818052901147 0.21811794819690863 0.21261698899632953 0.21787560914300397 0.22342787620737894 0.20895310651737886 0.20977596728549447 0.22165615497219063 0.21444741540793205 0.21020794491825748 0.21163760416730237 0.21398194307876153 0.22938993463248919 0.23367445706051859
leaf_weight=28583 74950 24006 28608 332375 64383 11411 48196 128979 157279 53316 557894 28028 38876 38936 59378 216312 15671 12454 45378 12548 99211 16776 41187 12970 16684 191281 75282 128480 14184 6882
leaf_count=28583 74950 24006 28608 332375 64383 11411 48196 128979 157279 53316 557894 28028 38876 38936 59378 216312 15671 12454 45378 12548 99211 16776 41187 12970 16684 191281 75282 128480 14184 6882
internal_value=0.213463 0.227226 0.209726 0.208183 0.222794 0.234828 0.238086 0.207868 0.214297 0.221388 0.207274 0.22238 0.239827 0.216321 0.231756 0.206665 0.227501 0.212899 0.214338 0.2217 0.222804 0.212675 0.212323 0.217059 0.209818 0.210548 0.212799 0.213116 0.233052 0.22867
internal_weight=0 551040 2.02946e+06 1.51749e+06 348107 202933 98483 1.44352e+06 511972 268053 1.10658e+06 214737 87072 209185 104450 774206 80054 302787 73961 186709 111759 290333 261725 170249 336944 207965 220538 203762 73562 30888
internal_count=2580498 551040 2029458 1517486 348107 202933 98483 1443525 511972 268053 1106581 214737 87072 209185 104450 774206 80054 302787 73961 186709 111759 290333 261725 170249 336944 207965 220538 203762 73562 30888
is_linear=0
shrinkage=1


Tree=1
num_leaves=31
num_cat=0
split_feature=41 41 41 39 41 41 35 41 41 18 39 43 39 41 18 18 18 35 43 43 32 41 18 43 35 32 43 43 32 34
split_gain=47913 6701.84 5166.16 1082.14 831.453 733.205 822.558 602.75 522.928 383.537 308.75 239.134 232.458 189.997 179.613 151.945 136.976 128.441 127.695 119.49 118.827 115.616 114.508 107.129 103.516 96.9583 94.1785 84.2986 102.107 83.7934
threshold=0.33771929824561409 0.60303030303030314 0.16904761904761909 6.5000000000000009 0.50675675675675691 0.75431034482758641 2.5000000000000004 0.10172413793103451 0.25462962962962971 0.90454545454545465 2.5000000000000004 5.5000000000000009 13.500000000000002 0.87750000000000006 0.96159420289855091 0.96159420289855091 0.96159420289855091 3.5000000000000004 5.5000000000000009 5.5000000000000009 8.5000000000000018 0.44590643274853808 0.86190476190476206 5.5000000000000009 4.5000000000000009 10.500000000000002 1.5000000000000002 1.5000000000000002 7.5000000000000009 16634.000000000004
decision_type=2 2 2 2 2 2 2 2 2 2 2 2 2 2 2 2 2 2 2 2 2 2 2 2 2 2 2 2 2 2
left_child=2 4 3 10 9 15 29 12 18 11 -1 17 -5 -8 23 19 -6 -2 20 24 -4 -19 25 -10 -3 -22 -27 -9 -29 -7
right_child=1 5 8 7 16 6 13 27 14 -11 -12 -13 -14 -15 -16 -17 -18 21 -20 -21 22 -23 -24 -25 -26 26 -28 28 -30 -31
leaf_value=0.0034276781903393263 0.0057878869285787572 0.012979499333504325 0.0023116731937032954 -0.0054236895240146977 0.014356780185081115 0.0063641604956837855 0.022948693304775378 -0.0046174388551997536 0.0030559911037003539 0.003733844103392107 -0.0022507207759220773 0.012778408647400175 -0.0069407778238529437 0.027646945894480503 -0.00034815299270920673 0.013477460073201289 0.0091442314436155619 0.0075404609670970671 0.0044225109260997708 0.021428553847878801 -0.0042840884340252829 0.010608644415561082 -0.0035023708170800437 0.0077838076188091881 0.018172894600461779 -0.0017338155842667284 0.00049330658658615237 0.00094568507046323056 -0.0032773391489802559 0.014936721635446218
leaf_weight=28583 54689 11879 28608 578299 64383 5547 48196 121631 157279 53316 147319 28028 448196 38876 38936 20145 15671 83439 12454 22523 16776 48581 41187 12970 49903 75282 128480 15566 177892 5864
leaf_count=28583 54689 11879 28608 578299 64383 5547 48196 121631 157279 53316 147319 28028 448196 38876 38936 20145 15671 83439 12454 22523 16776 48581 41187 12970 49903 75282 128480 15566 177892 5864
internal_value=0 0.013075 -0.00355015 -0.00501544 0.00886492 0.020297 0.0233921 -0.00549892 0.000792986 0.00752951 -0.00132802 0.00847192 -0.00608609 0.0250464 0.00271551 0.0173787 0.0133364 0.00782544 -0.000535217 0.0183109 -0.000747882 0.0086695 -0.00108231 0.00341617 0.0171743 -0.000630345 -0.000329527 -0.00358602 -0.00293755 0.0107695
internal_weight=0 551040 2.02946e+06 1.51749e+06 348107 202933 98483 1.34158e+06 511972 268053 175902 214737 1.0265e+06 87072 209185 104450 80054 186709 302787 84305 290333 132020 261725 170249 61782 220538 203762 315089 193458 11411
internal_count=2580498 551040 2029458 1517486 348107 202933 98483 1341584 511972 268053 175902 214737 1026495 87072 209185 104450 80054 186709 302787 84305 290333 132020 261725 170249 61782 220538 203762 315089 193458 11411
is_linear=0
shrinkage=0.05


Tree=2
num_leaves=31
num_cat=0
split_feature=41 41 41 39 41 34 41 41 41 18 39 43 39 35 18 41 41 18 34 41 43 32 18 43 32 43 43 43 32 32
split_gain=43241.4 6048.41 4662.46 980.854 750.386 686.518 782.912 592.057 471.943 346.142 263.44 215.818 177.555 172.124 162.101 141.21 132.568 123.621 118.65 133.374 115.245 107.241 103.343 96.684 87.5048 84.996 84.4387 78.6843 80.8564 76.7853
threshold=0.33771929824561409 0.60303030303030314 0.16904761904761909 5.5000000000000009 0.50675675675675691 60412.000000000007 0.80384615384615399 0.11324786324786326 0.25462962962962971 0.90454545454545465 11.500000000000002 5.5000000000000009 2.5000000000000004 2.5000000000000004 0.96159420289855091 0.67204301075268835 0.064583333333333354 0.96159420289855091 26612.000000000004 0.40270270270270275 5.5000000000000009 8.5000000000000018 0.86190476190476206 5.5000000000000009 10.500000000000002 1.5000000000000002 2.5000000000000004 1.5000000000000002 7.5000000000000009 8.5000000000000018
decision_type=2 2 2 2 2 2 2 2 2 2 2 2 2 2 2 2 2 2 2 2 2 2 2 2 2 2 2 2 2 2
left_child=2 4 3 12 9 13 15 10 20 11 -5 18 -1 26 23 -7 -12 -6 -2 -20 21 -4 24 29 -23 -26 -3 -9 -29 -10
right_child=1 5 8 7 17 6 -8 27 14 -11 16 -13 -14 -15 -16 -17 -18 -19 19 -21 -22 22 -24 -25 25 -27 -28 28 -30 -31
leaf_value=0.0032562945072357632 0.0040435400179116201 0.0058060432610307824 0.0021960897472743323 -0.0047040895907537496 0.013638940947249085 0.015933884110687812 0.025338952071691026 -0.0041184942182786845 0.0061091874614652509 0.0035471523603608475 -0.0067090333506887008 0.012139488578659333 -0.0013615554427921467 0.016142896924919683 -0.00033074545620255389 0.019714065142390016 -0.0051704547973178685 0.0086870207671827498 0.0061856419988090862 0.0090865077583790112 0.004201386118032815 -0.004069883588649968 -0.003327252370729946 0.007394617038363205 -0.0016471248350964068 0.00046864093918061049 0.013012549741892443 0.0013265138488149939 -0.0026928504521484403 0.0025224896977236681
leaf_weight=28583 22669 7715 28608 467088 64383 43054 59340 103810 16694 53316 470428 28028 76602 26267 38936 57966 199324 15671 66941 97099 12454 16776 41187 12970 75282 128480 8591 13588 158063 140585
leaf_count=28583 22669 7715 28608 467088 64383 43054 59340 103810 16694 53316 470428 28028 76602 26267 38936 57966 199324 15671 66941 97099 12454 16776 41187 12970 75282 128480 8591 13588 158063 140585
internal_value=0 0.0124213 -0.00337264 -0.00476467 0.00842167 0.0192822 0.0207806 -0.00511158 0.000753337 0.00715303 -0.00561551 0.00804832 -0.0001067 0.013638 0.00257973 0.018103 -0.00625114 0.0126696 0.00743417 0.00790273 -0.000508456 -0.000710488 -0.00102819 0.00324536 -0.000598828 -0.000313051 0.00960287 -0.00303185 -0.00237468 0.00290319
internal_weight=0 551040 2.02946e+06 1.51749e+06 348107 202933 160360 1.4123e+06 511972 268053 1.13684e+06 214737 105185 42573 209185 101020 669752 80054 186709 164040 302787 290333 261725 170249 220538 203762 16306 275461 171651 157279
internal_count=2580498 551040 2029458 1517486 348107 202933 160360 1412301 511972 268053 1136840 214737 105185 42573 209185 101020 669752 80054 186709 164040 302787 290333 261725 170249 220538 203762 16306 275461 171651 157279
is_linear=0
shrinkage=0.05


Tree=3
num_leaves=31
num_cat=0
split_feature=41 41 41 39 41 34 41 41 41 18 39 43 39 43 18 34 41 18 35 43 41 32 18 43 43 43 32 43 43 32
split_gain=39025.4 5458.69 4207.87 891.445 677.223 619.582 706.578 493.646 425.928 312.393 250.918 194.776 191.862 157.394 146.296 133.314 127.442 111.568 109.421 104.009 98.519 96.7853 93.2693 92.0801 80.7672 79.445 78.9677 76.7592 76.4827 75.3518
threshold=0.33771929824561409 0.60303030303030314 0.16904761904761909 6.5000000000000009 0.50675675675675691 60412.000000000007 0.80384615384615399 0.10172413793103451 0.25462962962962971 0.90454545454545465 3.5000000000000004 5.5000000000000009 13.500000000000002 5.5000000000000009 0.96159420289855091 25112.300000000003 0.67204301075268835 0.96159420289855091 3.5000000000000004 5.5000000000000009 0.45993589743589747 8.5000000000000018 0.96159420289855091 2.5000000000000004 3.5000000000000004 2.5000000000000004 10.500000000000002 1.5000000000000002 1.0000000180025095e-35 37.500000000000007
decision_type=2 2 2 2 2 2 2 2 2 2 2 2 2 2 2 2 2 2 2 2 2 2 2 2 2 2 2 2 2 2
left_child=2 4 3 10 9 13 16 12 19 11 24 18 25 15 23 -3 -7 -6 -2 21 -20 28 26 -10 -1 -5 -23 -28 -4 -25
right_child=1 5 8 7 17 6 -8 -9 14 -11 -12 -13 -14 -15 -16 -17 -18 -19 20 -21 -22 22 -24 29 -26 -27 27 -29 -30 -31
leaf_value=0.00094689251728192396 0.0051818180513833398 0.0063314923982151624 -0.0068291117793512325 -0.0052067582144127676 0.012956993367915892 0.015137190396429002 0.024072004518913309 -0.0032341160102527856 0.0021683895865822252 0.0033697943617142243 -0.0023420465229833484 0.011532513619285858 -0.0062731085088499026 0.018436881839660777 -0.00031420814750962177 0.013342792525517073 0.0187283620635216 0.0082526697997755225 0.0069576367533690682 0.0039913160246334012 0.0099522178414576667 -0.003866389697940792 -0.0031614787436835511 0.007502461468763575 0.0063259241001299331 -0.0037937687814412176 -0.0015651501492943275 0.00044535102423554735 0.0028359631995107837 0.0035771195481153852
leaf_weight=39875 54689 9626 2219 450640 64383 43054 59340 315089 105171 53316 127568 28028 448196 10017 38936 22930 57966 15671 93053 12454 38967 16776 41169 16317 8459 127659 75297 128483 26389 48761
leaf_count=39875 54689 9626 2219 450640 64383 43054 59340 315089 105171 53316 127568 28028 448196 10017 38936 22930 57966 15671 93053 12454 38967 16776 41169 16317 8459 127659 75297 128483 26389 48761
internal_value=0 0.0118002 -0.00320401 -0.00452643 0.00800059 0.0183181 0.0197416 -0.00496525 0.00071567 0.00679538 -0.00117964 0.00764591 -0.00549663 0.0129561 0.00245075 0.0112697 0.0171978 0.0120361 0.00706246 -0.000483033 0.00784152 -0.000674963 -0.000976783 0.00308309 0.00188828 -0.00489484 -0.000568988 -0.000297532 0.00208628 0.00456132
internal_weight=0 551040 2.02946e+06 1.51749e+06 348107 202933 160360 1.34158e+06 511972 268053 175902 214737 1.0265e+06 42573 209185 32556 101020 80054 186709 302787 132020 290333 261725 170249 48334 578299 220556 203780 28608 65078
internal_count=2580498 551040 2029458 1517486 348107 202933 160360 1341584 511972 268053 175902 214737 1026495 42573 209185 32556 101020 80054 186709 302787 132020 290333 261725 170249 48334 578299 220556 203780 28608 65078
is_linear=0
shrinkage=0.05


Tree=4
num_leaves=31
num_cat=0
split_feature=41 41 41 39 41 34 41 41 41 18 39 43 35 18 41 41 32 32 42 3 18 39 43 32 43 41 43 18 43 34
split_gain=35220.4 4926.46 3799.32 800.095 611.194 562.365 608.177 491.253 363.037 281.939 277.132 175.405 171.317 132.032 126.659 106.051 105.858 210.152 150.753 114.862 100.69 98.5548 92.3035 83.8873 83.1023 83.0342 78.0124 75.8419 73.6539 72.8845
threshold=0.33771929824561409 0.60303030303030314 0.17752100840336135 4.5000000000000009 0.50675675675675691 68401.710000000006 0.80384615384615399 0.11324786324786326 0.25462962962962971 0.96159420289855091 10.500000000000002 5.5000000000000009 2.5000000000000004 0.96159420289855091 0.064583333333333354 0.67204301075268835 8.5000000000000018 10.500000000000002 1.0000000180025095e-35 0.096006144393241177 0.96159420289855091 1.5000000000000002 5.5000000000000009 7.5000000000000009 2.5000000000000004 0.82971014492753625 1.0000000180025095e-35 0.86190476190476206 5.5000000000000009 29804.000000000004
decision_type=2 2 2 2 2 2 2 2 2 2 2 2 2 2 2 2 2 2 2 2 2 2 2 2 2 2 2 2 2 2
left_child=2 4 3 21 9 12 15 10 22 11 -5 16 -3 24 -12 -7 26 18 -18 29 28 -1 23 -4 -10 -14 -2 -25 -6 -19
right_child=1 5 8 7 20 6 -8 -9 13 -11 14 -13 25 -15 -16 -17 17 19 -20 -21 -22 -23 -24 27 -26 -27 -28 -29 -30 -31
leaf_value=0.0047439489596139764 -0.0039347801686543497 0.0086218042245147005 0.0023322051478587612 -0.0038893351489822123 0.011436584570237801 0.014511909893322747 0.022975201283404727 -0.0026866617774330354 0.0020599698313603907 0.0031996779230240033 -0.0059682552259947268 0.010951103367378635 0.013341537243451202 -0.00029849695462372998 -0.0046097253577796916 0.017881228921931478 0.0044654269039779695 0.0033010661294819547 -0.0063386216388574548 0.0089831282982494268 0.0078400357846922092 -5.0734512636620341e-05 0.0038618780127714623 -0.00047596238477419224 0.0043332545172892869 0.018989163500811857 0.010439701206289894 -0.0028443257433538385 0.015586849124155429 0.0065725413815018174
leaf_weight=13004 985 16521 22586 381923 50847 40282 57339 287370 105171 53274 533167 28034 24330 38936 252974 55576 8412 21270 5240 42919 15671 60957 12157 216063 65078 8885 22613 40072 13536 85306
leaf_count=13004 985 16521 22586 381923 50847 40282 57339 287370 105171 53274 533167 28034 24330 38936 252974 55576 8412 21270 5240 42919 15671 60957 12157 216063 65078 8885 22613 40072 13536 85306
internal_value=0 0.0112102 -0.00304381 -0.00428085 0.00760056 0.0174021 0.0189019 -0.00453865 0.000739576 0.00645561 -0.00499428 0.00726322 0.0127827 0.00232821 -0.00553109 0.0164654 0.0067096 0.00625685 0.000318546 0.00679914 0.0114343 0.000792278 -0.000402889 -0.000588906 0.00292894 0.0148523 0.0098397 -0.00084649 0.0123091 0.00591963
internal_weight=0 551040 2.02946e+06 1.5294e+06 348107 202933 153197 1.45543e+06 500063 268053 1.16806e+06 214779 49736 209185 786141 95858 186745 163147 13652 149495 80054 73961 290878 278721 170249 33215 23598 256135 64383 106576
internal_count=2580498 551040 2029458 1529395 348107 202933 153197 1455434 500063 268053 1168064 214779 49736 209185 786141 95858 186745 163147 13652 149495 80054 73961 290878 278721 170249 33215 23598 256135 64383 106576
is_linear=0
shrinkage=0.05


Tree=5
num_leaves=31
num_cat=0
split_feature=41 41 41 39 35 41 41 41 41 39 18 35 39 43 18 35 41 41 41 41 18 18 18 43 18 43 36 35 43 32
split_gain=31796.7 4248.68 3646.12 730.411 511.718 537.627 498.818 433.685 410.162 210.324 196.279 169.677 158.389 135.075 127.863 127.678 110.643 109.131 108.942 103.648 90.8728 86.7026 82.3696 81.6137 79.8048 69.6799 68.3313 67.1447 66.4727 65.3452
threshold=0.3771551724137932 0.17752100840336135 0.60303030303030314 6.5000000000000009 5.5000000000000009 0.78019323671497598 0.28801843317972359 0.11324786324786326 0.50675675675675691 2.5000000000000004 0.90454545454545465 2.5000000000000004 11.500000000000002 5.5000000000000009 0.96159420289855091 2.5000000000000004 0.22474747474747478 0.82971014492753625 0.90238095238095251 0.064583333333333354 0.96159420289855091 0.96159420289855091 0.96159420289855091 2.5000000000000004 0.67333333333333345 2.5000000000000004 0.018019480519480515 5.5000000000000009 5.5000000000000009 8.5000000000000018
decision_type=2 2 2 2 2 2 2 2 2 2 2 2 2 2 2 2 2 2 2 2 2 2 2 2 2 2 2 2 2 2
left_child=1 3 8 9 11 21 16 12 10 -1 13 25 -5 15 23 -2 -3 24 -7 -14 28 -6 -18 26 -13 -4 -8 -12 -10 -17
right_child=2 6 4 7 5 18 14 -9 20 -11 27 17 19 -15 -16 29 22 -19 -20 -21 -22 -23 -24 -25 -26 -27 -28 -29 -30 -31
leaf_value=0.002889328387013986 0.0037121002430956355 -0.000922885015490915 0.0053985130916427296 -0.004141603186400133 0.016282271427278477 0.01997141260263496 -0.001385474823831814 -0.0026015299673465501 0.010864755489656135 -0.0017973629228588616 0.0021203961178980833 0.014068614108944416 -0.0057769501660391446 0.010947488975723714 0.00045293190740688526 0.010473564357767563 0.0012972914337339948 0.018516458400613549 0.024274435847267292 -0.0044165018571317603 0.0074480343599826393 0.012180868293364511 -0.0014567493191323503 0.0051951596591858712 0.0074685553522017833 0.011581708721763192 0.0032684754780625408 0.0062987986222911747 0.014807506472788241 0.0070842625717712666
leaf_weight=28583 26475 179253 8881 429090 67195 37612 8711 254651 50847 147319 27111 22603 470428 23385 36051 16462 154739 11442 24156 199324 15671 15943 32927 60246 5744 9357 83387 14898 13536 104471
leaf_count=28583 26475 179253 8881 429090 67195 37612 8711 254651 50847 147319 27111 22603 470428 23385 36051 16462 154739 11442 24156 199324 15671 15943 32927 60246 5744 9357 83387 14898 13536 104471
internal_value=0 -0.00270667 0.0113811 -0.00406681 0.016532 0.0181209 0.00103931 -0.00446072 0.00781175 -0.0010358 0.00666406 0.0125644 -0.00489158 0.00741717 0.00313063 0.00685712 -3.44891e-05 0.0143949 0.0216542 -0.00537207 0.0108626 0.0154958 0.00081408 0.00376429 0.0127312 0.0085708 0.00282829 0.00360222 0.0116937 0.00754563
internal_weight=0 2.08471e+06 495789 1.5294e+06 202933 144906 555314 1.35349e+06 292856 175902 212802 58027 1.09884e+06 170793 188395 147408 366919 39789 61768 669752 80054 83138 187666 152344 28347 18238 92098 42009 64383 120933
internal_count=2580498 2084709 495789 1529395 202933 144906 555314 1353493 292856 175902 212802 58027 1098842 170793 188395 147408 366919 39789 61768 669752 80054 83138 187666 152344 28347 18238 92098 42009 64383 120933
is_linear=0
shrinkage=0.05


Tree=6
num_leaves=31
num_cat=0
split_feature=41 41 41 39 41 41 41 36 18 43 43 18 43 18 39 35 39 37 43 33 34 29 42 36 32 32 42 41 32 32
split_gain=28709.1 4007.1 3108.87 738.975 496.066 474.855 467.602 533.189 230.064 194.773 147.71 139.353 125.954 123.241 120.482 117.969 108.6 118.323 100.304 90.1555 108.093 92.9486 133.513 89.8352 86.2151 144.05 100.869 85.7557 133.001 83.9032
threshold=0.33771929824561409 0.60303030303030314 0.14495798319327735 5.5000000000000009 0.50675675675675691 0.22474747474747478 0.75431034482758641 0.045875850340136054 0.90454545454545465 2.5000000000000004 2.5000000000000004 0.96159420289855091 5.5000000000000009 0.96159420289855091 2.5000000000000004 8.5000000000000018 10.500000000000002 0.078461538461538485 5.5000000000000009 13.500000000000002 39900.570000000007 2.5000000000000004 1.0000000180025095e-35 0.11136950904392766 8.5000000000000018 10.500000000000002 1.0000000180025095e-35 0.067816091954023008 37.500000000000007 37.500000000000007
decision_type=2 2 2 2 2 2 2 2 2 2 2 2 2 2 2 2 2 2 2 2 2 2 2 2 2 2 2 2 2 2
left_child=2 4 3 14 8 -4 13 -8 10 16 19 12 23 18 -1 -9 -5 -18 -3 20 -2 22 -21 -7 -25 26 -26 -11 -29 -12
right_child=1 6 5 9 -6 11 7 15 -10 27 29 -13 -14 -15 -16 -17 17 -19 -20 21 -22 -23 -24 24 25 -27 -28 28 -30 -31
leaf_value=0.0027448620759147513 0.0029789944520282326 0.013173125508699585 -0.0012297627554980341 -0.0039628280594085604 0.010319448742058495 -0.00027833779889723632 0.0055483257438627732 0.017318232838051568 0.0028943794517250262 -0.0040007286078734957 0.010139116824985301 -0.00070212825536242207 0.0060884031051725487 0.0098614216548362724 -0.0010590788015010248 0.020931642509289545 -0.0053423094953901698 -0.0034506840662822651 0.017070855579981503 0.0032816679131196375 0.0068835524351708649 0.0060410898409094275 -0.008532975337833695 0.0051989865394926988 0.000481234984786323 0.0022492293097616631 -0.0078873709640468002 0.0016131339024167521 -0.002945348724892256 0.0069821197435292861
leaf_weight=28583 22892 61782 305887 325334 80054 45830 7704 42274 53316 165511 31800 57678 17673 20145 76602 48505 582560 96339 22523 6714 78534 8849 3714 21098 8989 163535 6007 18752 109080 62234
leaf_count=28583 22892 61782 305887 325334 80054 45830 7704 42274 53316 165511 31800 57678 17673 20145 76602 48505 582560 96339 22523 6714 78534 8849 3714 21098 8989 163535 6007 18752 109080 62234
internal_value=0 0.0101211 -0.00274808 -0.00405611 0.00686561 0.000179737 0.0157054 0.0181772 0.00583412 -0.00438286 0.00656401 0.00152367 0.00201156 0.0133749 -2.53949e-05 0.0192489 -0.00471394 -0.00507388 0.0142144 0.00540655 0.00600229 0.0022721 -0.000926194 0.00171803 0.00217635 0.00181915 -0.00287101 -0.00324942 -0.00227665 0.00804974
internal_weight=0 551040 2.02946e+06 1.40276e+06 348107 626697 202933 98483 268053 1.29758e+06 214737 320810 263132 104450 105185 90779 1.00423e+06 678899 84305 120703 101426 19277 10428 245459 199629 178531 14996 293343 127832 94034
internal_count=2580498 551040 2029458 1402761 348107 626697 202933 98483 268053 1297576 214737 320810 263132 104450 105185 90779 1004233 678899 84305 120703 101426 19277 10428 245459 199629 178531 14996 293343 127832 94034
is_linear=0
shrinkage=0.05


Tree=7
num_leaves=31
num_cat=0
split_feature=41 41 41 41 39 41 35 41 41 39 18 18 43 35 43 32 18 32 18 36 41 42 18 43 42 5 29 33 41 43
split_gain=25949.5 3458.73 3003.08 655.646 602.896 411.505 401.765 361.38 281.743 208.505 159.535 156.999 123.081 112.827 108.945 119.963 109.362 122.767 104.881 101.408 98.5348 85.9065 85.3182 84.6779 83.6369 82.5536 73.9105 154.172 72.0507 70.063
threshold=0.3771551724137932 0.17752100840336135 0.67204301075268835 0.50675675675675691 4.5000000000000009 0.28801843317972359 3.5000000000000004 0.11324786324786326 0.87750000000000006 10.500000000000002 0.90454545454545465 0.96159420289855091 5.5000000000000009 2.5000000000000004 1.5000000000000002 7.5000000000000009 0.81428571428571439 10.500000000000002 0.96159420289855091 0.10276785714285716 0.067816091954023008 1.0000000180025095e-35 0.90454545454545465 3.5000000000000004 1.0000000180025095e-35 0.19397993311036793 2.5000000000000004 7.0000000000000009 0.44590643274853808 1.5000000000000002
decision_type=2 2 2 2 2 2 2 2 2 2 2 2 2 2 2 2 2 2 2 2 2 2 2 2 2 2 2 2 2 2
left_child=1 4 3 10 23 14 19 9 22 -6 13 12 -5 -2 -3 -16 17 21 -7 -4 -11 -17 -8 -1 28 -19 27 -26 -15 -9
right_child=2 5 6 11 7 18 8 29 -10 20 -12 -13 -14 24 15 16 -18 25 -20 -21 -22 -23 -24 -25 26 -27 -28 -29 -30 -31
leaf_value=-1.9140360418957544e-05 0.003919108350795941 -0.0013183857092204064 0.0052916208761294896 0.010398627010693287 -0.0033285180127110869 0.0034080617847893832 0.016617080858679842 -0.0033151179854921543 0.02110799034490957 -0.0051106104490064117 0.0032773876682740777 0.0070408185027570694 0.01438792685164318 0.006704674196561987 0.0042683728807261442 -0.00059472171036136358 -0.00226311695715589 0.00065011343738687033 0.00040902625347257794 0.012623418480419521 -0.0038774013571678521 -0.0069032439490677808 0.012685853991603735 0.0045448937578674879 0.0070757134765005881 0.0034813279279078107 0.0073132426999372741 -0.0039326931060287371 0.0092187661713848297 -0.0017026773410925419
leaf_weight=61798 29759 114681 7887 85957 381923 152344 72510 107831 35966 557894 42009 26944 24946 60147 19878 17237 37201 138436 36051 11731 228247 7856 17046 12163 6967 31630 13909 5852 54159 179539
leaf_count=61798 29759 114681 7887 85957 381923 152344 72510 107831 35966 557894 42009 26944 24946 60147 19878 17237 37201 138436 36051 11731 228247 7856 17046 12163 6967 31630 13909 5852 54159 179539
internal_value=0 -0.00244517 0.0102815 0.00777792 -0.00367236 0.000934672 0.01633 -0.00389615 0.01737 -0.00428694 0.0060378 0.0104642 0.011296 0.00671676 -4.06272e-05 0.000540311 0.000221381 0.000694974 0.00283417 0.00967583 -0.00475256 -0.00256976 0.0158688 0.000731422 0.00730709 0.00117668 0.00478907 0.00205027 0.00789587 -0.00230772
internal_weight=0 2.08471e+06 495789 350649 1.5294e+06 555314 145140 1.45543e+06 125522 1.16806e+06 212802 137847 110903 170793 366919 252238 232360 195159 188395 19618 786141 25093 89556 73961 141034 170066 26728 12819 114306 287370
internal_count=2580498 2084709 495789 350649 1529395 555314 145140 1455434 125522 1168064 212802 137847 110903 170793 366919 252238 232360 195159 188395 19618 786141 25093 89556 73961 141034 170066 26728 12819 114306 287370
is_linear=0
shrinkage=0.05


Tree=8
num_leaves=31
num_cat=0
split_feature=41 41 41 41 39 41 36 41 41 39 18 18 43 43 39 35 18 43 32 18 32 2 35 41 43 1 43 32 43 43
split_gain=23419.4 3124.79 2710.28 591.72 533.456 420.416 364.803 325.133 219.042 151.784 143.98 141.691 111.081 106.744 103.715 101.552 94.655 90.7015 87.6273 81.5089 81.9489 84.7379 79.1484 77.1302 75.509 74.6867 72.4431 72.1246 87.9258 72.8269
threshold=0.3771551724137932 0.18350168350168358 0.67204301075268835 0.50675675675675691 5.5000000000000009 0.11324786324786326 0.20057471264367821 0.28801843317972359 0.83666666666666667 12.500000000000002 0.90454545454545465 0.96159420289855091 5.5000000000000009 5.5000000000000009 1.5000000000000002 2.5000000000000004 0.96159420289855091 5.5000000000000009 8.5000000000000018 0.96159420289855091 10.500000000000002 0.11437908496732026 3.5000000000000004 0.060661764705882366 2.5000000000000004 0.12310606060606064 1.0000000180025095e-35 7.5000000000000009 1.0000000180025095e-35 5.5000000000000009
decision_type=2 2 2 2 2 2 2 2 2 2 2 2 2 2 2 2 2 2 2 2 2 2 2 2 2 2 2 2 2 2
left_child=1 4 3 10 14 9 -4 17 -8 24 13 12 -5 15 -1 -2 -9 18 26 20 -20 25 -10 -11 -6 -22 -3 28 -7 -29
right_child=2 7 6 11 5 27 8 16 22 23 -12 -13 -14 -15 -16 -17 -18 -19 19 -21 21 -23 -24 -25 -26 -27 -28 29 -30 -31
leaf_value=0.0041797588660428429 0.0030782169836438751 -0.0062564512610249721 0.006931327902729479 0.0098786956943175547 -0.0038831779301417681 -0.0067841725327043439 0.01457027304434998 0.0032376586514890103 0.01347372239976773 -0.005117487422530949 0.0031135178264232711 0.0066887777525989111 0.013668529866243111 0.0095192570966840286 -0.00059013819105721034 0.0064970999858049204 0.00038857492303481886 0.0037711818086582161 -0.0032197350526268439 -0.0022821226377571831 -0.0006074805747612478 0.0024699111730631541 0.019387230332101397 -0.0038425998663317012 -0.0025243352711966293 0.0021550173207378932 0.0030592787962786965 -0.0024398962058705281 0.0016542762796251443 0.0024939083029676401
leaf_weight=13004 26475 2246 11409 85957 445703 3595 79342 152344 6415 387481 42009 26944 24946 23385 92181 120933 36051 15946 18210 46671 153842 36517 47974 170990 132666 29094 29462 289184 21844 7678
leaf_count=13004 26475 2246 11409 85957 445703 3595 79342 152344 6415 387481 42009 26944 24946 23385 92181 120933 36051 15946 18210 46671 153842 36517 47974 170990 132666 29094 29462 289184 21844 7678
internal_value=0 -0.00232291 0.00976743 0.00738902 -0.0034394 -0.0036873 0.0155135 0.00103339 0.0162457 -0.0041392 0.00573591 0.00994103 0.0107312 0.00638093 -4.36795e-07 0.00588306 0.00269246 9.19046e-05 -9.37345e-05 -0.000371762 3.3847e-06 0.000270836 0.0186898 -0.00472715 -0.00357149 -0.000168135 0.00239941 -0.00209333 0.000461768 -0.00231229
internal_weight=0 2.08471e+06 495789 350649 1.56433e+06 1.45914e+06 145140 520383 133731 1.13684e+06 212802 137847 110903 170793 105185 147408 188395 331988 316042 284334 237663 219453 54389 558471 578369 182936 31708 322301 25439 296862
internal_count=2580498 2084709 495789 350649 1564326 1459141 145140 520383 133731 1136840 212802 137847 110903 170793 105185 147408 188395 331988 316042 284334 237663 219453 54389 558471 578369 182936 31708 322301 25439 296862
is_linear=0
shrinkage=0.05


Tree=9
num_leaves=31
num_cat=0
split_feature=41 41 41 39 34 41 41 41 34 43 43 41 32 39 18 43 32 18 43 39 18 32 5 34 42 4 43 36 32 18
split_gain=21143.8 2964.5 2300.63 551.844 392.203 375.064 368.344 358.637 173.359 168.845 141.794 129.409 162.838 128.032 111.291 110.983 114.405 110.897 97.1933 97.1293 95.3351 113.667 99.5272 92.3339 88.2959 84.233 83.1572 70.2902 69.2973 77.5293
threshold=0.33771929824561409 0.60303030303030314 0.14495798319327735 5.5000000000000009 68401.710000000006 0.80384615384615399 0.44590643274853808 0.22474747474747478 28285.000000000004 1.0000000180025095e-35 5.5000000000000009 0.072751322751322761 7.5000000000000009 9.5000000000000018 0.94097222222222232 5.5000000000000009 8.5000000000000018 0.96159420289855091 5.5000000000000009 2.5000000000000004 0.96159420289855091 10.500000000000002 0.25903225806451619 25112.300000000003 1.0000000180025095e-35 0.14550264550264552 1.0000000180025095e-35 0.52803983228511542 8.5000000000000018 0.91287878787878796
decision_type=2 2 2 2 2 2 2 2 2 2 2 2 2 2 2 2 2 2 2 2 2 2 2 2 2 2 2 2 2 2
left_child=2 6 3 19 10 27 14 28 -8 -5 23 13 -13 -11 -2 16 26 18 -10 -1 21 24 25 -3 -18 -23 -9 -6 -4 -30
right_child=1 4 7 9 5 -7 8 15 17 11 -12 12 -14 -15 -16 -17 20 -19 -20 -21 -22 22 -24 -25 -26 -27 -28 -29 29 -31
leaf_value=0.0024869207064061863 0.0048047152174528927 0.0038546445912824908 0.0012732480170884921 -0.004953285990723178 0.010766430784493762 0.017940247559419982 0.0030459207499629239 -0.00602601997031853 0.0079414848110848438 -0.0026674743765108945 0.01418856416975588 0.00074013794394081503 -0.0030689879847868875 -0.0043073176799847436 0.0015403390117491305 0.0048829575655341562 9.2051125627046055e-05 0.0053383219756087666 0.011423669255201671 -0.00092853057086592246 -0.0012585680868812063 0.00043289066913121914 0.0037846506701126569 0.0095470990111100242 -0.0072681389443577469 0.0033292343453974723 0.0045870485186103168 0.01371724097458563 -0.00096476514369859016 -0.003350798391542831
leaf_weight=28583 129989 9626 28720 243282 28886 57339 20278 1968 107827 155817 12707 30401 363921 504155 32672 20551 10753 32728 24613 76602 48433 132633 39251 27403 6561 30963 29697 66972 237423 39744
leaf_count=28583 129989 9626 28720 243282 28886 57339 20278 1968 107827 155817 12707 30401 363921 504155 32672 20551 10753 32728 24613 76602 48433 132633 39251 27403 6561 30963 29697 66972 237423 39744
internal_value=0 0.00868577 -0.00235837 -0.00348359 0.013489 0.0147415 0.00588566 0.000160278 0.00740892 -0.00376595 0.00963121 -0.00349197 -0.00277532 -0.00392016 0.00414903 0.00132823 0.00108493 0.00794458 0.00858862 -4.14928e-07 0.000749821 0.00119164 0.00152356 0.0080673 -0.00269703 0.000981067 0.00392744 0.012828 -0.00106465 -0.00130691
internal_weight=0 551040 2.02946e+06 1.40276e+06 202933 153197 348107 626697 185446 1.29758e+06 49736 1.05429e+06 394322 659972 162661 320810 300259 165168 132440 105185 268594 220161 202847 37029 17314 163596 31665 95858 305887 277167
internal_count=2580498 551040 2029458 1402761 202933 153197 348107 626697 185446 1297576 49736 1054294 394322 659972 162661 320810 300259 165168 132440 105185 268594 220161 202847 37029 17314 163596 31665 95858 305887 277167
is_linear=0
shrinkage=0.05


Tree=10
num_leaves=31
num_cat=0
split_feature=41 41 41 41 39 41 35 41 41 39 43 18 18 43 43 41 32 36 39 34 34 18 33 32 29 42 18 32 43 18
split_gain=19093.9 2553.75 2229.14 481.934 421.112 481.423 310.066 217.153 168.43 140.51 124.924 121.08 118.04 98.4837 92.1715 86.3984 126.342 81.1104 80.3232 78.4562 78.0951 75.9905 73.7168 70.2907 68.2208 90.5568 67.1025 69.1464 65.0727 62.6547
threshold=0.3771551724137932 0.20344827586206904 0.67204301075268835 0.50675675675675691 6.5000000000000009 0.12771739130434787 3.5000000000000004 0.87750000000000006 0.28801843317972359 3.5000000000000004 1.0000000180025095e-35 0.96159420289855091 0.90454545454545465 2.5000000000000004 5.5000000000000009 0.072751322751322761 7.5000000000000009 0.29629629629629634 10.500000000000002 17091.000000000004 26612.000000000004 0.90454545454545465 13.500000000000002 8.5000000000000018 2.5000000000000004 1.0000000180025095e-35 0.83484848484848495 10.500000000000002 3.5000000000000004 0.96159420289855091
decision_type=2 2 2 2 2 2 2 2 2 2 2 2 2 2 2 2 2 2 2 2 2 2 2 2 2 2 2 2 2 2
left_child=1 4 3 12 9 10 19 21 29 28 -6 14 13 20 -5 18 -17 -10 -12 -4 -2 -8 -22 -7 25 -24 27 -25 -1 -3
right_child=2 8 6 11 5 23 7 -9 17 -11 15 -13 -14 -15 -16 16 -18 -19 -20 -21 22 -23 24 26 -26 -27 -28 -29 -30 -31
leaf_value=0.00065048368851592926 0.00097630751510490062 0.00082455137193053842 0.0032200298883577599 0.008919439929912976 -0.00478618779926773 0.0010863952311884393 0.014332454351721395 0.018225869399428149 0.0011799487833040513 -0.0015942018818650228 -0.002900335047900016 0.0059591506667559056 0.0027961043439360877 0.0070954109346651421 0.012371662672757529 0.00062043785125616641 -0.0030985494398277514 0.0032964349236674034 -0.0041678070291626913 0.010198630397249074 0.0058790981738489553 0.010622344211497443 0.0028443773851369899 -0.0045343782473027073 0.006270774609875393 -0.0083974781069823101 -0.0036536420307736201 -0.0010765648384515737 0.0054786907765498639 -0.0012884639492760253
leaf_weight=39875 12378 201432 5661 85957 226895 25566 72510 35966 75623 154172 172210 26944 42009 76004 24946 24758 294330 112772 455946 13957 69537 17046 5008 15595 5077 2789 36302 198293 8459 42481
leaf_count=39875 12378 201432 5661 85957 226895 25566 72510 35966 75623 154172 172210 26944 42009 76004 24946 24758 294330 112772 455946 13957 69537 17046 5008 15595 5077 2789 36302 198293 8459 42481
internal_value=0 -0.00209745 0.00881943 0.00666244 -0.00299256 -0.00329086 0.0140306 0.0149442 0.0013239 -0.00085676 -0.0037324 0.00896556 0.00517054 0.00575457 0.00969597 -0.00347999 -0.00280999 0.00244686 -0.00382033 0.00818487 0.00467945 0.0136263 0.00523566 -0.00141084 0.0017602 -0.00117685 -0.00166603 -0.00132868 0.00149547 0.000456539
internal_weight=0 2.08471e+06 495789 350649 1.6524e+06 1.4499e+06 145140 125522 432308 202506 1.17414e+06 137847 212802 170793 110903 947244 319088 188395 628156 19618 94789 89556 82411 275756 12874 7797 250190 213888 48334 243913
internal_count=2580498 2084709 495789 350649 1652401 1449895 145140 125522 432308 202506 1174139 137847 212802 170793 110903 947244 319088 188395 628156 19618 94789 89556 82411 275756 12874 7797 250190 213888 48334 243913
is_linear=0
shrinkage=0.05


Tree=11
num_leaves=31
num_cat=0
split_feature=41 41 41 39 41 35 41 41 39 41 41 36 43 32 35 43 32 18 18 18 32 43 32 18 32 39 43 36 42 43
split_gain=17232.4 2429.72 1880.28 455.356 408.422 328.029 296.273 220.088 154.351 139.968 123.198 119.045 103.071 94.2069 92.5005 92.0107 107.093 91.9334 83.5216 82.6955 105.673 78.5142 75.0649 80.0959 96.3229 75.0022 73.5857 72.5597 71.7017 68.844
threshold=0.33771929824561409 0.57359307359307377 0.14495798319327735 7.5000000000000009 0.71714285714285719 3.5000000000000004 0.25462962962962971 0.43050193050193053 3.5000000000000004 0.90238095238095251 0.072751322751322761 0.12202212138400455 1.5000000000000002 7.5000000000000009 3.5000000000000004 1.5000000000000002 7.5000000000000009 0.96159420289855091 0.7958333333333335 0.81428571428571439 10.500000000000002 5.5000000000000009 8.5000000000000018 0.71240601503759404 10.500000000000002 15.500000000000002 1.5000000000000002 0.10276785714285716 1.0000000180025095e-35 5.5000000000000009
decision_type=2 2 2 2 2 2 2 2 2 2 2 2 2 2 2 2 2 2 2 2 2 2 2 2 2 2 2 2 2 2
left_child=2 7 3 8 14 27 12 18 -1 -7 25 -9 -4 -14 -3 -12 -17 21 -2 20 28 -13 -8 24 -24 -5 -26 -6 -15 -22
right_child=1 4 6 10 5 9 22 11 -10 -11 15 17 13 19 -16 16 -18 -19 -20 -21 29 -23 23 -25 26 -27 -28 -29 -30 -31
leaf_value=0.0014207011632022886 0.0041614362803119561 0.0057923135752982295 -0.0017336397572206771 -0.0035200812005445887 0.0040670989455115101 0.013684761706326189 0.0045207477989173709 0.0019955771054424197 -0.0017691144318368627 0.017785409569581179 -0.0037186959217379045 0.0066303081216641932 0.0030913408463037941 -0.0010917788426399618 0.010074179629445528 0.0012533272496863155 -0.0025421334777947046 0.0041848552050526289 0.0011564731162383361 -0.0024819353640668299 0.00020323319321130702 0.0099057664848914307 -0.0026084056949212467 -0.00079314192381985886 0.00047430492532173058 -0.004540246841057036 0.0029567792953222368 0.010268955898705615 -0.0064661055196062233 0.0038849120673246289
leaf_weight=48334 114432 14554 139006 456046 7887 74708 20978 15393 176091 28844 179361 106207 21770 19726 94574 20260 224844 31627 28980 38164 176107 22103 11181 34931 42657 297825 99438 11731 9055 13684
leaf_count=48334 114432 14554 139006 456046 7887 74708 20978 15393 176091 28844 179361 106207 21770 19726 94574 20260 224844 31627 28980 38164 176107 22103 11181 34931 42657 297825 99438 11731 9055 13684
internal_value=0 0.00784132 -0.00212908 -0.00314633 0.0117305 0.0137039 0.000147873 0.00500694 -0.00108213 0.014827 -0.00353948 0.0061952 -0.000621643 -6.66312e-05 0.00950312 -0.00285814 -0.00222841 0.00659939 0.00355421 -0.000334412 4.05583e-05 0.00719455 0.00168375 0.00136753 0.00185994 -0.00392311 0.00221154 0.00777563 -0.00278263 0.000468684
internal_weight=0 551040 2.02946e+06 1.40276e+06 232298 123170 626697 318742 224425 103552 1.17834e+06 175330 417512 278506 109128 424465 245104 159937 143412 256736 218572 128310 209185 188207 153276 753871 142095 19618 28781 189791
internal_count=2580498 551040 2029458 1402761 232298 123170 626697 318742 224425 103552 1178336 175330 417512 278506 109128 424465 245104 159937 143412 256736 218572 128310 209185 188207 153276 753871 142095 19618 28781 189791
is_linear=0
shrinkage=0.05


Tree=12
num_leaves=31
num_cat=0
split_feature=41 41 41 41 39 41 36 41 36 39 16 16 18 18 43 43 32 43 41 18 43 43 43 32 3 33 29 34 42 15
split_gain=15563.5 2095.39 1820.16 395.505 343.489 401.06 260.951 155.233 135.652 135.315 111.105 110.338 106.043 93.8141 91.612 91.0116 85.1206 79.7674 77.3685 74.4186 69.4002 67.7076 67.1776 76.1089 64.8711 62.9034 60.1643 57.66 52.5658 51.3414
threshold=0.3771551724137932 0.20344827586206904 0.67204301075268835 0.50675675675675691 4.5000000000000009 0.13188405797101452 0.20057471264367821 0.83666666666666667 0.23354978354978356 10.500000000000002 0.0930735930735931 0.061250000000000006 0.96159420289855091 0.89087301587301593 2.5000000000000004 2.5000000000000004 8.5000000000000018 5.5000000000000009 0.067816091954023008 0.83484848484848495 3.5000000000000004 3.5000000000000004 2.5000000000000004 37.500000000000007 0.047222222222222235 13.500000000000002 2.5000000000000004 148141.84000000003 1.0000000180025095e-35 0.1188235294117647
decision_type=2 2 2 2 2 2 2 2 2 2 2 2 2 2 2 2 2 2 2 2 2 2 2 2 2 2 2 2 2 2
left_child=1 4 3 10 20 9 -4 24 -3 21 13 14 17 15 25 29 -13 -5 -11 -16 -1 -6 -7 -24 -8 -10 28 -9 -27 -2
right_child=2 8 6 12 5 22 7 27 11 18 -12 16 -14 -15 19 -17 -18 -19 -20 -21 -22 -23 23 -25 -26 26 -28 -29 -30 -31
leaf_value=-5.3652569139450128e-05 0.0019198992052315009 2.0891309855939609e-05 0.0054127986031302089 0.0080609083810662188 -0.0027818634382101889 -0.0017924707610450536 0.010456272897610086 0.013754124574116658 0.00092464946581765229 -0.0039800166170563542 0.0061462183659364974 0.007502220433119669 0.0052862032325473795 0.0011624319310807626 0.0032997880442993247 0.006068573537444024 0.0027807178562048208 0.011272449017044136 -0.0029391388868294918 -0.00093380552209145059 0.0040781926273966386 -0.00084464317157328288 0.0027804412367276985 -0.00086308165788184983 0.013315691763340482 -0.0017544461534541415 0.00095655613259194123 0.017010830600825044 -0.0083845554982110628 0.0049424325280853628
leaf_weight=61798 35104 155012 11409 85957 375336 228413 39833 27769 99607 557894 79164 11085 26944 27209 63046 47900 68749 24946 262541 12426 12163 51265 17208 85783 39509 7864 9696 26620 4823 23425
leaf_count=61798 35104 155012 11409 85957 375336 228413 39833 27769 99607 557894 79164 11085 26944 27209 63046 47900 68749 24946 262541 12426 12163 51265 17208 85783 39509 7864 9696 26620 4823 23425
internal_value=0 -0.00189364 0.00796243 0.00601334 -0.00270445 -0.0028605 0.0126713 0.0132906 0.0012055 -0.00327136 0.00466182 0.00186771 0.00809974 0.0037825 0.00123353 0.00445233 0.0034363 0.0087833 -0.00364693 0.00260275 0.000625836 -0.00254907 -0.00131445 -0.000254313 0.0118801 0.00038643 -0.00200871 0.0153481 -0.0042749 0.0031296
internal_weight=0 2.08471e+06 495789 350649 1.6524e+06 1.57844e+06 145140 133731 432308 1.24704e+06 212802 277296 137847 133638 197462 106429 79834 110903 820435 75472 73961 426601 331404 102991 79342 121990 22383 54389 12687 58529
internal_count=2580498 2084709 495789 350649 1652401 1578440 145140 133731 432308 1247036 212802 277296 137847 133638 197462 106429 79834 110903 820435 75472 73961 426601 331404 102991 79342 121990 22383 54389 12687 58529
is_linear=0
shrinkage=0.05


Tree=13
num_leaves=31
num_cat=0
split_feature=41 41 41 39 35 41 41 41 43 43 34 34 43 18 32 42 40 43 43 18 32 18 4 32 43 34 18 41 42 33
split_gain=14059.3 1982.37 1532.03 375.327 360.381 242.874 207.659 183.015 174.665 140.433 118.3 111.187 87.8596 79.7291 79.3262 78.9303 78.7881 78.2102 76.4391 69.8626 89.0933 68.5934 66.1298 64.5299 73.0574 64.3357 63.2472 62.677 62.2827 68.9223
threshold=0.33771929824561409 0.57359307359307377 0.15192307692307697 5.5000000000000009 7.5000000000000009 0.25462962962962971 0.73798627002288342 0.44590643274853808 5.5000000000000009 2.5000000000000004 39900.570000000007 30001.200000000004 1.5000000000000002 0.7958333333333335 7.5000000000000009 1.0000000180025095e-35 0.729186316232599 3.5000000000000004 1.0000000180025095e-35 0.61834733893557436 10.500000000000002 0.91287878787878796 0.15549450549450552 8.5000000000000018 5.5000000000000009 126600.60000000002 0.42206477732793529 0.91106719367588951 1.0000000180025095e-35 7.0000000000000009
decision_type=2 2 2 2 2 2 2 2 2 2 2 2 2 2 2 2 2 2 2 2 2 2 2 2 2 2 2 2 2 2
left_child=2 7 3 17 8 12 -6 13 10 18 -3 -9 -4 -2 -14 25 21 -1 -5 20 -16 -12 -22 -7 -25 26 -13 -8 -20 -30
right_child=1 4 5 9 6 23 27 11 -10 -11 16 15 14 -15 19 -17 -18 -19 28 -21 22 -23 -24 24 -26 -27 -28 -29 29 -31
leaf_value=-0.00054368676596400721 0.0039066982702163069 0.0041890654700795288 -0.0015943771319527262 -0.0041170461614717406 0.010241419659481023 0.004165628857698246 0.013540718994084029 0.0023220755249241591 0.012020349355131493 -0.0021068297876546019 0.0090596677264497601 0.0072534311875058878 0.002877547246386971 0.0011521011115046972 -0.0025580898917247357 0.0037274963337423994 0.017022989413915866 0.0032290743459596227 -0.0029589797676392994 -0.0022695262482909785 4.0209754652072963e-05 0.0051547237441291749 0.002588849404599788 0.00095067564513102152 0.0045726868021086628 0.0091080006637197491 0.0044589894845769402 0.017071480645450065 -0.0019363240699737543 -0.0055008713645497663
leaf_weight=88939 129722 20286 136497 244010 51958 20978 45832 20588 28866 295324 50977 53610 21448 32939 28238 24980 2631 16246 696324 37878 156239 14429 30405 173067 15140 24365 32538 17319 18589 50136
leaf_count=88939 129722 20286 136497 244010 51958 20978 45832 20588 28866 295324 50977 53610 21448 32939 28238 24980 2631 16246 696324 37878 156239 14429 30405 173067 15140 24365 32538 17319 18589 50136
internal_value=0 0.00708271 -0.0019231 -0.00283412 0.0105956 0.000148467 0.0125827 0.00452251 0.0086438 -0.00306581 0.00754027 0.0057456 -0.000557856 0.00334889 -4.18898e-05 0.0062658 0.00853947 3.90225e-05 -0.00334648 -0.000289619 5.93859e-05 0.00819821 0.000455393 0.00153523 0.00124204 0.00683955 0.00619797 0.014509 -0.00310071 -0.00453672
internal_weight=0 551040 2.02946e+06 1.40957e+06 232298 619890 115109 318742 117189 1.30438e+06 88323 156081 410705 162661 274208 135493 68037 105185 1.00906e+06 252760 214882 65406 186644 209185 188207 110513 86148 63151 765049 68725
internal_count=2580498 551040 2029458 1409568 232298 619890 115109 318742 117189 1304383 88323 156081 410705 162661 274208 135493 68037 105185 1009059 252760 214882 65406 186644 209185 188207 110513 86148 63151 765049 68725
is_linear=0
shrinkage=0.05


Tree=14
num_leaves=31
num_cat=0
split_feature=41 41 41 39 41 36 41 41 39 41 18 43 36 32 43 41 32 43 34 32 42 18 39 15 2 43 32 3 16 18
split_gain=12706.1 2064.85 1235.46 285.23 328.359 226.103 212.117 165.181 122.356 119.185 90.7374 83.542 82.4406 82.3575 95.9297 77.6004 129.682 67.4842 67.4589 59.0804 74.1902 60.3213 58.827 58.801 58.0805 58.0026 60.5292 56.4897 55.4333 53.868
threshold=0.40270270270270275 0.20344827586206904 0.67204301075268835 4.5000000000000009 0.12771739130434787 0.37161172161172162 0.50675675675675691 0.30217391304347829 8.5000000000000018 0.83666666666666667 0.96159420289855091 1.0000000180025095e-35 0.37161172161172162 8.5000000000000018 4.5000000000000009 0.060661764705882366 7.5000000000000009 5.5000000000000009 28208.355000000003 10.500000000000002 1.0000000180025095e-35 0.92820512820512835 1.5000000000000002 1.0000000180025095e-35 0.054093567251461992 1.5000000000000002 7.5000000000000009 0.31009615384615391 0.072751322751322761 0.81428571428571439
decision_type=2 2 2 2 2 2 2 2 2 2 2 2 2 2 2 2 2 2 2 2 2 2 2 2 2 2 2 2 2 2
left_child=1 3 6 22 8 18 12 23 -5 24 17 -10 -2 -9 19 -13 -17 -8 -4 20 -15 27 -1 28 -7 -6 -27 -21 -3 -28
right_child=2 7 5 4 25 9 10 13 11 -11 -12 15 -14 14 -16 16 -18 -19 -20 21 -22 -23 -24 -25 -26 26 29 -29 -30 -31
leaf_value=0.0036437301738666081 0.0030829585932571823 -0.00044603746085580614 0.0026263466198761607 -0.0018551355890380377 -0.0020809280662042857 0.0095726661596162235 0.0072586807601600859 0.0052462348446225306 -0.0040894507591748858 0.014126144391622387 0.0046882392360769092 -0.0033655661979431735 0.0054449002735433745 0.00095704203815223654 0.0039463403991055685 0.00093297269344966868 -0.0026691070175488582 0.010212620624125956 0.0086408903059649947 0.0015809188362302053 -0.0069410473236639269 -0.00051375529927943247 -6.0596918909952227e-05 0.0017553851981098303 0.012409500610010837 0.0021766259977198219 -0.00062945329997786403 0.0044168855604715318 0.0014073667179955141 -0.0030584132481650474
leaf_weight=13004 56517 151230 6824 208358 119449 36470 85957 21748 204128 51422 26944 487971 106675 8265 47140 27134 315770 24946 14715 79118 4644 25398 60957 66786 35709 16777 172547 22568 55021 26306
leaf_count=13004 56517 151230 6824 208358 119449 36470 85957 21748 204128 51422 26944 487971 106675 8265 47140 27134 315770 24946 14715 79118 4644 25398 60957 66786 35709 16777 172547 22568 55021 26306
internal_value=0 -0.00160417 0.00767362 -0.00244404 -0.00258624 0.0114628 0.00584673 0.00127559 -0.00296061 0.0122866 0.00729083 -0.00318316 0.00462691 0.00233392 0.00199546 -0.0029605 -0.00238407 0.00792313 0.00673536 0.00133854 -0.00188429 0.00166591 0.000590707 0.000465928 0.0109761 -0.00119707 -0.000707451 0.00221033 4.839e-05 -0.000950777
internal_weight=0 2.13432e+06 446179 1.6524e+06 1.57844e+06 145140 301039 481918 1.24336e+06 123601 137847 1.035e+06 163192 208881 187133 830875 342904 110903 21539 139993 12909 127084 73961 273037 72179 335079 215630 101686 206251 198853
internal_count=2580498 2134319 446179 1652401 1578440 145140 301039 481918 1243361 123601 137847 1035003 163192 208881 187133 830875 342904 110903 21539 139993 12909 127084 73961 273037 72179 335079 215630 101686 206251 198853
is_linear=0
shrinkage=0.05


Tree=15
num_leaves=31
num_cat=0
split_feature=41 41 41 39 41 35 35 41 41 43 42 39 18 34 32 43 43 1 41 43 18 36 18 43 43 32 42 5 43 32
split_gain=11467.3 1863.52 1115 257.42 296.344 205.939 197.383 149.076 140.99 132.204 123.761 112.387 101.443 74.8644 74.3277 86.5765 64.9916 62.8383 61.8472 59.9566 58.9643 57.6792 56.5559 56.8552 56.4837 53.32 66.9567 57.5672 52.3669 65.7186
threshold=0.40270270270270275 0.20344827586206904 0.67204301075268835 4.5000000000000009 0.12771739130434787 3.5000000000000004 5.5000000000000009 0.30217391304347829 0.85960591133004938 5.5000000000000009 1.0000000180025095e-35 11.500000000000002 0.71240601503759404 168836.00000000003 8.5000000000000018 4.5000000000000009 3.5000000000000004 0.12771739130434787 0.060661764705882366 2.5000000000000004 0.96159420289855091 0.65669642857142863 0.96159420289855091 1.5000000000000002 3.5000000000000004 10.500000000000002 1.0000000180025095e-35 0.31009615384615391 2.5000000000000004 37.500000000000007
decision_type=2 2 2 2 2 2 2 2 2 2 2 2 2 2 2 2 2 2 2 2 2 2 2 2 2 2 2 2 2 2
left_child=1 3 6 24 11 19 9 22 20 12 13 16 17 21 -9 25 -5 -2 -13 -4 -7 -8 23 -3 -1 26 -16 -27 -6 -30
right_child=2 7 5 4 28 8 10 14 -10 -11 -12 18 -14 -15 15 -17 -18 -19 -20 -21 -22 -23 -24 -25 -26 27 -28 -29 29 -31
leaf_value=-5.1832441429230904e-05 0.0036797592052551136 -0.00044479386534248909 0.0030991080982205152 -0.0024712796109636146 -0.0015565822556163976 0.011107807334937506 0.0056753261536855526 0.0049839229616738213 0.014043714330541648 0.0077790347331222788 0.0040043374136191148 -0.0035839693321396415 0.0007868068940867451 0.0099157745575730923 0.00090918995543674353 0.0037490234034207853 -0.00076582968836256887 0.0068054742694251035 -0.0026054343663238413 0.0086501461629969658 0.0077419619041683889 0.0081025957793292268 -0.0011115936036346023 0.0012937360661177846 0.0036757340852434893 0.0010094958160293147 -0.0065939950576239777 0.0035585712415532531 0.002603439080044546 -0.00076789736831307331
leaf_weight=61798 77817 66981 8922 479766 231068 68540 49296 21748 40921 22283 31614 447843 25520 25633 8265 47140 63224 20267 252528 10696 16061 48609 48199 157857 12163 98511 4644 28573 17349 86662
leaf_count=61798 77817 66981 8922 479766 231068 68540 49296 21748 40921 22283 31614 447843 25520 25633 8265 47140 63224 20267 252528 10696 16061 48609 48199 157857 12163 98511 4644 28573 17349 86662
internal_value=0 -0.00152396 0.00728993 -0.00232184 -0.00245693 0.0108897 0.00555439 0.00121181 0.0116343 0.00423406 0.00679588 -0.00281258 0.00359498 0.00751025 0.00221723 0.00189569 -0.0022727 0.00432562 -0.00323115 0.00612561 0.0104688 0.00688044 0.000442632 0.000775814 0.000561172 0.00127162 -0.00179007 0.00158262 -0.00113721 -0.00020556
internal_weight=0 2.13432e+06 446179 1.6524e+06 1.57844e+06 145140 301039 481918 125522 145887 155152 1.24336e+06 123604 123538 208881 187133 542990 98084 700371 19618 84601 97905 273037 224838 73961 139993 12909 127084 335079 104011
internal_count=2580498 2134319 446179 1652401 1578440 145140 301039 481918 125522 145887 155152 1243361 123604 123538 208881 187133 542990 98084 700371 19618 84601 97905 273037 224838 73961 139993 12909 127084 335079 104011
is_linear=0
shrinkage=0.05


Tree=16
num_leaves=31
num_cat=0
split_feature=41 41 41 39 34 41 41 36 36 16 39 43 16 39 43 43 32 18 43 42 34 5 15 17 43 32 32 34 43 32
split_gain=10353.2 1481.67 1135.09 268.003 243.601 187.386 171.066 156.056 138.724 110.488 109.859 105.845 97.492 81.6528 75.6828 72.0725 69.6976 66.8662 66.5983 66.082 65.2715 59.438 58.2217 54.499 53.1242 51.9866 51.0715 49.2163 48.8762 47.7519
threshold=0.33771929824561409 0.60303030303030314 0.16904761904761909 7.5000000000000009 79800.60000000002 0.44590643274853808 0.80384615384615399 0.10944940476190478 0.2293374316939891 1.0000000180025095e-35 2.5000000000000004 5.5000000000000009 1.0000000180025095e-35 14.500000000000002 5.5000000000000009 2.5000000000000004 8.5000000000000018 0.94097222222222232 2.5000000000000004 1.0000000180025095e-35 25112.300000000003 0.01870629370629371 0.10555555555555557 0.078461538461538485 3.5000000000000004 37.500000000000007 8.5000000000000018 38987.010000000002 2.5000000000000004 10.500000000000002
decision_type=2 2 2 2 2 2 2 2 2 2 2 2 2 2 2 2 2 2 2 2 2 2 2 2 2 2 2 2 2 2
left_child=2 5 3 10 11 17 19 13 21 14 -1 20 15 18 23 22 -14 28 -5 -6 -3 -4 -10 -7 -12 -17 -9 -25 -2 -28
right_child=1 4 8 7 6 9 -8 26 12 -11 24 -13 16 -15 -16 25 -18 -19 -20 -21 -22 -23 -24 27 -26 -27 29 -29 -30 -31
leaf_value=0.0020563923699090996 0.0025369093946467597 0.0019741107440158284 -0.00093592580747916133 -0.0027986758247745855 0.0099726653211363019 0.00242979921635762 0.012843307014026346 0.0013712086430444652 -0.00078094937148982346 0.0065869090130609561 -0.0015455917585589288 0.010230037099805255 0.0063153657399968493 -0.0034385483814286417 0.0071394243929417166 0.0041323269644811785 0.0020061927610926177 0.00083760370926367787 -0.0016359146431495653 0.0065884834769073738 0.0066077971406932213 0.0013600148863698426 0.0014775619458031494 0.00051114665405687645 0.00061861020282498068 0.0010662948199349957 -0.0046007295923147706 0.0056553722876909324 0.0044990815627733429 -0.0012627416403105142
leaf_weight=28583 74937 9626 182015 543122 67697 49509 53934 17021 99725 79938 195392 17237 10941 388298 17366 17771 65922 32672 159256 18331 36108 33355 39973 5406 33169 62270 11595 33227 55052 141050
leaf_count=28583 74937 9626 182015 543122 67697 49509 53934 17021 99725 79938 195392 17237 10941 388298 17366 17771 65922 32672 159256 18331 36108 33355 39973 5406 33169 62270 11595 33227 55052 141050
internal_value=0 0.00607791 -0.00165028 -0.00233712 0.00947365 0.00409833 0.0106356 -0.00263726 0.00038552 0.00518479 -0.000866051 0.00689099 0.00108686 -0.0028567 0.00412248 0.000550727 0.00261958 0.00285968 -0.00253503 0.00925156 0.00563251 -0.000580347 -0.000134702 0.00352807 -0.00123152 0.00174703 -0.00122662 0.00493553 0.00336791 -0.0015163
internal_weight=0 551040 2.02946e+06 1.51749e+06 202933 348107 139962 1.26034e+06 511972 185446 257144 62971 296602 1.09068e+06 105508 219739 76863 162661 702378 86028 45734 215370 139698 88142 228561 80041 169666 38633 129989 152645
internal_count=2580498 551040 2029458 1517486 202933 348107 139962 1260342 511972 185446 257144 62971 296602 1090676 105508 219739 76863 162661 702378 86028 45734 215370 139698 88142 228561 80041 169666 38633 129989 152645
is_linear=0
shrinkage=0.05


Tree=17
num_leaves=31
num_cat=0
split_feature=41 41 41 39 41 36 36 16 39 43 43 43 17 38 15 32 43 18 34 41 32 5 14 16 32 33 42 34 32 18
split_gain=9352.97 1526.92 917.668 216.346 228.216 185.742 171.664 134.143 119.958 117.647 116.262 107.889 101.386 93.8683 92.9857 90.1127 75.0351 69.7629 68.0539 65.953 119.797 63.2041 60.7547 56.9414 63.366 82.3342 107.452 56.2644 54.4158 50.1668
threshold=0.40270270270270275 0.20344827586206904 0.67204301075268835 3.5000000000000004 0.13714733542319751 0.37161172161172162 0.45478595478595485 0.0930735930735931 8.5000000000000018 5.5000000000000009 4.5000000000000009 5.5000000000000009 0.022500000000000003 18988097.400000002 1.0000000180025095e-35 8.5000000000000018 1.0000000180025095e-35 0.42206477732793529 150006.00000000003 0.060661764705882366 7.5000000000000009 0.23166368515205729 0.1188235294117647 0.061250000000000006 36.500000000000007 7.0000000000000009 1.0000000180025095e-35 246962.60000000003 8.5000000000000018 0.48832588176850483
decision_type=2 2 2 2 2 2 2 2 2 2 2 2 2 2 2 2 2 2 2 2 2 2 2 2 2 2 2 2 2 2
left_child=1 3 6 -1 8 27 13 10 -5 12 14 18 23 21 22 -9 -10 -12 -7 -18 -21 -2 -3 24 25 -8 -27 -4 -14 -26
right_child=2 7 5 4 -6 11 9 15 16 -11 17 -13 28 -15 -16 -17 19 -19 -20 20 -22 -23 -24 -25 29 26 -28 -29 -30 -31
leaf_value=0.0011973340315856425 0.0022177285321259613 -0.0010225270982154575 0.004098246104866303 -0.0014660027677849512 -0.00098263730905153736 0.0082736242881109312 0.0055524032574586039 0.0059240287872895795 -0.0035716740235028663 0.0083781376148751949 0.0033395201598273288 0.012669645285475173 0.0095242324593232033 0.0094360692017853506 0.0015403394328491562 0.001966582930940011 -0.002889655465676157 -0.00039453824953234557 0.011177523537633769 0.0010982677912332436 -0.0022658716131113681 0.0049509331372019514 0.00088537690264272088 0.005503270382312098 0.0056780579411238432 0.00058012877363923033 -0.011539435852969208 0.010018239650026928 0.0060064880191510817 0.0014397046691820557
leaf_weight=48334 70622 138775 16204 233985 311354 46131 4811 16436 206667 38295 51854 41611 13609 6075 83455 115247 487971 16485 35859 28730 335360 30195 59666 39722 20000 7347 2435 5335 57202 10726
leaf_count=48334 70622 138775 16204 233985 311354 46131 4811 16436 206667 38295 51854 41611 13609 6075 83455 115247 487971 16485 35859 28730 335360 30195 59666 39722 20000 7347 2435 5335 57202 10726
internal_value=0 -0.00137631 0.00658367 -0.00209855 -0.00219786 0.00984937 0.00500918 0.00110008 -0.00249055 0.00589512 0.000588571 0.010596 0.00528501 0.00340005 0.000140033 0.00246053 -0.00271698 0.00243878 0.00954367 -0.00250968 -0.00200041 0.00303633 -0.00044887 0.00412131 0.00291003 0.000197101 -0.00243675 0.00556457 0.00668256 0.00419851
internal_weight=0 2.13432e+06 446179 1.6524e+06 1.60407e+06 145140 301039 481918 1.29271e+06 194147 350235 123601 155852 106892 281896 131683 1.05873e+06 68339 81990 852061 364090 100817 198441 85041 45319 14593 9782 21539 70811 30726
internal_count=2580498 2134319 446179 1652401 1604067 145140 301039 481918 1292713 194147 350235 123601 155852 106892 281896 131683 1058728 68339 81990 852061 364090 100817 198441 85041 45319 14593 9782 21539 70811 30726
is_linear=0
shrinkage=0.05


Tree=18
num_leaves=31
num_cat=0
split_feature=41 41 41 35 39 36 18 16 41 43 18 43 32 32 43 39 43 42 5 3 32 15 4 17 3 2 41 4 43 42
split_gain=8459.19 1221.45 922.123 246.85 241.928 163.299 143.434 134.189 130.738 111.509 105.138 107.091 103.927 129.501 96.1983 88.1059 84.3983 82.3671 76.1835 71.4075 68.8048 61.7367 58.0049 56.5388 54.1649 51.4244 49.2048 47.2066 46.5662 49.4187
threshold=0.33771929824561409 0.57359307359307377 0.14495798319327735 7.5000000000000009 7.5000000000000009 0.2293374316939891 0.94097222222222232 0.067816091954023008 0.73798627002288342 2.5000000000000004 0.96159420289855091 2.5000000000000004 8.5000000000000018 10.500000000000002 1.0000000180025095e-35 2.5000000000000004 2.5000000000000004 1.0000000180025095e-35 0.23904761904761909 1.0000000180025095e-35 8.5000000000000018 0.10555555555555557 0.16904761904761909 0.12250000000000001 0.078461538461538485 1.0000000180025095e-35 0.77097902097902105 0.0930735930735931 1.0000000180025095e-35 1.0000000180025095e-35
decision_type=2 2 2 2 2 2 2 2 2 2 2 2 2 2 2 2 2 2 2 2 2 2 2 2 2 2 2 2 2 2
left_child=2 7 4 6 15 19 9 10 -5 -3 11 21 14 17 -7 -1 28 -14 22 25 -9 -2 -15 -16 -22 -4 -11 -13 -6 -30
right_child=1 3 5 8 16 12 -8 20 -10 26 -12 27 13 18 23 -17 -18 -19 -20 -21 24 -23 -24 -25 -26 -27 -28 -29 29 -31
leaf_value=0.0018937060490661916 0.00092519284902926381 0.0055507806530340964 -0.0013737493280414769 0.0080382398263246901 -0.0033420654816388204 -0.0061330968103823751 0.0033123745244614819 0.007707718835020372 0.011424419460861087 0.0078891629503957672 0.00036789078402846406 0.0038267938096412514 -0.00060615009790473311 3.229065467809291e-05 0.0025625231232278972 -0.0010779685788188701 -0.0016990510735911725 -0.0065916591577072957 0.0024965846255939599 0.0011414993720815342 0.0034493311566166532 0.0036545237801004233 0.0020817073034344589 0.0068226161848155484 0.0057842084947405739 0.00074087020100200825 0.011061478221934137 0.0066365617407746188 -0.002378685130334587 -0.0038368369679293874
leaf_weight=28583 49598 39479 214603 51958 224777 2488 25420 17130 63151 32808 39715 47394 14512 177316 22319 195842 261880 9517 56013 41894 68523 35584 42874 11963 38962 33198 19482 21836 627644 64035
leaf_count=28583 49598 39479 214603 51958 224777 2488 25420 17130 63151 32808 39715 47394 14512 177316 22319 195842 261880 9517 56013 41894 68523 35584 42874 11963 38962 33198 19482 21836 627644 64035
internal_value=0 0.00549391 -0.00149171 0.00825139 -0.00220409 0.000102838 0.00663601 0.00348426 0.00989596 0.00755665 0.0026623 0.00325242 0.000851157 0.000543875 0.00336015 -0.000699493 -0.00249065 -0.00297679 0.000850164 -0.000767681 0.00476472 0.00206535 0.00043134 0.00404912 0.0042957 -0.00109045 0.00907109 0.00471303 -0.00271686 -0.00251368
internal_weight=0 551040 2.02946e+06 232298 1.40276e+06 626697 117189 318742 115109 91769 194127 154412 337002 300232 36770 224425 1.17834e+06 24029 276203 289695 124615 85182 220190 34282 107485 247801 52290 69230 916456 691679
internal_count=2580498 551040 2029458 232298 1402761 626697 117189 318742 115109 91769 194127 154412 337002 300232 36770 224425 1178336 24029 276203 289695 124615 85182 220190 34282 107485 247801 52290 69230 916456 691679
is_linear=0
shrinkage=0.05


Tree=19
num_leaves=31
num_cat=0
split_feature=41 41 41 43 36 5 2 36 39 43 32 36 43 43 34 42 3 39 34 18 32 43 33 40 35 42 38 18 32 42
split_gain=7648.61 1251.01 747.332 193.777 163.426 158.075 117.834 113.228 111.186 110.692 106.437 101.179 90.3659 83.961 75.2386 73.7728 72.6633 71.784 63.2787 59.5399 56.857 69.8442 56.6109 56.1044 56.8834 53.3198 52.9675 52.6861 52.1844 57.7224
threshold=0.40270270270270275 0.20344827586206904 0.67204301075268835 2.5000000000000004 0.49073756432247007 0.075498575498575513 0.045000000000000005 0.12535714285714292 8.5000000000000018 5.5000000000000009 8.5000000000000018 0.45845127809229719 5.5000000000000009 5.5000000000000009 45308.340000000004 1.0000000180025095e-35 1.0000000180025095e-35 3.5000000000000004 133667.44000000003 0.46862745098039221 8.5000000000000018 5.5000000000000009 13.500000000000002 0.49394343941587932 8.5000000000000018 1.0000000180025095e-35 18988097.400000002 0.71240601503759404 10.500000000000002 1.0000000180025095e-35
decision_type=2 2 2 2 2 2 2 2 2 2 2 2 2 2 2 2 2 2 2 2 2 2 2 2 2 2 2 2 2 2
left_child=1 3 5 7 18 11 10 8 -1 17 14 26 23 16 -3 19 -12 -5 -4 -7 -13 28 -9 24 -6 27 -2 -8 29 -22
right_child=2 6 4 9 12 15 25 22 -10 -11 13 20 -14 -15 -16 -17 -18 -19 -20 -21 21 -23 -24 -25 -26 -27 -28 -29 -30 -31
leaf_value=-0.0015258683428869824 0.0019267288274663202 0.00074169130651867182 0.0034527983085277125 0.0025141067537288193 0.0065752598687197593 0.0078070167297538563 0.0037404123312623294 -0.00059912892057863555 -0.0026925070882563591 0.002375609640370601 -0.00029247819850798077 0.0073035775423177275 0.011692703873789269 0.0031917484389433685 0.0050012508969576831 0.0035294847063195114 0.0015884878639368057 -0.0012804773795638167 0.0080849400265215789 0.0051044693433175553 0.0025019582436199544 0.0067340407284203381 -0.0029817972416672327 0.011766211225103145 0.0095764190390674291 0.00039236822326234739 0.0087767338654452642 0.00028498575292729042 0.0038590189562255788 -0.0073748987946290522
leaf_weight=273819 69785 19693 15975 12903 30417 51580 64206 142332 803601 23636 252177 16383 39454 23440 21891 22659 64471 365887 13692 33692 4507 20697 30223 12772 32830 22720 2941 13320 76593 2202
leaf_count=273819 69785 19693 15975 12903 30417 51580 64206 142332 803601 23636 252177 16383 39454 23440 21891 22659 64471 365887 13692 33692 4507 20697 30223 12772 32830 22720 2941 13320 76593 2202
internal_value=0 -0.00124461 0.00595367 -0.00189835 0.00890074 0.0045328 0.000996904 -0.00220557 -0.00239601 -0.000944076 0.000596214 0.00367623 0.00975116 0.000304244 0.00298404 0.00606536 9.04952e-05 -0.00115122 0.00559064 0.00673921 0.0045658 0.00413451 -0.00101645 0.00874349 0.00813309 0.00252247 0.00220374 0.00314672 0.00348864 -0.000739783
internal_weight=0 2.13432e+06 446179 1.6524e+06 145140 301039 481918 1.24998e+06 1.07742e+06 402426 381672 193108 115473 340088 41584 107931 316648 378790 29667 85272 120382 103999 172555 76019 63247 100246 72726 77526 83302 6709
internal_count=2580498 2134319 446179 1652401 145140 301039 481918 1249975 1077420 402426 381672 193108 115473 340088 41584 107931 316648 378790 29667 85272 120382 103999 172555 76019 63247 100246 72726 77526 83302 6709
is_linear=0
shrinkage=0.05


Tree=20
num_leaves=31
num_cat=0
split_feature=41 41 41 34 39 41 36 16 36 43 39 16 15 43 15 33 4 18 34 32 43 31 33 42 43 5 38 42 32 32
split_gain=6910.32 940.005 824.563 190.129 181.491 145.814 139.663 136.293 119.338 93.2657 90.0427 79.3016 79.0869 66.5922 61.29 60.5089 59.9322 59.5051 55.4834 53.2856 53.0007 52.6798 64.3237 90.8009 51.7091 49.8614 51.7893 48.6665 48.1975 52.2299
threshold=0.3771551724137932 0.19139194139194141 0.62678571428571439 40010.000000000007 5.5000000000000009 0.83666666666666667 0.15018796992481206 0.067816091954023008 0.26209992193598758 5.5000000000000009 12.500000000000002 0.061250000000000006 0.091750841750841777 2.5000000000000004 0.1126984126984127 10.500000000000002 0.23973727422003288 0.96159420289855091 86862.020000000004 8.5000000000000018 2.5000000000000004 1.0000000180025095e-35 13.500000000000002 1.0000000180025095e-35 2.5000000000000004 0.01870629370629371 3657749.6200000006 1.0000000180025095e-35 8.5000000000000018 10.500000000000002
decision_type=2 2 2 2 2 2 2 2 2 2 2 2 2 2 2 2 2 2 2 2 2 2 2 2 2 2 2 2 2 2
left_child=1 4 7 24 15 17 10 9 16 12 13 14 -2 -6 20 -1 25 21 -9 -13 -10 22 -5 -24 -4 26 -3 -20 -8 -30
right_child=2 8 3 5 6 -7 28 18 11 -11 -12 19 -14 -15 -16 -17 -18 -19 27 -21 -22 -23 23 -25 -26 -27 -28 -29 29 -31
leaf_value=-0.0012149140528178658 0.0013842103184636503 -0.0011185197924587136 0.00087920877765985885 0.0070833840060609762 -0.0020863124031694929 0.010722471820720635 0.0015981052853536563 0.003924576278492571 -0.00057516537186706653 0.0055489187937903762 -0.0026521700516373031 0.0058573034828845816 0.0036763207914676079 -0.00095480054095822874 0.0020857817400857862 0.0012022940935080334 0.0016099831395596691 0.0051343484610094367 0.0067690970214944572 0.0021276663143013439 0.0014509652225557328 0.0088361853197180661 0.0052753996356142722 -0.013146399717224106 0.0057249506036146681 0.0012861284202903469 0.0034664196890668779 0.0035269887551231355 -0.0039966061161518709 -0.00073912711729763321
leaf_weight=46055 88295 154943 9792 23671 536486 51478 19962 63907 85254 26966 580345 11174 65589 171629 62037 59130 36989 21347 49123 66995 51941 64822 2098 982 12576 29918 6414 15143 13389 152048
leaf_count=46055 88295 154943 9792 23671 536486 51478 19962 63907 85254 26966 580345 11174 65589 171629 62037 59130 36989 21347 49123 66995 51941 64822 2098 982 12576 29918 6414 15143 13389 152048
internal_value=0 -0.00126181 0.00530569 0.00792858 -0.00186263 0.00851703 -0.00200583 0.00372048 0.000614388 0.00283648 -0.00219046 0.00131116 0.00236116 -0.00181206 0.000781627 0.000143925 -0.000232376 0.00751161 0.00496778 0.00266081 0.000191913 0.00806578 0.00619898 -0.000598044 0.00360364 -0.000588654 -0.000936267 0.00600516 -0.000722722 -0.00100276
internal_weight=0 2.08471e+06 495789 186766 1.57904e+06 164398 1.47386e+06 309023 505665 180850 1.28846e+06 277401 153884 708115 199232 105185 228264 112920 128173 78169 137195 91573 26751 3080 22368 191275 161357 64266 185399 165437
internal_count=2580498 2084709 495789 186766 1579044 164398 1473859 309023 505665 180850 1288460 277401 153884 708115 199232 105185 228264 112920 128173 78169 137195 91573 26751 3080 22368 191275 161357 64266 185399 165437
is_linear=0
shrinkage=0.05


Tree=21
num_leaves=31
num_cat=0
split_feature=41 41 41 35 39 41 36 18 32 32 42 3 43 32 18 32 5 42 43 43 43 4 39 5 41 32 42 5 33 34
split_gain=6248.44 1166.46 470.769 223.709 191.319 168.064 138.352 113.583 86.919 154.17 111.473 88.5069 84.8633 86.4895 88.7084 110.8 85.2914 83.7062 78.39 75.9379 73.0868 66.829 63.468 62.1844 60.2093 96.8561 59.1813 56.0505 47.5207 61.0194
threshold=0.30901856763925734 0.54692082111436968 0.14495798319327735 5.5000000000000009 6.5000000000000009 0.78019323671497598 0.37161172161172162 0.67333333333333345 8.5000000000000018 10.500000000000002 1.0000000180025095e-35 0.060024009603841542 1.5000000000000002 7.5000000000000009 0.78174603174603186 10.500000000000002 0.23904761904761909 1.0000000180025095e-35 1.0000000180025095e-35 2.5000000000000004 1.0000000180025095e-35 0.17752100840336138 1.5000000000000002 0.25403225806451618 0.072751322751322761 7.5000000000000009 1.0000000180025095e-35 0.13809523809523813 13.500000000000002 26270.000000000004
decision_type=2 2 2 2 2 2 2 2 2 2 2 2 2 2 2 2 2 2 2 2 2 2 2 2 2 2 2 2 2 2
left_child=2 6 4 7 22 26 23 19 20 10 -10 -11 28 -14 15 17 21 -15 -6 -3 -8 -17 -1 -2 -20 -26 -5 -27 29 -4
right_child=1 3 12 5 18 -7 8 -9 9 11 -12 -13 13 14 -16 16 -18 -19 24 -21 -22 -23 -24 -25 25 27 -28 -29 -30 -31
leaf_value=0.0031662190169719356 0.0007993896207164618 0.0037650502734228584 -0.001976930325730496 0.0073050618640488471 -0.0029123664970031674 0.0099768389261252546 -0.0068868780460167103 0.0011578532796788195 0.0014810195382481198 0.0025906133211084231 -0.0073439585733973585 0.0049361296886966726 0.0028996655683382437 -0.00051212188601493832 -0.0018167798902101726 -7.7535175076941601e-05 0.0027613895447289377 -0.0056206606839604035 -0.0022072940439141252 0.0072052637359118071 0.006400134026721991 0.0023066832055331872 -0.00049717878316475649 0.0032224930972871192 0.0012922032160096835 -0.0018562228302515579 0.0044517855231426661 0.00018194258077977799 -0.0040074939157526785 2.5295924016151083e-06
leaf_weight=13004 117048 28728 67480 92084 237100 61768 1076 17595 9255 128881 5834 58465 28942 24925 53448 164742 44778 11822 628156 36322 27136 35773 130179 34218 30401 326300 22642 37621 12746 92029
leaf_count=13004 117048 28728 67480 92084 237100 61768 1076 17595 9255 128881 5834 58465 28942 24925 53448 164742 44778 11822 628156 36322 27136 35773 130179 34218 30401 326300 22642 37621 12746 92029
internal_value=0 0.00427953 -0.00141453 0.00686879 -0.00189637 0.00787407 0.00252265 0.00472194 0.00329333 0.00293098 -0.00193106 0.00332258 -0.000155119 0.000277145 5.09045e-05 0.00040484 0.000788417 -0.00215561 -0.00209324 0.00568596 0.00589337 0.000347823 -0.000164466 0.00134752 -0.0019033 -0.00141903 0.00674195 -0.00164552 -0.00106964 -0.000834877
internal_weight=0 641052 1.93945e+06 259139 1.40276e+06 176494 381913 82645 230647 202435 15089 187346 536685 364430 335488 282040 245293 36747 1.25958e+06 65050 28212 200515 143183 151266 1.02248e+06 394322 114726 363921 172255 159509
internal_count=2580498 641052 1939446 259139 1402761 176494 381913 82645 230647 202435 15089 187346 536685 364430 335488 282040 245293 36747 1259578 65050 28212 200515 143183 151266 1022478 394322 114726 363921 172255 159509
is_linear=0
shrinkage=0.05


Tree=22
num_leaves=31
num_cat=0
split_feature=41 41 41 43 36 1 2 43 36 15 16 39 43 32 18 43 43 39 42 18 34 33 32 40 5 18 42 29 33 34
split_gain=5661.52 922.703 555.606 158.305 136.247 132.907 105.405 98.9657 91.2455 88.4878 85.6642 81.1665 76.0707 62.7142 60.1106 64.1874 59.0785 57.3614 57.2904 61.4856 54.0555 51.6887 49.6851 49.4005 47.3407 45.9096 45.4667 55.1045 106.558 45.0245
threshold=0.40270270270270275 0.21583850931677021 0.67204301075268835 2.5000000000000004 0.49073756432247007 0.081666666666666679 0.045000000000000005 5.5000000000000009 0.14608739837398374 0.018894830659536545 0.12916666666666668 8.5000000000000018 5.5000000000000009 8.5000000000000018 0.90454545454545465 1.5000000000000002 5.5000000000000009 3.5000000000000004 1.0000000180025095e-35 0.46862745098039221 275121.00000000006 13.500000000000002 8.5000000000000018 0.729186316232599 1.0000000180025095e-35 0.38239845261121858 1.0000000180025095e-35 2.5000000000000004 7.0000000000000009 18029.400000000005
decision_type=2 2 2 2 2 2 2 2 2 2 2 2 2 2 2 2 2 2 2 2 2 2 2 2 2 2 2 2 2 2
left_child=1 3 5 8 20 9 10 17 11 16 14 -1 23 -12 15 -3 -2 -5 19 -7 -4 -10 -11 24 -6 26 -8 28 -28 -19
right_child=2 6 4 7 12 18 25 -9 21 22 13 -13 -14 -15 -16 -17 -18 29 -20 -21 -22 -23 -24 -25 -26 -27 27 -29 -30 -31
leaf_value=-0.0013149094378280938 0.0017975349629331891 -0.00092885495094681902 0.0034487070536593431 0.0023193675341864274 0.0059213597595565428 0.0071061893662449195 0.0037380488127935377 0.0023276613045072627 -0.00040467230971014671 0.0072489459369198053 0.0049325637223692972 -0.0023089291826365161 0.01022117056653909 0.0012784257616805959 -0.0014766622387203897 0.00097035075207409748 0.0049620141008096868 -0.0014101002691596371 0.0031306667146716949 0.0042553285250995741 0.00846159193546526 -0.0027099408063298467 0.0038730294990968472 0.012767479839393747 0.0084892844600217166 0.00055813905298205085 0.0048629029196158987 0.0036178911607031628 -0.0067713772088565426 -0.00017688129102811384
leaf_weight=273819 99926 62455 22611 12903 35878 48517 54115 24370 138571 12944 13658 821473 39454 83693 51459 154648 17303 269766 22371 30996 7056 29491 68982 4228 35913 25387 3261 8289 4964 101997
leaf_count=273819 99926 62455 22611 12903 35878 48517 54115 24370 138571 12944 13658 821473 39454 83693 51459 154648 17303 269766 22371 30996 7056 29491 68982 4228 35913 25387 3261 8289 4964 101997
internal_value=0 -0.0010708 0.00512224 -0.00161718 0.00766331 0.00389711 0.000907316 -0.000762247 -0.00189398 0.00314568 0.000520418 -0.00206043 0.0084398 0.00179109 5.98134e-05 0.000423998 0.00226461 -0.000958004 0.00536596 0.00599486 0.00464097 -0.000809194 0.00440641 0.00751527 0.00720595 0.00238176 0.00303725 0.000740796 -0.00215869 -0.00107175
internal_weight=0 2.13432e+06 446179 1.67239e+06 145140 301039 461929 409036 1.26335e+06 199155 365913 1.09529e+06 115473 97351 268562 217103 117229 384666 101884 79513 29667 168062 81926 76019 71791 96016 70629 16514 8225 371763
internal_count=2580498 2134319 446179 1672390 145140 301039 461929 409036 1263354 199155 365913 1095292 115473 97351 268562 217103 117229 384666 101884 79513 29667 168062 81926 76019 71791 96016 70629 16514 8225 371763
is_linear=0
shrinkage=0.05


Tree=23
num_leaves=31
num_cat=0
split_feature=41 41 36 3 39 2 34 34 32 43 32 18 41 32 32 17 42 41 41 1 3 42 43 43 39 18 42 29 33 43
split_gain=5114.86 960.474 385.005 186.461 175.552 141.606 113.247 104.555 99.2645 97.6049 97.187 97.7403 86.264 80.2893 100.068 87.4309 69.0372 67.562 64.7511 60.8926 60.7205 60.441 59.222 56.1976 53.9558 53.4514 59.1027 82.3728 142.656 51.2925
threshold=0.30901856763925734 0.57359307359307377 0.17516233766233769 0.051315789473684217 7.5000000000000009 0.078461538461538485 27600.600000000002 59591.010000000002 8.5000000000000018 5.5000000000000009 10.500000000000002 0.65942028985507262 0.75431034482758641 8.5000000000000018 10.500000000000002 0.12250000000000001 1.0000000180025095e-35 0.087595907928388769 0.90692640692640702 0.10811688311688313 0.078461538461538485 1.0000000180025095e-35 1.0000000180025095e-35 5.5000000000000009 1.5000000000000002 0.45080645161290328 1.0000000180025095e-35 2.5000000000000004 7.0000000000000009 2.5000000000000004
decision_type=2 2 2 2 2 2 2 2 2 2 2 2 2 2 2 2 2 2 2 2 2 2 2 2 2 2 2 2 2 2
left_child=2 5 4 7 9 6 29 23 -8 24 21 -12 -5 15 16 22 -15 -6 -9 -19 -16 -10 -4 -3 -1 26 -7 28 -28 -2
right_child=1 3 13 12 17 25 8 18 10 -11 11 -13 -14 14 20 -17 -18 19 -20 -21 -22 -23 -24 -25 -26 -27 27 -29 -30 -31
leaf_value=0.0025078185617173538 -0.0015641254571261379 0.0019325299224123517 -0.006022957195277099 0.0067018544175924469 -0.0021582816377437321 0.0054357183430206639 0.0048951505136042182 0.0055494638390540581 0.00025323779768192433 0.0044738096554607374 0.0028110725665837313 0.00013162180663755713 0.0095872914368046614 -0.00093379210116391407 -0.00022738284222820941 0.0054483272329778377 -0.0058966101196251423 -0.0015781189188949489 0.0094244353800018478 0.00044668056843693801 0.0015261618786869683 -0.0064558448546490413 0.0013546788028472713 0.0065140267443450197 -0.00087218248025427579 0.0023992208458907612 0.0051601032496853914 0.00571682692838187 -0.0073812035743386828 0.0015746130503118438
leaf_weight=12315 31090 29590 3027 57379 849254 58474 31820 76922 10224 9281 149211 44092 47219 17018 274833 13559 11913 333143 12538 41789 60177 4998 26831 8650 286306 39097 4486 8287 4585 22390
leaf_count=12315 31090 29590 3027 57379 849254 58474 31820 76922 10224 9281 149211 44092 47219 17018 274833 13559 11913 333143 12538 41789 60177 4998 26831 8650 286306 39097 4486 8287 4585 22390
internal_value=0 0.00387193 -0.0012798 0.00643922 -0.00164306 0.00241292 0.00183089 0.00515716 0.00229392 -0.000575852 0.00189699 0.0021999 0.00800444 8.64098e-05 -0.000156042 0.00211875 -0.00297735 -0.00191148 0.00609255 -0.00135244 8.7602e-05 -0.00194963 0.000606735 0.00296888 -0.000732793 0.00390094 0.00467519 0.00211319 -0.00117899 -0.000250057
internal_weight=0 641052 1.93945e+06 232298 1.53209e+06 408754 293825 127700 240345 307902 208525 193303 104598 407358 363941 43417 28931 1.22419e+06 89460 374932 335010 15222 29858 38240 298621 114929 75832 17358 9071 53480
internal_count=2580498 641052 1939446 232298 1532088 408754 293825 127700 240345 307902 208525 193303 104598 407358 363941 43417 28931 1224186 89460 374932 335010 15222 29858 38240 298621 114929 75832 17358 9071 53480
is_linear=0
shrinkage=0.05


Tree=24
num_leaves=31
num_cat=0
split_feature=41 41 41 43 5 36 2 43 43 36 16 42 29 33 34 32 39 43 42 18 43 32 39 34 32 34 18 38 32 32
split_gain=4638.57 754.308 452.63 138.129 124.817 120.696 89.0946 83.4383 75.8266 75.6174 74.9688 68.1901 87.9958 135.509 79.2525 59.2713 58.7802 57.9842 55.8996 52.6852 56.8465 52.6599 51.7975 51.3158 69.7607 51.1603 49.2035 44.9539 44.2825 53.2273
threshold=0.40270270270270275 0.21583850931677021 0.67204301075268835 2.5000000000000004 0.075498575498575513 0.52803983228511542 0.045000000000000005 5.5000000000000009 1.0000000180025095e-35 0.45845127809229719 0.12916666666666668 1.0000000180025095e-35 2.5000000000000004 7.0000000000000009 24055.500000000004 2.5000000000000004 4.5000000000000009 5.5000000000000009 1.0000000180025095e-35 0.90454545454545465 1.5000000000000002 8.5000000000000018 7.5000000000000009 18029.400000000005 37.500000000000007 24507.940000000006 0.46862745098039221 18988097.400000002 8.5000000000000018 10.500000000000002
decision_type=2 2 2 2 2 2 2 2 2 2 2 2 2 2 2 2 2 2 2 2 2 2 2 2 2 2 2 2 2 2
left_child=1 3 4 8 9 25 10 22 -1 27 19 14 13 -13 16 -16 -10 -7 26 20 -3 -12 -5 -24 -25 -4 -6 -2 -11 -30
right_child=2 6 5 7 18 17 -8 -9 11 28 21 12 -14 -15 15 -17 -18 -19 -20 -21 -22 -23 23 24 -26 -27 -28 -29 29 -31
leaf_value=-0.0024379848674171345 0.0012413549029789538 -0.00089951277039238312 0.00058680453378608176 0.00035177636209230193 0.0064497659457381637 0.0069570572560715485 0.0021748604679021131 0.0021725126974526175 0.00030532305458112188 0.0059546966204158357 0.0045309399081556916 0.00013017102231643863 -0.00047601784852622971 -0.0051826991806417392 0.0053940446423467034 -0.00042159129231067959 -0.001672414741542494 0.0094171725604893491 0.0026850775878226548 -0.0014057671135911977 0.00088779381512235048 0.0011825040274879343 -0.0015584523555768851 0.002941394504423659 -0.00074911665667076873 0.0053833092689700079 0.0039929803168492015 0.007551947029846455 -0.0011495897812661372 0.0034549755734411707
leaf_weight=285945 69785 62455 6698 73264 51580 69074 96016 24370 39633 16383 13658 16060 28001 47497 4547 120131 721540 36666 22659 51459 154648 83693 214126 15171 82105 32702 33692 2941 6709 97290
leaf_count=285945 69785 62455 6698 73264 51580 69074 96016 24370 39633 16383 13658 16060 28001 47497 4547 120131 721540 36666 22659 51459 154648 83693 214126 15171 82105 32702 33692 2941 6709 97290
internal_value=0 -0.000969248 0.00463645 -0.00146326 0.00353066 0.00692998 0.00081928 -0.000664662 -0.00172182 0.00276952 0.000463575 -0.0015123 -0.00281134 -0.00384021 -0.00137803 -0.000209495 -0.00156944 0.00781012 0.00489249 3.26818e-05 0.000373631 0.00165228 -0.000844408 -0.00112584 -0.000173551 0.0045679 0.00547906 0.00149655 0.00353855 0.00315793
internal_weight=0 2.13432e+06 446179 1.67239e+06 301039 145140 461929 409036 1.26335e+06 193108 365913 977409 91558 63557 885851 124678 761173 105740 107931 268562 217103 97351 384666 311402 97276 39400 85272 72726 120382 103999
internal_count=2580498 2134319 446179 1672390 301039 145140 461929 409036 1263354 193108 365913 977409 91558 63557 885851 124678 761173 105740 107931 268562 217103 97351 384666 311402 97276 39400 85272 72726 120382 103999
is_linear=0
shrinkage=0.05


Tree=25
num_leaves=31
num_cat=0
split_feature=41 41 41 43 3 2 15 34 36 43 36 43 39 32 32 42 14 18 32 41 39 33 42 18 29 33 40 34 29 18
split_gain=4186.57 686.755 406.225 130.128 116.877 114.033 82.352 80.455 79.598 79.3915 77.2765 73.8281 68.45 67.5164 81.2404 65.0589 64.6874 54.782 48.5408 47.4224 47.0166 46.8462 46.2831 55.2623 52.7352 95.1344 45.8531 44.4807 102.126 48.0285
threshold=0.41042780748663105 0.22474747474747478 0.67204301075268835 2.5000000000000004 0.078461538461538485 0.16904761904761909 1.0000000180025095e-35 39900.570000000007 0.10944940476190478 5.5000000000000009 0.20057471264367821 5.5000000000000009 11.500000000000002 8.5000000000000018 10.500000000000002 1.0000000180025095e-35 0.18019480519480524 0.46862745098039221 8.5000000000000018 0.91106719367588951 5.5000000000000009 13.500000000000002 1.0000000180025095e-35 0.45080645161290328 2.5000000000000004 13.500000000000002 0.42766283536737965 9513.0000000000018 2.5000000000000004 0.41042780748663105
decision_type=2 2 2 2 2 2 2 2 2 2 2 2 2 2 2 2 2 2 2 2 2 2 2 2 2 2 2 2 2 2
left_child=1 3 4 8 7 10 11 -2 12 20 -4 16 -1 -9 15 -15 -3 -16 -8 -7 -5 -10 23 -6 25 -24 -12 -22 -29 -30
right_child=2 6 5 9 22 19 18 13 21 -11 26 -13 -14 14 17 -17 -18 -19 -20 -21 27 -23 24 -25 -26 -27 -28 28 29 -31
leaf_value=-0.0013965808846143572 0.00071335679337981568 -0.00027445484260240152 0.0010728431783709102 0.00097455992561373307 0.0062874426892668353 0.007372210886815618 0.0046576069327414092 0.0057171852087599933 -0.00041130289486785636 0.0020707901887734286 0.0051869922863458052 0.0032065414478427293 -0.0021969653805127237 0.0011654428017040916 0.00393920697562237 -0.0075537742060912518 0.0013710325257867933 0.0017481534156702759 0.0016050849022878518 0.010544386215677428 -0.0015450933596682416 -0.0023389347665916378 0.0023301817207275078 0.0036324197689942407 0.0052010982398769858 -0.010011165835579537 0.0083360490769624519 0.0014125446081409785 -0.0007908094965201496 -0.0035590978001131348
leaf_weight=536622 42497 198441 9579 34787 50380 52224 14851 22275 180470 26012 53367 22333 531902 6655 74015 3153 85444 46420 105838 15214 167930 38188 9677 32078 10791 1862 14756 54015 120717 18005
leaf_count=536622 42497 198441 9579 34787 50380 52224 14851 22275 180470 26012 53367 22333 531902 6655 74015 3153 85444 46420 105838 15214 167930 38188 9677 32078 10791 1862 14756 54015 120717 18005
internal_value=0 -0.000919272 0.00441215 -0.00136746 0.00336097 0.00658348 0.000874533 0.00263731 -0.00161714 -0.000604906 0.00527783 0.00043856 -0.00179501 0.00317339 0.00273833 -0.00163754 0.000220806 0.0030947 0.0019807 0.00808785 -0.000780907 -0.000747958 0.00470775 0.00525458 0.00268847 0.00033871 0.0058691 -0.000950225 -0.000431921 -0.00115011
internal_weight=0 2.13556e+06 444943 1.70865e+06 299803 145140 426907 195015 1.28718e+06 421466 77702 306218 1.06852e+06 152518 130243 9808 283885 120435 120689 67438 395454 218658 104788 82458 22330 11539 68123 360667 192737 138722
internal_count=2580498 2135555 444943 1708648 299803 145140 426907 195015 1287182 421466 77702 306218 1068524 152518 130243 9808 283885 120435 120689 67438 395454 218658 104788 82458 22330 11539 68123 360667 192737 138722
is_linear=0
shrinkage=0.05


Tree=26
num_leaves=31
num_cat=0
split_feature=41 41 36 34 39 36 4 34 32 43 42 43 33 29 16 32 18 29 33 42 43 34 32 5 4 36 3 5 39 42
split_gain=3793.49 727.474 291.962 175.919 138.756 124.639 101.352 87.2779 85.2995 83.2422 82.728 80.1517 67.4586 75.4544 63.4884 61.8255 63.1513 60.6594 160.639 52.7258 52.4693 53.7135 97.5947 69.7972 54.1532 46.2358 46.0695 45.9471 45.1624 45.1011
threshold=0.30901856763925734 0.53452380952380951 0.18429276315789475 150006.00000000003 7.5000000000000009 0.49073756432247007 0.017424242424242429 27257.400000000005 8.5000000000000018 5.5000000000000009 1.0000000180025095e-35 4.5000000000000009 13.500000000000002 2.5000000000000004 0.072751322751322761 10.500000000000002 0.47722567287784684 2.5000000000000004 13.500000000000002 1.0000000180025095e-35 1.0000000180025095e-35 6915.0000000000009 7.5000000000000009 0.01870629370629371 0.19615384615384621 0.65669642857142863 1.0000000180025095e-35 0.19397993311036793 14.500000000000002 1.0000000180025095e-35
decision_type=2 2 2 2 2 2 2 2 2 2 2 2 2 2 2 2 2 2 2 2 2 2 2 2 2 2 2 2 2 2
left_child=2 6 4 5 11 -3 7 -2 -9 27 25 -1 14 19 -4 -10 -17 18 -12 -14 -6 28 -23 24 26 -5 -24 -7 -22 -8
right_child=1 3 12 10 20 9 29 8 15 -11 17 -13 13 -15 -16 16 -18 -19 -20 -21 21 22 23 -25 -26 -27 -28 -29 -30 -31
leaf_value=-0.00075643331161360638 -0.00046974177834733469 0.0019656219203155862 8.9626426122070354e-05 0.00648437594314079 -0.0023348910876030272 0.0034944248739017889 0.0037671379476751374 0.0044009045581657686 -0.0018016393630050883 0.0069434100797177035 0.004482782574151834 0.0017560776101835226 -0.0016027472001207633 -0.00019063123527927604 0.0018274090279746355 0.0023538681144595389 0.00030344033997457473 0.007880015001671235 -0.011721299948690941 -0.0062241060494966647 -0.0015384382587282502 0.0011961113016757091 -0.0019361346834448447 0.00029809297228560974 3.1830674563774453e-05 0.009128691552621658 -0.00012716138373549974 0.0057254194105818626 -0.0025764243702925422 0.0012206783732793334
leaf_weight=272222 52322 41167 223146 29334 227706 63813 79962 27637 13762 42478 13433 35932 17065 76925 68752 114652 55842 8677 1726 9669 315564 40883 350853 57117 47596 37874 39120 36153 156896 22220
leaf_count=272222 52322 41167 223146 29334 227706 63813 79962 27637 13762 42478 13433 35932 17065 76925 68752 114652 55842 8677 1726 9669 315564 40883 350853 57117 47596 37874 39120 36153 156896 22220
internal_value=0 0.00333449 -0.00110216 0.00527992 -0.00141268 0.00438885 0.00187618 0.00135903 0.0018106 0.00508918 0.00707695 -0.000463464 0.000109824 -0.000985887 0.000498934 0.00142208 0.00168229 0.00454611 0.00263779 -0.00327417 -0.00164939 -0.00149454 -0.00115173 -0.00134577 -0.00156034 0.00797454 -0.00175467 0.00430127 -0.00188314 0.0032134
internal_weight=0 641052 1.93945e+06 274655 1.54389e+06 183611 366397 264215 211893 142444 91044 308154 395557 103659 291898 184256 170494 23836 15159 26734 1.23574e+06 1.00803e+06 535569 494686 437569 67208 389973 99966 472460 102182
internal_count=2580498 641052 1939446 274655 1543889 183611 366397 264215 211893 142444 91044 308154 395557 103659 291898 184256 170494 23836 15159 26734 1235735 1008029 535569 494686 437569 67208 389973 99966 472460 102182
is_linear=0
shrinkage=0.05


Tree=27
num_leaves=31
num_cat=0
split_feature=41 41 36 3 39 43 34 43 41 18 4 43 32 32 17 32 32 5 34 34 33 42 43 39 31 33 42 3 32 32
split_gain=3424.83 677.924 244.31 168.566 125.23 98.8651 86.0905 80.8186 79.517 78.3118 61.7796 61.7006 60.3351 76.4899 73.9316 58.4429 59.1141 59.6023 51.9874 50.6262 51.6344 50.1834 49.0302 48.7938 48.2352 53.7135 64.4686 47.4366 46.6879 60.1011
threshold=0.30217391304347829 0.53452380952380951 0.19034679089026918 0.16904761904761909 8.5000000000000018 1.5000000000000002 79800.60000000002 3.5000000000000004 0.81365740740740744 0.94097222222222232 0.18465909090909097 5.5000000000000009 8.5000000000000018 10.500000000000002 0.21583850931677021 7.5000000000000009 10.500000000000002 0.17712418300653598 27257.400000000005 26612.000000000004 13.500000000000002 1.0000000180025095e-35 1.0000000180025095e-35 15.500000000000002 1.0000000180025095e-35 13.500000000000002 1.0000000180025095e-35 0.078461538461538485 10.500000000000002 8.5000000000000018
decision_type=2 2 2 2 2 2 2 2 2 2 2 2 2 2 2 2 2 2 2 2 2 2 2 2 2 2 2 2 2 2
left_child=2 5 4 6 7 19 11 -1 -5 10 15 -3 14 21 22 -7 -17 -18 23 -2 -21 -14 -4 -6 25 -8 -27 -15 29 -12
right_child=1 3 12 8 18 9 24 -9 -10 -11 28 -13 13 27 -16 16 17 -19 -20 20 -22 -23 -24 -25 -26 26 -28 -29 -30 -31
leaf_value=-0.00089055700297263553 -0.0021085399771794649 0.0018037191026273665 -0.0056790481066120039 0.0056036051068692888 -0.0014946120235360847 0.0049433995316236169 0.0042237194325992385 0.001054204371244073 0.0084476344501595111 0.00052715742552760154 0.0045833649971341135 0.0052911345066342019 -0.00087959784251877185 -0.00020632869123736477 0.0050639387328328209 -0.0010363034782455856 0.0014717920203601565 0.0038376747989612306 -0.00070198596062284529 0.0012813368299980287 -0.0037589256747670372 -0.0052465338855888976 0.0011732437004077477 -0.0022413706460393729 0.0059001269957356973 0.0018498015160860683 -0.012549109897391062 0.0014159096817893835 0.0044933566374840781 -0.0020795994639649599
leaf_weight=345943 17623 53386 2910 84372 677354 16069 27442 63178 34679 56508 6705 16635 15878 254619 12672 16673 96997 36690 138440 65026 5512 11233 25369 323088 54172 2908 1061 54754 55768 6834
leaf_count=345943 17623 53386 2910 84372 677354 16069 27442 63178 34679 56508 6705 16635 15878 254619 12672 16673 96997 36690 138440 65026 5512 11233 25369 323088 54172 2908 1061 54754 55768 6834
internal_value=0 0.00312293 -0.00106246 0.00501592 -0.00134057 0.00175617 0.00393245 -0.00059024 0.00643206 0.0021989 0.00259963 0.00263223 7.81569e-05 -0.000142381 0.00189026 0.00207729 0.00177099 0.0021211 -0.00161011 0.000288588 0.000887479 -0.00268897 0.000468121 -0.00173577 0.00499624 0.00343739 -0.00199934 8.07812e-05 0.00385394 0.00122014
internal_weight=0 655060 1.92544e+06 274655 1.548e+06 380405 155604 409121 119051 292244 235736 70021 377435 336484 40951 166429 150360 133687 1.13888e+06 88161 70538 27111 28279 1.00044e+06 85583 31411 3969 309373 69307 13539
internal_count=2580498 655060 1925438 274655 1548003 380405 155604 409121 119051 292244 235736 70021 377435 336484 40951 166429 150360 133687 1138882 88161 70538 27111 28279 1000442 85583 31411 3969 309373 69307 13539
is_linear=0
shrinkage=0.05


Tree=28
num_leaves=31
num_cat=0
split_feature=41 41 41 2 39 36 1 35 18 43 43 15 39 41 17 2 33 34 41 32 32 3 4 42 32 17 43 32 34 32
split_gain=3103.65 509.929 310.5 122.466 109.303 100.932 85.1655 75.541 75.2555 73.365 67.6329 60.862 59.6606 49.7349 47.7074 47.1664 46.0188 54.6261 45.8006 42.0131 49.7667 48.5599 41.2904 40.8999 40.5591 42.9087 38.8419 42.7336 37.8937 71.9376
threshold=0.41042780748663105 0.22474747474747478 0.63818181818181829 0.18019480519480524 3.5000000000000004 0.18429276315789475 0.081666666666666679 2.5000000000000004 0.96159420289855091 1.5000000000000002 1.0000000180025095e-35 0.078461538461538485 10.500000000000002 0.89181286549707606 0.27888888888888896 0.057983193277310933 13.500000000000002 35101.80000000001 0.91106719367588951 7.5000000000000009 10.500000000000002 0.12701612903225809 0.32971014492753631 1.0000000180025095e-35 8.5000000000000018 0.24217986314760512 5.5000000000000009 37.500000000000007 6915.0000000000009 7.5000000000000009
decision_type=2 2 2 2 2 2 2 2 2 2 2 2 2 2 2 2 2 2 2 2 2 2 2 2 2 2 2 2 2 2
left_child=1 4 6 7 -1 10 11 -4 9 16 -6 -2 26 -9 -10 19 17 -3 -5 -11 23 22 -22 -21 25 -7 27 -12 -14 -30
right_child=2 8 3 18 5 24 -8 13 14 15 12 -13 28 -15 -16 -17 -18 -19 -20 20 21 -23 -24 -25 -26 -27 -28 -29 29 -31
leaf_value=0.0011661456623240469 0.0013144946781671295 -0.0012252127782163696 0.0011729021977554639 0.0062868767282832768 -0.0021355440898469949 0.00029453253656156332 0.0039793083910789045 0.004237128895112751 -0.0012566675437376607 0.0035063662354249468 -0.0014372092448886979 0.0031996113413696376 -0.0019283434066631009 0.0072927649516511123 0.0018200681506281642 0.0027655970010938948 -0.0040626706175115124 0.0012806987334453325 0.0093364819856870587 2.0464419301079574e-05 0.00029017048653023962 0.0028510865471754535 0.002618229928641668 -0.004872092217825654 -0.00051281900807698697 0.0048152097456776663 0.0021421504949532249 -0.00046718166397776047 0.0012560448520548891 -0.0013889392218494265
leaf_weight=48334 104984 38408 16731 64597 258367 18221 88942 65455 63014 17142 197454 72305 327313 16718 15748 58133 6841 50135 15211 14996 97492 35355 23670 5973 207427 7373 10885 267154 27821 338299
leaf_count=48334 104984 38408 16731 64597 258367 18221 88942 65455 63014 17142 197454 72305 327313 16718 15748 58133 6841 50135 15211 14996 97492 35355 23670 5973 207427 7373 10885 267154 27821 338299
internal_value=0 -0.0007915 0.0037989 0.00541103 -0.0011777 -0.00124593 0.00271673 0.00423527 0.000754214 0.00106997 -0.00140345 0.00208331 -0.00124163 0.00485879 -0.000641492 0.00151585 -0.000111579 0.00019369 0.00686812 0.00114256 0.000914263 0.00122072 0.000744976 -0.00137318 -0.000281105 0.00159683 -0.000810264 -0.000879434 -0.00153743 -0.00118795
internal_weight=0 2.13556e+06 444943 178712 1.70865e+06 1.66031e+06 266231 98904 426907 348145 1.42729e+06 177289 1.16893e+06 82173 78762 252761 95384 88543 79808 194628 177486 156517 121162 20969 233021 25594 475493 464608 693433 366120
internal_count=2580498 2135555 444943 178712 1708648 1660314 266231 98904 426907 348145 1427293 177289 1168926 82173 78762 252761 95384 88543 79808 194628 177486 156517 121162 20969 233021 25594 475493 464608 693433 366120
is_linear=0
shrinkage=0.05


Tree=29
num_leaves=31
num_cat=0
split_feature=41 41 41 2 43 18 39 15 41 32 32 18 3 4 32 16 32 43 43 14 5 33 33 32 42 18 29 33 18 34
split_gain=2807.23 523.578 238.837 103.811 100.935 98.7082 92.7839 83.4392 77.0756 79.7452 71.7959 87.1066 78.4598 70.1799 67.9864 66.8586 64.0379 63.7608 62.5617 60.607 52.1065 48.5948 47.2693 45.8664 44.6897 44.073 43.5618 89.8647 58.3118 43.4173
threshold=0.43050193050193053 0.22902097902097909 0.71714285714285719 0.096097020438315708 1.5000000000000002 0.96159420289855091 3.5000000000000004 1.0000000180025095e-35 0.072751322751322761 7.5000000000000009 11.500000000000002 0.83484848484848495 1.0000000180025095e-35 0.13809523809523813 10.500000000000002 0.017403147699757874 4.5000000000000009 2.5000000000000004 5.5000000000000009 0.15075757575757578 0.12701612903225809 7.0000000000000009 13.500000000000002 8.5000000000000018 1.0000000180025095e-35 0.45080645161290328 2.5000000000000004 7.0000000000000009 0.062258064516129037 25112.300000000003
decision_type=2 2 2 2 2 2 2 2 2 2 2 2 2 2 2 2 2 2 2 2 2 2 2 2 2 2 2 2 2 2
left_child=1 4 3 15 16 17 -6 18 14 21 -11 12 13 20 -8 -2 -1 -4 19 -3 -12 -10 29 -9 25 -5 27 -26 -29 -18
right_child=2 7 5 24 6 -7 8 23 9 10 11 -13 -14 -15 -16 -17 22 -19 -20 -21 -22 -23 -24 -25 26 -27 -28 28 -30 -31
leaf_value=0.00044407192826653453 0.0014724378038070102 -0.00032213923451180547 0.0048312782236583363 0.0057975623554214484 0.0019595051066841483 0.002820550448098421 -0.0021600367866349292 0.0042922994109100511 -0.00087011137751159123 -0.0020225245425262535 -0.00090060325843083005 -0.0024131200124664787 0.0020488306726381867 0.0017884097600209693 -0.00089203403912503491 0.0034107557753799765 -0.0017090567555338486 0.0074175858705321897 0.0027515191419233919 0.0012109398251866428 0.0013501467220473752 0.0029841652800168665 -0.0032053696932492397 0.0014831536160385503 0.0036364527918994766 0.003413402577513062 0.00462069467614315 -0.010010151150419548 0.0018492880286205384 -0.00046461360090545946
leaf_weight=37877 104824 208992 40431 47810 29893 24699 159899 16578 11905 74544 212265 43566 39747 34319 311937 77292 573606 58040 25039 93222 29259 26122 46593 117661 7096 32602 10448 2706 1680 79846
leaf_count=37877 104824 208992 40431 47810 29893 24699 159899 16578 11905 74544 212265 43566 39747 34319 311937 77292 573606 58040 25039 93222 29259 26122 46593 117661 7096 32602 10448 2706 1680 79846
internal_value=0 -0.000714286 0.00380752 0.00301112 -0.00111733 0.00564679 -0.00078301 0.000780347 -0.000869895 -0.000417942 -0.000610441 -0.000317359 -2.80468e-05 -0.00032731 -0.00132174 0.00229508 -0.00155836 0.00635568 0.000349751 0.00015076 -0.00062794 0.00177752 -0.00166671 0.00183007 0.0042853 0.00483094 0.00228457 0.000158823 -0.00546755 -0.001557
internal_weight=0 2.17287e+06 407628 284458 1.71138e+06 123170 973456 461492 943563 471727 433700 359156 315590 275843 471836 182116 737922 98471 327253 302214 241524 38027 700045 134239 102342 80412 21930 11482 4386 653452
internal_count=2580498 2172870 407628 284458 1711378 123170 973456 461492 943563 471727 433700 359156 315590 275843 471836 182116 737922 98471 327253 302214 241524 38027 700045 134239 102342 80412 21930 11482 4386 653452
is_linear=0
shrinkage=0.05


Tree=30
num_leaves=31
num_cat=0
split_feature=41 41 36 1 39 3 18 32 43 4 41 1 16 43 43 41 39 15 34 42 18 29 33 43 34 32 16 31 33 18
split_gain=2538.16 485.141 202.898 144.368 97.46 96.8614 78.3023 76.8836 70.7049 65.7945 63.283 61.9317 61.5497 61.2405 57.0535 53.8752 52.4348 50.4027 43.4218 41.0675 47.7066 44.0965 66.4228 40.2445 42.7256 38.0992 37.0992 36.9755 61.4746 36.4567
threshold=0.31414473684210531 0.54692082111436968 0.22594670406732123 0.042222222222222237 3.5000000000000004 0.096006144393241177 0.96159420289855091 8.5000000000000018 1.0000000180025095e-35 0.21980676328502416 0.85960591133004938 0.069047619047619066 1.0000000180025095e-35 1.0000000180025095e-35 2.5000000000000004 0.05634920634920635 13.500000000000002 0.1126984126984127 213129.00000000003 1.0000000180025095e-35 0.48435972629521024 2.5000000000000004 7.0000000000000009 5.5000000000000009 26612.000000000004 8.5000000000000018 0.34632683658170921 1.0000000180025095e-35 13.500000000000002 0.062258064516129037
decision_type=2 2 2 2 2 2 2 2 2 2 2 2 2 2 2 2 2 2 2 2 2 2 2 2 2 2 2 2 2 2
left_child=2 5 4 6 -1 7 14 13 -6 23 -5 16 17 -2 18 -13 -10 27 -3 20 -7 22 -21 24 -9 -14 -8 28 -4 -24
right_child=1 3 12 10 8 19 26 9 11 -11 -12 15 25 -15 -16 -17 -18 -19 -20 21 -22 -23 29 -25 -26 -27 -28 -29 -30 -31
leaf_value=0.0010783647596971739 -0.006704549997277081 0.0021084463928184526 -0.00065101425399714395 0.0051437300793224488 -0.0019373069191353086 0.0042685629446767362 -0.000272800403804406 -0.0013846356212241396 -0.00090607512853129878 0.0021865374826640239 0.0080455240976971456 -0.0015482349254982849 0.0040235120176156033 0.0038590121663412366 0.0050308160860529473 0.00092584009495247767 -0.0016058254998357877 0.00102618564381655 0.0057397596144465116 0.0023438371988705503 0.0017345578141069859 0.0031835344636171286 -0.0076020560467594082 0.00251225057760176 0.00051200873702355752 0.00096750940613632018 0.0031340687324985131 -5.3524108934647786e-05 -0.0041221993899294594 0.0022224985317073087
leaf_weight=48334 1436 43297 53195 87623 269787 54335 18303 39624 772455 62061 23917 32270 12050 30790 61651 69168 409713 67135 10165 6136 28221 11611 4043 18319 118475 66386 14183 127805 16778 1232
leaf_count=48334 1436 43297 53195 87623 269787 54335 18303 39624 772455 62061 23917 32270 12050 30790 61651 69168 409713 67135 10165 6136 28221 11611 4043 18319 118475 66386 14183 127805 16778 1232
